SVM-light Version V6.02
2 # kernel type
3 # kernel parameter -d 
1 # kernel parameter -g 
1 # kernel parameter -s 
1 # kernel parameter -r 
empty# kernel parameter -u 
3 # highest feature index 
21552 # number of training documents 
3991 # number of support vectors plus 1 
-0.52545016 # threshold b, each following line is a SV (starting with alpha*y)
0.76842621021335388853401582309743 1:0.32068965 2:1 3:1 #
0.76842621021335388853401582309743 1:0.2742857 2:0.25396827 3:0 #
-0.73785642976564680406426077752258 1:0.30142859 2:0.17204301 3:0 #
0.76842621021335388853401582309743 1:0.30500001 2:0.80000001 3:1 #
-0.76842621021335388853401582309743 1:0.60409093 2:0.44444445 3:1 #
0.76842621021335388853401582309743 1:0.35533333 2:0.96666664 3:1 #
-0.76842621021335388853401582309743 1:0.36000001 2:1 3:1 #
0.76842621021335388853401582309743 1:0.54500002 2:0.22580644 3:1 #
-0.76842621021335388853401582309743 1:0.41363636 2:0.029411765 3:1 #
0.76842621021335388853401582309743 1:0.31666666 2:0.46153846 3:1 #
-0.76842621021335388853401582309743 1:0.31269231 2:0.5714286 3:1 #
0.76842621021335388853401582309743 1:0.40714285 2:0.044444446 3:0 #
-0.76842621021335388853401582309743 1:0.38 2:0.16666667 3:0 #
0.76842621021335388853401582309743 1:0.24117647 2:0.38095239 3:1 #
0.76842621021335388853401582309743 1:0.21250001 2:0.89473683 3:1 #
0.76842621021335388853401582309743 1:0.39111111 2:0.93814433 3:0 #
-0.76842621021335388853401582309743 1:0.442 2:0.97297299 3:0 #
0.76842621021335388853401582309743 1:0.28916666 2:0.89999998 3:1 #
-0.76842621021335388853401582309743 1:0.40461537 2:0.93055558 3:1 #
0.76842621021335388853401582309743 1:0.31176472 2:0.22857143 3:1 #
-0.76842621021335388853401582309743 1:0.31342104 2:0.24324325 3:1 #
0.76842621021335388853401582309743 1:0.94999999 2:0.64705884 3:0 #
-0.76842621021335388853401582309743 1:0.495 2:0.55172414 3:0 #
0.76842621021335388853401582309743 1:0.46823528 2:0.2857143 3:1 #
-0.76842621021335388853401582309743 1:0.78416669 2:0.23999999 3:1 #
0.76842621021335388853401582309743 1:0.25777778 2:0.5 3:0 #
-0.76842621021335388853401582309743 1:0.42500001 2:0.55172414 3:0 #
0.76842621021335388853401582309743 1:0.28999999 2:0.14285715 3:1 #
-0.76842621021335388853401582309743 1:0.078000002 2:0.15151516 3:1 #
0.76842621021335388853401582309743 1:0.34999999 2:0.80000001 3:0 #
-0.76842621021335388853401582309743 1:0.39500001 2:0.85714287 3:0 #
0.76842621021335388853401582309743 1:0.19352941 2:0.875 3:1 #
-0.76842621021335388853401582309743 1:0.2263158 2:0.48148149 3:1 #
0.76842621021335388853401582309743 1:0.33375001 2:0.375 3:0 #
-0.76842621021335388853401582309743 1:0.33000001 2:0.36363637 3:0 #
0.76842621021335388853401582309743 1:0.26300001 2:0.62857145 3:1 #
-0.76842621021335388853401582309743 1:0.27599999 2:0.63636363 3:1 #
0.76842621021335388853401582309743 1:0.33250001 2:0.69999999 3:0 #
-0.76842621021335388853401582309743 1:0.35666665 2:0.71428573 3:0 #
0.76842621021335388853401582309743 1:0.43642858 2:0.66666669 3:1 #
-0.76842621021335388853401582309743 1:0.40925926 2:0.66666669 3:1 #
0.76842621021335388853401582309743 1:0.36833334 2:0.60000002 3:0 #
-0.76842621021335388853401582309743 1:0.34666666 2:0.6100629 3:0 #
0.76842621021335388853401582309743 1:0.22882353 2:0.80952382 3:1 #
-0.76842621021335388853401582309743 1:0.24944444 2:0.79411763 3:1 #
0.76842621021335388853401582309743 1:0.46529412 2:0.18181819 3:1 #
-0.76842621021335388853401582309743 1:0.47999999 2:0.21428572 3:1 #
0.76842621021335388853401582309743 1:0.36428571 2:0.85714287 3:1 #
-0.76842621021335388853401582309743 1:0.35538462 2:0.875 3:1 #
0.76842621021335388853401582309743 1:0.30894735 2:0.5 3:1 #
-0.76842621021335388853401582309743 1:0.31099999 2:0.47058824 3:1 #
0.76842621021335388853401582309743 1:0.27571428 2:1 3:1 #
-0.76842621021335388853401582309743 1:0.28488889 2:1 3:1 #
0.76842621021335388853401582309743 1:0.31944445 2:0.14285715 3:1 #
-0.76842621021335388853401582309743 1:0.32499999 2:0.12096774 3:1 #
0.76842621021335388853401582309743 1:0.31833333 2:1 3:1 #
-0.76842621021335388853401582309743 1:0.30526316 2:1 3:1 #
0.76842621021335388853401582309743 1:0.31583333 2:0.11428571 3:1 #
-0.76842621021335388853401582309743 1:0.31173912 2:0.11111111 3:1 #
0.76842621021335388853401582309743 1:0.46173912 2:1 3:1 #
-0.76842621021335388853401582309743 1:0.47285715 2:0.98245615 3:1 #
0.76842621021335388853401582309743 1:0.51999998 2:0.34999999 3:1 #
-0.76842621021335388853401582309743 1:0.51521736 2:0.35714287 3:1 #
0.76842621021335388853401582309743 1:0.25166667 2:1 3:1 #
-0.76842621021335388853401582309743 1:0.245 2:1 3:1 #
0.76842621021335388853401582309743 1:0.36666667 2:0.03846154 3:1 #
-0.76842621021335388853401582309743 1:0.38272727 2:0.02631579 3:1 #
0.76842621021335388853401582309743 1:0.33352941 2:0.85714287 3:1 #
-0.76842621021335388853401582309743 1:0.32078949 2:0.8611111 3:1 #
0.76842621021335388853401582309743 1:0.48480001 2:0.18421052 3:1 #
-0.76842621021335388853401582309743 1:0.45785713 2:0.2173913 3:1 #
0.76842621021335388853401582309743 1:0.46529412 2:0.66666669 3:1 #
-0.76842621021335388853401582309743 1:0.51521736 2:0.64705884 3:1 #
0.76842621021335388853401582309743 1:0.255 2:0.38961038 3:0 #
0.76842621021335388853401582309743 1:0.1383871 2:1 3:1 #
0.76842621021335388853401582309743 1:0.26714286 2:0.5714286 3:1 #
-0.76842621021335388853401582309743 1:0.26421052 2:0.5925926 3:1 #
0.76842621021335388853401582309743 1:0.62699997 2:0.45454547 3:1 #
-0.76842621021335388853401582309743 1:0.54454547 2:0.47619048 3:1 #
0.76842621021335388853401582309743 1:0.32571429 2:0.14285715 3:0 #
-0.76842621021335388853401582309743 1:0.51999998 2:0.05882353 3:0 #
0.76842621021335388853401582309743 1:0.43599999 2:0.77777779 3:1 #
-0.76842621021335388853401582309743 1:0.53100002 2:0.76190478 3:1 #
0.76842621021335388853401582309743 1:0.32571429 2:0.16666667 3:0 #
-0.76842621021335388853401582309743 1:0.21228571 2:0.8125 3:1 #
0.76842621021335388853401582309743 1:0.49416667 2:0.51219511 3:1 #
-0.76842621021335388853401582309743 1:0.47999999 2:0.52941179 3:1 #
0.76842621021335388853401582309743 1:0.24062499 2:0.40000001 3:1 #
-0.76842621021335388853401582309743 1:0.24133334 2:0.39534885 3:1 #
0.76842621021335388853401582309743 1:0.50954545 2:0.94444442 3:1 #
-0.76842621021335388853401582309743 1:0.37200001 2:0.97560978 3:1 #
0.76842621021335388853401582309743 1:0.16518518 2:0.02631579 3:1 #
-0.76842621021335388853401582309743 1:0.25299999 2:0.01369863 3:1 #
0.76842621021335388853401582309743 1:0.42533332 2:0.875 3:1 #
-0.76842621021335388853401582309743 1:0.41540539 2:0.83333331 3:1 #
0.76842621021335388853401582309743 1:0.13124999 2:0.25 3:1 #
-0.76842621021335388853401582309743 1:0.21189189 2:0.36842105 3:1 #
0.76842621021335388853401582309743 1:0.46923077 2:0.87179488 3:1 #
-0.76842621021335388853401582309743 1:0.40909091 2:0.78048778 3:1 #
0.76842621021335388853401582309743 1:0.42222223 2:0.33333334 3:1 #
-0.76842621021335388853401582309743 1:0.54454547 2:0.47826087 3:1 #
0.76842621021335388853401582309743 1:0.260625 2:1 3:1 #
-0.76842621021335388853401582309743 1:0.29121211 2:1 3:1 #
0.76842621021335388853401582309743 1:0.48909092 2:0.42857143 3:1 #
-0.76842621021335388853401582309743 1:0.39565217 2:0.35714287 3:1 #
0.76842621021335388853401582309743 1:0.41 2:0.55555558 3:0 #
-0.76842621021335388853401582309743 1:0.43625 2:0.47368422 3:0 #
0.76842621021335388853401582309743 1:0.30916667 2:0.5714286 3:1 #
-0.76842621021335388853401582309743 1:0.34789473 2:0.63636363 3:1 #
0.76842621021335388853401582309743 1:0.46250001 2:0.075000003 3:0 #
-0.76842621021335388853401582309743 1:0.48333332 2:0.17391305 3:0 #
0.76842621021335388853401582309743 1:0.28066668 2:0.77777779 3:1 #
-0.76842621021335388853401582309743 1:0.28615385 2:0.79166669 3:1 #
0.76842621021335388853401582309743 1:0.46000001 2:0.06818182 3:0 #
-0.76842621021335388853401582309743 1:0.43714285 2:0.032258064 3:0 #
0.76842621021335388853401582309743 1:0.330625 2:0.65517241 3:1 #
-0.76842621021335388853401582309743 1:0.3344 2:0.62 3:1 #
0.76842621021335388853401582309743 1:0.21333334 2:0.375 3:0 #
-0.76842621021335388853401582309743 1:0.21216217 2:0.78787881 3:1 #
0.76842621021335388853401582309743 1:0.40416667 2:0.55555558 3:1 #
-0.76842621021335388853401582309743 1:0.40909091 2:0.58974361 3:1 #
0.76842621021335388853401582309743 1:0.25999999 2:0.045454547 3:0 #
0.76842621021335388853401582309743 1:0.33902439 2:0.70731705 3:1 #
0.76842621021335388853401582309743 1:0.35238096 2:0.74074072 3:1 #
-0.76842621021335388853401582309743 1:0.39107144 2:0.76190478 3:1 #
0.76842621021335388853401582309743 1:0.42052633 2:0.11538462 3:1 #
-0.76842621021335388853401582309743 1:0.36166668 2:0.041666668 3:1 #
0.76842621021335388853401582309743 1:0.30363637 2:1 3:1 #
-0.76842621021335388853401582309743 1:0.32966667 2:1 3:1 #
0.76842621021335388853401582309743 1:0.23975609 2:0.125 3:1 #
-0.76842621021335388853401582309743 1:0.22212121 2:0.23913044 3:1 #
0.76842621021335388853401582309743 1:0.34066668 2:1 3:1 #
-0.76842621021335388853401582309743 1:0.32857144 2:1 3:1 #
0.76842621021335388853401582309743 1:0.245 2:0.42857143 3:1 #
-0.76842621021335388853401582309743 1:0.24142857 2:0.41666666 3:1 #
0.76842621021335388853401582309743 1:0.52200001 2:0.80645162 3:1 #
-0.76842621021335388853401582309743 1:0.51521736 2:0.71428573 3:1 #
0.76842621021335388853401582309743 1:0.23285714 2:0.43333334 3:1 #
-0.76842621021335388853401582309743 1:0.22888888 2:0.4909091 3:1 #
0.76842621021335388853401582309743 1:0.44928572 2:0.46875 3:1 #
-0.76842621021335388853401582309743 1:0.47999999 2:0.43478259 3:1 #
0.76842621021335388853401582309743 1:0.18944444 2:0.5 3:1 #
-0.76842621021335388853401582309743 1:0.21978724 2:0.5 3:1 #
0.76842621021335388853401582309743 1:0.330625 2:0.47619048 3:1 #
-0.76842621021335388853401582309743 1:0.33000001 2:0.5 3:1 #
0.76842621021335388853401582309743 1:0.30769232 2:0.95555556 3:1 #
-0.76842621021335388853401582309743 1:0.36121953 2:0.98000002 3:1 #
0.76842621021335388853401582309743 1:0.32449999 2:0.03846154 3:1 #
-0.76842621021335388853401582309743 1:0.29818183 2:0.022727273 3:1 #
0.76842621021335388853401582309743 1:0.40882352 2:0.8888889 3:1 #
-0.76842621021335388853401582309743 1:0.34812501 2:0.8888889 3:1 #
0.76842621021335388853401582309743 1:0.18478261 2:0.2857143 3:1 #
-0.76842621021335388853401582309743 1:0.22133334 2:0.27272728 3:1 #
0.76842621021335388853401582309743 1:0.47799999 2:0.9375 3:1 #
-0.76842621021335388853401582309743 1:0.34812501 2:0.91891891 3:1 #
0.76842621021335388853401582309743 1:0.27454546 2:0.46666667 3:1 #
-0.76842621021335388853401582309743 1:0.38481483 2:0.47619048 3:1 #
0.76842621021335388853401582309743 1:0.26225805 2:0.93023258 3:1 #
-0.76842621021335388853401582309743 1:0.33384615 2:0.95238096 3:1 #
0.76842621021335388853401582309743 1:0.24166666 2:0.31578946 3:1 #
-0.76842621021335388853401582309743 1:0.21600001 2:0.62962961 3:1 #
0.76842621021335388853401582309743 1:0.42458335 2:1 3:1 #
-0.76842621021335388853401582309743 1:0.34357142 2:0.9375 3:1 #
0.76842621021335388853401582309743 1:0.32449999 2:0.13636364 3:1 #
-0.76842621021335388853401582309743 1:0.375 2:0.14814815 3:1 #
0.76842621021335388853401582309743 1:0.17526315 2:0.85714287 3:1 #
-0.76842621021335388853401582309743 1:0.27599999 2:0.91397852 3:1 #
0.76842621021335388853401582309743 1:0.44346154 2:0.16666667 3:1 #
-0.76842621021335388853401582309743 1:0.35499999 2:0.15625 3:1 #
0.76842621021335388853401582309743 1:0.22695652 2:1 3:1 #
-0.76842621021335388853401582309743 1:0.29114285 2:1 3:1 #
0.76842621021335388853401582309743 1:0.34333333 2:0.13636364 3:1 #
-0.76842621021335388853401582309743 1:0.33000001 2:0.11764706 3:1 #
0.76842621021335388853401582309743 1:0.18260869 2:0.89999998 3:1 #
0.76842621021335388853401582309743 1:0.36000001 2:0.23809524 3:1 #
0.76842621021335388853401582309743 1:0.31156251 2:0.13157895 3:1 #
-0.76842621021335388853401582309743 1:0.33000001 2:0.14 3:1 #
0.76842621021335388853401582309743 1:0.32612902 2:0.84126985 3:1 #
-0.76842621021335388853401582309743 1:0.36000001 2:0.82857144 3:1 #
0.76842621021335388853401582309743 1:0.19499999 2:0.15789473 3:1 #
-0.76842621021335388853401582309743 1:0.10486487 2:0.14285715 3:1 #
0.76842621021335388853401582309743 1:0.30535713 2:1 3:1 #
-0.76842621021335388853401582309743 1:0.28777778 2:0.97777778 3:1 #
0.76842621021335388853401582309743 1:0.30423078 2:0.11111111 3:1 #
-0.76842621021335388853401582309743 1:0.31645834 2:0.1 3:1 #
0.76842621021335388853401582309743 1:0.18833333 2:0.86666667 3:1 #
-0.76842621021335388853401582309743 1:0.19782609 2:0.89130437 3:1 #
0.76842621021335388853401582309743 1:0.38833332 2:0.1 3:1 #
-0.76842621021335388853401582309743 1:0.38 2:0.10526316 3:1 #
0.76842621021335388853401582309743 1:0.2976923 2:1 3:1 #
-0.76842621021335388853401582309743 1:0.3009091 2:0.96551722 3:1 #
0.76842621021335388853401582309743 1:0.31666666 2:0.125 3:1 #
-0.76842621021335388853401582309743 1:0.32391304 2:0.11428571 3:1 #
0.76842621021335388853401582309743 1:0.25999999 2:0.6226415 3:1 #
-0.76842621021335388853401582309743 1:0.24666667 2:0.625 3:1 #
0.76842621021335388853401582309743 1:0.28 2:0.71428573 3:0 #
-0.76842621021335388853401582309743 1:0.38111112 2:0.7352941 3:0 #
0.76842621021335388853401582309743 1:0.2485 2:0.71428573 3:1 #
-0.76842621021335388853401582309743 1:0.21533333 2:0.71428573 3:1 #
0.76842621021335388853401582309743 1:0.51428574 2:0.22222222 3:0 #
-0.76842621021335388853401582309743 1:0.55222225 2:0.2857143 3:0 #
0.76842621021335388853401582309743 1:0.20852941 2:0.60000002 3:1 #
-3.05587951548677051738511778467e-06 1:0.029999999 2:0.23529412 3:0 #
0.76842621021335388853401582309743 1:0.37833333 2:0.91379309 3:0 #
-0.76842621021335388853401582309743 1:0.32499999 2:0.89655173 3:0 #
0.76842621021335388853401582309743 1:0.205 2:0.64150941 3:1 #
-0.76842621021335388853401582309743 1:0.2265 2:0.65714288 3:1 #
0.76842621021335388853401582309743 1:0.43142858 2:0.45833334 3:0 #
-0.76842621021335388853401582309743 1:0.37285715 2:0.42857143 3:0 #
0.76842621021335388853401582309743 1:0.45076925 2:0.83870965 3:1 #
-0.76842621021335388853401582309743 1:0.36759999 2:0.81818181 3:1 #
0.76842621021335388853401582309743 1:0.22125 2:0.36666667 3:0 #
-0.76842621021335388853401582309743 1:0.27625 2:0.36363637 3:0 #
0.76842621021335388853401582309743 1:0.2956 2:0.88333333 3:1 #
-0.76842621021335388853401582309743 1:0.33533335 2:0.94 3:1 #
0.76842621021335388853401582309743 1:0.48344827 2:0.16666667 3:1 #
-0.76842621021335388853401582309743 1:0.55500001 2:0.18181819 3:1 #
0.76842621021335388853401582309743 1:0.22714286 2:1 3:1 #
-0.76842621021335388853401582309743 1:0.25894737 2:1 3:1 #
0.76842621021335388853401582309743 1:0.41479999 2:0.31707317 3:1 #
-0.76842621021335388853401582309743 1:0.38583332 2:0.29268292 3:1 #
0.76842621021335388853401582309743 1:0.44965518 2:1 3:1 #
-0.76842621021335388853401582309743 1:0.31615385 2:0.94444442 3:1 #
0.76842621021335388853401582309743 1:0.33071429 2:0.083333336 3:1 #
-0.76842621021335388853401582309743 1:0.37923077 2:0.0625 3:1 #
0.76842621021335388853401582309743 1:0.485625 2:1 3:1 #
-0.76842621021335388853401582309743 1:0.32941177 2:0.91379309 3:1 #
0.76842621021335388853401582309743 1:0.18000001 2:0.125 3:1 #
-0.76842621021335388853401582309743 1:0.22750001 2:0.2 3:1 #
0.76842621021335388853401582309743 1:0.41850001 2:0.84375 3:1 #
-0.76842621021335388853401582309743 1:0.78416669 2:0.73333335 3:1 #
0.76842621021335388853401582309743 1:0.40833333 2:0.25 3:1 #
-0.76842621021335388853401582309743 1:0.26419353 2:0.44827586 3:1 #
0.76842621021335388853401582309743 1:0.41249999 2:0.72727275 3:0 #
-0.76842621021335388853401582309743 1:0.39500001 2:0.78494626 3:0 #
0.76842621021335388853401582309743 1:0.24217391 2:0.5625 3:1 #
-0.76842621021335388853401582309743 1:0.27384615 2:0.57894737 3:1 #
0.76842621021335388853401582309743 1:0.33375001 2:0.70833331 3:0 #
-0.76842621021335388853401582309743 1:0.33625001 2:0.70833331 3:0 #
0.76842621021335388853401582309743 1:0.46043479 2:0.73170733 3:1 #
-0.76842621021335388853401582309743 1:0.53100002 2:0.70588237 3:1 #
0.76842621021335388853401582309743 1:0.43142858 2:0.46666667 3:0 #
-0.76842621021335388853401582309743 1:0.37444445 2:0.48387095 3:0 #
0.76842621021335388853401582309743 1:0.385625 2:0.65384614 3:1 #
-0.76842621021335388853401582309743 1:0.3652381 2:0.78571427 3:1 #
0.76842621021335388853401582309743 1:0.42750001 2:0.69565219 3:0 #
-0.76842621021335388853401582309743 1:0.38111112 2:0.5 3:0 #
0.76842621021335388853401582309743 1:0.43724138 2:0.69999999 3:1 #
-0.76842621021335388853401582309743 1:0.398 2:0.71428573 3:1 #
0.76842621021335388853401582309743 1:0.43142858 2:0.46666667 3:0 #
-0.76842621021335388853401582309743 1:0.34 2:0.53333336 3:0 #
0.76842621021335388853401582309743 1:0.28210527 2:0.80769229 3:1 #
-0.76842621021335388853401582309743 1:0.34647059 2:0.83999997 3:1 #
0.76842621021335388853401582309743 1:0.46142858 2:0.52941179 3:0 #
-0.76842621021335388853401582309743 1:0.43875 2:0.33333334 3:0 #
0.76842621021335388853401582309743 1:0.28560001 2:0.73333335 3:1 #
-0.76842621021335388853401582309743 1:0.33944446 2:0.75 3:1 #
0.76842621021335388853401582309743 1:0.43571427 2:0.039999999 3:0 #
-0.76842621021335388853401582309743 1:0.44 2:0.17391305 3:0 #
0.76842621021335388853401582309743 1:0.51058823 2:0.90769231 3:1 #
-0.76842621021335388853401582309743 1:0.32432431 2:0.90909094 3:1 #
0.76842621021335388853401582309743 1:0.18125001 2:0.30555555 3:0 #
-0.76842621021335388853401582309743 1:0.426 2:0.33333334 3:0 #
0.76842621021335388853401582309743 1:0.18777777 2:0.875 3:1 #
-0.76842621021335388853401582309743 1:0.32210526 2:0.90909094 3:1 #
0.76842621021335388853401582309743 1:0.33555555 2:0.33333334 3:0 #
-0.76842621021335388853401582309743 1:0.21923077 2:0.56097561 3:1 #
0.76842621021335388853401582309743 1:0.42550001 2:1 3:1 #
-0.76842621021335388853401582309743 1:0.31058824 2:0.94117647 3:1 #
0.76842621021335388853401582309743 1:0.34999999 2:0.33333334 3:1 #
-0.76842621021335388853401582309743 1:0.32814816 2:0.2 3:1 #
0.76842621021335388853401582309743 1:0.37846154 2:0.97959185 3:1 #
-0.76842621021335388853401582309743 1:0.31434783 2:0.92307693 3:1 #
0.76842621021335388853401582309743 1:0.3524 2:0.14285715 3:1 #
-0.76842621021335388853401582309743 1:0.36823529 2:0.16666667 3:1 #
0.76842621021335388853401582309743 1:0.17366667 2:0.90196079 3:1 #
-0.76842621021335388853401582309743 1:0.28961539 2:0.97058821 3:1 #
0.76842621021335388853401582309743 1:0.42199999 2:0.25641027 3:1 #
-0.76842621021335388853401582309743 1:0.36366665 2:0.25 3:1 #
0.76842621021335388853401582309743 1:0.41517243 2:1 3:1 #
-0.76842621021335388853401582309743 1:0.28666666 2:0.96666664 3:1 #
0.76842621021335388853401582309743 1:0.35642856 2:0.15384616 3:1 #
-0.76842621021335388853401582309743 1:0.41600001 2:0.1 3:1 #
0.76842621021335388853401582309743 1:0.19347826 2:0.90476191 3:1 #
-0.76842621021335388853401582309743 1:0.30199999 2:0.9285714 3:1 #
0.76842621021335388853401582309743 1:0.49142858 2:0.06666667 3:0 #
-0.76842621021335388853401582309743 1:0.43714285 2:0.125 3:0 #
0.76842621021335388853401582309743 1:0.22809523 2:0.61538464 3:1 #
-0.76842621021335388853401582309743 1:0.29816326 2:0.64999998 3:1 #
-0.76842621021335388853401582309743 1:0.29923075 2:0.64516127 3:1 #
0.76842621021335388853401582309743 1:0.26142856 2:0.41558442 3:0 #
-0.76842621021335388853401582309743 1:0.34 2:0.5 3:0 #
0.76842621021335388853401582309743 1:0.43735296 2:0.62 3:1 #
-0.76842621021335388853401582309743 1:0.47999999 2:0.61904764 3:1 #
0.76842621021335388853401582309743 1:0.22428571 2:0.94444442 3:0 #
-0.76842621021335388853401582309743 1:0.34333333 2:1 3:0 #
0.76842621021335388853401582309743 1:0.39473686 2:0.6111111 3:1 #
-0.76842621021335388853401582309743 1:0.2565625 2:0.53846157 3:1 #
0.76842621021335388853401582309743 1:0.49142858 2:0.06666667 3:0 #
-0.76842621021335388853401582309743 1:0.3888889 2:0.055555556 3:0 #
0.76842621021335388853401582309743 1:0.30909091 2:0.66666669 3:1 #
-0.76842621021335388853401582309743 1:0.35124999 2:0.68421054 3:1 #
0.76842621021335388853401582309743 1:0.42285714 2:0.61290324 3:0 #
-0.76842621021335388853401582309743 1:0.34599999 2:0.76363635 3:0 #
0.76842621021335388853401582309743 1:0.32588235 2:0.60000002 3:1 #
-0.76842621021335388853401582309743 1:0.35179487 2:0.55555558 3:1 #
0.76842621021335388853401582309743 1:0.1925 2:0.94999999 3:0 #
0.76842621021335388853401582309743 1:0.22954546 2:0.5 3:1 #
0.76842621021335388853401582309743 1:0.44666666 2:0.3125 3:1 #
-0.76842621021335388853401582309743 1:0.40099999 2:0.31818181 3:1 #
0.76842621021335388853401582309743 1:0.29124999 2:0.86666667 3:0 #
-0.76842621021335388853401582309743 1:0.35124999 2:0.78494626 3:0 #
0.76842621021335388853401582309743 1:0.15177777 2:0.625 3:1 #
-0.76842621021335388853401582309743 1:0.34266666 2:0.55319148 3:1 #
0.76842621021335388853401582309743 1:0.50749999 2:0.70588237 3:0 #
-0.76842621021335388853401582309743 1:0.41999999 2:0.91666669 3:0 #
0.76842621021335388853401582309743 1:0.33937499 2:0.44871795 3:1 #
-0.76842621021335388853401582309743 1:0.3576923 2:0.41666666 3:1 #
0.76842621021335388853401582309743 1:0.40423077 2:1 3:1 #
0.76842621021335388853401582309743 1:0.25238097 2:0.047619049 3:1 #
-0.76842621021335388853401582309743 1:0.30958334 2:0.90909094 3:1 #
0.76842621021335388853401582309743 1:0.27243245 2:0.16666667 3:1 #
-0.76842621021335388853401582309743 1:0.3175 2:0.15625 3:1 #
0.76842621021335388853401582309743 1:0.48966667 2:1 3:1 #
-0.76842621021335388853401582309743 1:0.38777778 2:0.96363634 3:1 #
-0.76842621021335388853401582309743 1:0.26782608 2:0.054545455 3:1 #
0.76842621021335388853401582309743 1:0.23823529 2:0.88235295 3:1 #
-0.76842621021335388853401582309743 1:0.30588236 2:0.91666669 3:1 #
0.76842621021335388853401582309743 1:0.50690478 2:0.25 3:1 #
-0.76842621021335388853401582309743 1:0.45785713 2:0.23809524 3:1 #
0.76842621021335388853401582309743 1:0.2878125 2:0.86363637 3:1 #
-0.76842621021335388853401582309743 1:0.31954545 2:0.88461536 3:1 #
0.76842621021335388853401582309743 1:0.33565217 2:0.07692308 3:1 #
-0.76842621021335388853401582309743 1:0.33736843 2:0.096774191 3:1 #
0.76842621021335388853401582309743 1:0.34516129 2:0.83333331 3:1 #
-0.76842621021335388853401582309743 1:0.33399999 2:0.85294116 3:1 #
0.76842621021335388853401582309743 1:0.21555555 2:0.05882353 3:1 #
-0.76842621021335388853401582309743 1:0.11 2:0.11111111 3:1 #
0.76842621021335388853401582309743 1:0.49363637 2:0.8888889 3:1 #
-0.76842621021335388853401582309743 1:0.54454547 2:0.66666669 3:1 #
0.76842621021335388853401582309743 1:0.14428571 2:0.2857143 3:1 #
0.76842621021335388853401582309743 1:0.229 2:0.30000001 3:1 #
0.76842621021335388853401582309743 1:0.40900001 2:0.72727275 3:1 #
0.76842621021335388853401582309743 1:0.30424243 2:0.090909094 3:1 #
-0.76842621021335388853401582309743 1:0.35179487 2:0.8108108 3:1 #
0.76842621021335388853401582309743 1:0.31838709 2:0.5 3:1 #
-0.76842621021335388853401582309743 1:0.51499999 2:0.61904764 3:1 #
0.76842621021335388853401582309743 1:0.43333334 2:0.79166669 3:0 #
-0.76842621021335388853401582309743 1:0.43875 2:0.33333334 3:0 #
0.76842621021335388853401582309743 1:0.38249999 2:0.72727275 3:1 #
-0.76842621021335388853401582309743 1:0.34400001 2:0.82352942 3:1 #
0.76842621021335388853401582309743 1:0.37142858 2:0.055555556 3:0 #
-0.76842621021335388853401582309743 1:0.366 2:0.039999999 3:0 #
0.76842621021335388853401582309743 1:0.30125001 2:0.66666669 3:1 #
-0.76842621021335388853401582309743 1:0.37333333 2:0.66666669 3:1 #
0.76842621021335388853401582309743 1:0.31999999 2:0.20833333 3:0 #
-0.76842621021335388853401582309743 1:0.43875 2:0.25 3:0 #
0.76842621021335388853401582309743 1:0.43952382 2:0.66666669 3:1 #
-0.76842621021335388853401582309743 1:0.37333333 2:0.65217394 3:1 #
0.76842621021335388853401582309743 1:0.22086957 2:0.60000002 3:1 #
-0.76842621021335388853401582309743 1:0.21485715 2:0.75 3:1 #
0.76842621021335388853401582309743 1:0.36470589 2:0.88571429 3:1 #
-0.76842621021335388853401582309743 1:0.28636363 2:0.95833331 3:1 #
-0.76842621021335388853401582309743 1:0.25749999 2:0.11111111 3:1 #
0.76842621021335388853401582309743 1:0.41666666 2:0.97222221 3:1 #
-0.76842621021335388853401582309743 1:0.3828125 2:1 3:1 #
0.76842621021335388853401582309743 1:0.30173913 2:0.03125 3:1 #
-0.76842621021335388853401582309743 1:0.3282353 2:0.034482758 3:1 #
0.76842621021335388853401582309743 1:0.12947369 2:0.85714287 3:1 #
-0.76842621021335388853401582309743 1:0.33399999 2:0.84848487 3:1 #
0.76842621021335388853401582309743 1:0.48473683 2:0.16666667 3:1 #
-0.76842621021335388853401582309743 1:0.36631578 2:0.17647059 3:1 #
0.76842621021335388853401582309743 1:0.39545456 2:0.94999999 3:1 #
0.76842621021335388853401582309743 1:0.31105262 2:0.27272728 3:1 #
-0.76842621021335388853401582309743 1:0.29421052 2:0.93103451 3:1 #
-0.76842621021335388853401582309743 1:0.41999999 2:0.27272728 3:1 #
0.76842621021335388853401582309743 1:0.235 2:0.91891891 3:1 #
-0.76842621021335388853401582309743 1:0.27923077 2:0.96774191 3:1 #
0.76842621021335388853401582309743 1:0.28533334 2:0.047619049 3:1 #
-0.76842621021335388853401582309743 1:0.215 2:0.38709676 3:1 #
0.76842621021335388853401582309743 1:0.42714286 2:1 3:1 #
0.76842621021335388853401582309743 1:0.22571428 2:0.05882353 3:1 #
-0.76842621021335388853401582309743 1:0.29866666 2:0.91666669 3:1 #
0.76842621021335388853401582309743 1:0.2665 2:0.2857143 3:1 #
-0.76842621021335388853401582309743 1:0.22826087 2:0.26923078 3:1 #
-0.76842621021335388853401582309743 1:0.34789473 2:0.25714287 3:1 #
0.76842621021335388853401582309743 1:0.33047619 2:1 3:1 #
-0.76842621021335388853401582309743 1:0.27250001 2:0.969697 3:1 #
0.76842621021335388853401582309743 1:0.27687499 2:0.125 3:1 #
-0.76842621021335388853401582309743 1:0.27904761 2:0.083333336 3:1 #
0.76842621021335388853401582309743 1:0.30935484 2:0.82499999 3:1 #
-0.76842621021335388853401582309743 1:0.34299999 2:0.80487806 3:1 #
-0.76842621021335388853401582309743 1:0.214375 2:0.5 3:1 #
0.76842621021335388853401582309743 1:0.44947368 2:0.90322578 3:1 #
-0.76842621021335388853401582309743 1:0.41499999 2:0.91666669 3:1 #
0.76842621021335388853401582309743 1:0.17399999 2:0.033333335 3:1 #
-0.76842621021335388853401582309743 1:0.25115386 2:0.85185188 3:1 #
0.76842621021335388853401582309743 1:0.34105262 2:0.80000001 3:1 #
0.76842621021335388853401582309743 1:0.33565217 2:0.18181819 3:1 #
-0.76842621021335388853401582309743 1:0.34357142 2:0.79411763 3:1 #
-0.76842621021335388853401582309743 1:0.42212123 2:0.27272728 3:1 #
0.76842621021335388853401582309743 1:0.22 2:1 3:1 #
-0.76842621021335388853401582309743 1:0.25782609 2:1 3:1 #
0.76842621021335388853401582309743 1:0.40260869 2:0.36585367 3:1 #
-0.76842621021335388853401582309743 1:0.38999999 2:0.36000001 3:1 #
0.76842621021335388853401582309743 1:0.27000001 2:0.66666669 3:1 #
0.76842621021335388853401582309743 1:0.25749999 2:0.1875 3:0 #
-0.76842621021335388853401582309743 1:0.324375 2:0.75 3:1 #
0.76842621021335388853401582309743 1:0.34941176 2:0.5 3:1 #
0.76842621021335388853401582309743 1:0.44285715 2:0.67647058 3:1 #
-0.76842621021335388853401582309743 1:0.51499999 2:0.60869563 3:1 #
0.76842621021335388853401582309743 1:0.44285715 2:0.66666669 3:1 #
-0.76842621021335388853401582309743 1:0.37263158 2:0.64705884 3:1 #
0.76842621021335388853401582309743 1:0.24076924 2:0.38095239 3:1 #
-0.76842621021335388853401582309743 1:0.21642858 2:0.37837839 3:1 #
0.76842621021335388853401582309743 1:0.45807692 2:0.96610171 3:1 #
-0.76842621021335388853401582309743 1:0.39380953 2:1 3:1 #
0.76842621021335388853401582309743 1:0.28181818 2:0.088888891 3:1 #
-0.76842621021335388853401582309743 1:0.2623077 2:0.050000001 3:1 #
0.76842621021335388853401582309743 1:0.23333333 2:0.86666667 3:1 #
-0.76842621021335388853401582309743 1:0.2985 2:0.9130435 3:1 #
0.76842621021335388853401582309743 1:0.31428573 2:0.1509434 3:1 #
-0.76842621021335388853401582309743 1:0.30322582 2:0.16216215 3:1 #
0.76842621021335388853401582309743 1:0.20482759 2:1 3:1 #
-0.76842621021335388853401582309743 1:0.2574074 2:1 3:1 #
0.76842621021335388853401582309743 1:0.32030302 2:0.045454547 3:1 #
-0.76842621021335388853401582309743 1:0.28363636 2:0.041666668 3:1 #
0.76842621021335388853401582309743 1:0.43241379 2:0.93220341 3:1 #
-0.76842621021335388853401582309743 1:0.36789474 2:0.91666669 3:1 #
0.76842621021335388853401582309743 1:0.212 2:0.14285715 3:1 #
-0.76842621021335388853401582309743 1:0.23899999 2:0.13846155 3:1 #
0.76842621021335388853401582309743 1:0.50392854 2:0.9375 3:1 #
-0.76842621021335388853401582309743 1:0.43857142 2:0.83333331 3:1 #
-0.76842621021335388853401582309743 1:0.3276923 2:0.83333331 3:1 #
0.76842621021335388853401582309743 1:0.20181818 2:0.42857143 3:1 #
-0.76842621021335388853401582309743 1:0.54454547 2:0.58823532 3:1 #
0.76842621021335388853401582309743 1:0.27000001 2:0.83333331 3:1 #
-0.76842621021335388853401582309743 1:0.35454544 2:0.8918919 3:1 #
0.76842621021335388853401582309743 1:0.49181819 2:0.5 3:1 #
-0.76842621021335388853401582309743 1:0.53100002 2:0.5714286 3:1 #
0.76842621021335388853401582309743 1:0.15227273 2:0.56521738 3:1 #
-0.76842621021335388853401582309743 1:0.2128 2:0.80000001 3:1 #
0.76842621021335388853401582309743 1:0.42931819 2:0.75 3:1 #
-0.76842621021335388853401582309743 1:0.32583332 2:0.83333331 3:1 #
0.76842621021335388853401582309743 1:0.28799999 2:0.1572327 3:1 #
-0.76842621021335388853401582309743 1:0.31400001 2:0.10344828 3:1 #
0.76842621021335388853401582309743 1:0.31074074 2:1 3:1 #
-0.76842621021335388853401582309743 1:0.26846153 2:0.96774191 3:1 #
0.76842621021335388853401582309743 1:0.35222223 2:0.1 3:1 #
-0.76842621021335388853401582309743 1:0.36500001 2:0.083333336 3:1 #
0.76842621021335388853401582309743 1:0.2811628 2:1 3:1 #
-0.76842621021335388853401582309743 1:0.25090909 2:1 3:1 #
0.76842621021335388853401582309743 1:0.28242424 2:0.14285715 3:1 #
-0.76842621021335388853401582309743 1:0.31647059 2:0.16363636 3:1 #
0.76842621021335388853401582309743 1:0.22321428 2:0.95652175 3:1 #
-0.76842621021335388853401582309743 1:0.27277777 2:0.95238096 3:1 #
0.76842621021335388853401582309743 1:0.27842104 2:0.090909094 3:1 #
-0.51660700378804091936757458825014 1:0.236 2:0.05882353 3:1 #
0.76842621021335388853401582309743 1:0.40315789 2:1 3:1 #
-0.76842621021335388853401582309743 1:0.32404256 2:0.98305082 3:1 #
0.76842621021335388853401582309743 1:0.14480001 2:0.071428575 3:1 #
0.76842621021335388853401582309743 1:0.15593749 2:0.07526882 3:1 #
0.76842621021335388853401582309743 1:0.31576923 2:0.83999997 3:1 #
-0.76842621021335388853401582309743 1:0.2985 2:0.90476191 3:1 #
0.76842621021335388853401582309743 1:0.36521739 2:0.057142857 3:1 #
-0.76842621021335388853401582309743 1:0.41675675 2:0.090909094 3:1 #
0.76842621021335388853401582309743 1:0.155 2:0.83333331 3:1 #
-0.76842621021335388853401582309743 1:0.30727273 2:0.875 3:1 #
0.76842621021335388853401582309743 1:0.45100001 2:0.33333334 3:1 #
-0.76842621021335388853401582309743 1:0.43571427 2:0.40000001 3:1 #
0.76842621021335388853401582309743 1:0.39899999 2:0.94444442 3:1 #
-0.76842621021335388853401582309743 1:0.31125 2:0.86206895 3:1 #
0.76842621021335388853401582309743 1:0.20884615 2:0.5 3:1 #
-0.76842621021335388853401582309743 1:0.25749999 2:0.43076923 3:1 #
0.76842621021335388853401582309743 1:0.51190478 2:0.86666667 3:1 #
0.76842621021335388853401582309743 1:0.32944444 2:0.2857143 3:1 #
-0.76842621021335388853401582309743 1:0.53100002 2:0.56521738 3:1 #
0.76842621021335388853401582309743 1:0.176 2:0.6111111 3:1 #
-0.76842621021335388853401582309743 1:0.2825 2:0.83333331 3:0 #
0.76842621021335388853401582309743 1:0.43777779 2:0.64285713 3:1 #
-0.76842621021335388853401582309743 1:0.31968749 2:0.83333331 3:1 #
0.76842621021335388853401582309743 1:0.23714286 2:0.5 3:1 #
-0.76842621021335388853401582309743 1:0.34133333 2:0.43835616 3:1 #
0.76842621021335388853401582309743 1:0.28518519 2:0.89655173 3:1 #
-0.76842621021335388853401582309743 1:0.28999999 2:0.92000002 3:1 #
-0.76842621021335388853401582309743 1:0.32259259 2:0.80645162 3:1 #
0.76842621021335388853401582309743 1:0.25962964 2:0.5 3:1 #
-0.76842621021335388853401582309743 1:0.10916667 2:0.090909094 3:1 #
0.76842621021335388853401582309743 1:0.44687501 2:0.90909094 3:1 #
0.76842621021335388853401582309743 1:0.27047619 2:0.2 3:1 #
-0.76842621021335388853401582309743 1:0.51521736 2:0.52380955 3:1 #
0.76842621021335388853401582309743 1:0.19142857 2:0.625 3:1 #
-0.76842621021335388853401582309743 1:0.12 2:0.010752688 3:1 #
0.76842621021335388853401582309743 1:0.43928573 2:0.66666669 3:1 #
-0.76842621021335388853401582309743 1:0.30655172 2:0.85000002 3:1 #
0.76842621021335388853401582309743 1:0.22214286 2:0.2857143 3:1 #
-0.76842621021335388853401582309743 1:0.28380951 2:0.22727273 3:1 #
0.76842621021335388853401582309743 1:0.25125 2:1 3:1 #
-0.76842621021335388853401582309743 1:0.28812501 2:0.92307693 3:1 #
0.76842621021335388853401582309743 1:0.389 2:0.2 3:1 #
-0.76842621021335388853401582309743 1:0.34058824 2:0.2 3:1 #
0.76842621021335388853401582309743 1:0.33217391 2:1 3:1 #
-0.76842621021335388853401582309743 1:0.30700001 2:1 3:1 #
-0.76842621021335388853401582309743 1:0.28222221 2:0.91935486 3:1 #
0.76842621021335388853401582309743 1:0.184 2:0.25 3:1 #
-0.76842621021335388853401582309743 1:0.24809524 2:0.125 3:1 #
0.76842621021335388853401582309743 1:0.33407408 2:0.94999999 3:1 #
-0.76842621021335388853401582309743 1:0.40956521 2:1 3:1 #
0.76842621021335388853401582309743 1:0.26153848 2:0.064102568 3:1 #
-0.76842621021335388853401582309743 1:0.25318182 2:0.04109589 3:1 #
0.76842621021335388853401582309743 1:0.31486487 2:1 3:1 #
-0.76842621021335388853401582309743 1:0.26521739 2:0.96296299 3:1 #
0.76842621021335388853401582309743 1:0.36521739 2:0.090909094 3:1 #
-0.76842621021335388853401582309743 1:0.36714286 2:0.080645159 3:1 #
0.76842621021335388853401582309743 1:0.33675 2:0.89655173 3:1 #
-0.76842621021335388853401582309743 1:0.30239999 2:0.86956519 3:1 #
0.76842621021335388853401582309743 1:0.30428571 2:0.029411765 3:1 #
-0.76842621021335388853401582309743 1:0.29818183 2:0.029411765 3:1 #
0.76842621021335388853401582309743 1:0.24083333 2:0.66666669 3:1 #
-0.76842621021335388853401582309743 1:0.31594595 2:0.80645162 3:1 #
0.76842621021335388853401582309743 1:0.30777779 2:0.40816328 3:0 #
-0.76842621021335388853401582309743 1:0.34 2:0.53333336 3:0 #
0.76842621021335388853401582309743 1:0.31523809 2:0.60000002 3:1 #
-0.76842621021335388853401582309743 1:0.38090909 2:0.63636363 3:1 #
-0.76842621021335388853401582309743 1:0.3661111 2:0.57575756 3:1 #
0.76842621021335388853401582309743 1:0.315 2:0.58333331 3:0 #
-0.76842621021335388853401582309743 1:0.33555555 2:0.47999999 3:0 #
0.76842621021335388853401582309743 1:0.35299999 2:0.63333333 3:1 #
0.76842621021335388853401582309743 1:0.44714287 2:0.083333336 3:0 #
-0.76842621021335388853401582309743 1:0.35142857 2:0.083333336 3:0 #
0.76842621021335388853401582309743 1:0.41431817 2:0.83333331 3:1 #
0.76842621021335388853401582309743 1:0.18375 2:0.33333334 3:0 #
-0.76842621021335388853401582309743 1:0.3190909 2:0.7631579 3:1 #
0.76842621021335388853401582309743 1:0.3146154 2:0.31428573 3:1 #
-0.76842621021335388853401582309743 1:0.31142858 2:0.24390244 3:1 #
0.76842621021335388853401582309743 1:0.30346155 2:1 3:1 #
-0.76842621021335388853401582309743 1:0.25999999 2:0.96666664 3:1 #
0.76842621021335388853401582309743 1:0.33947369 2:0.2 3:1 #
-0.76842621021335388853401582309743 1:0.34583333 2:0.21052632 3:1 #
0.76842621021335388853401582309743 1:0.28434783 2:1 3:1 #
0.76842621021335388853401582309743 1:0.21250001 2:0.11111111 3:1 #
-0.040934617985993064503968952294599 1:0.22423077 2:0.1754386 3:1 #
-0.76842621021335388853401582309743 1:0.23916666 2:0.20754717 3:1 #
0.76842621021335388853401582309743 1:0.41512194 2:0.76190478 3:1 #
-0.76842621021335388853401582309743 1:0.46250001 2:1 3:1 #
-0.76842621021335388853401582309743 1:0.30625001 2:0.84677422 3:1 #
0.76842621021335388853401582309743 1:0.21470588 2:0.45454547 3:1 #
-0.76842621021335388853401582309743 1:0.33307692 2:0.36363637 3:1 #
0.76842621021335388853401582309743 1:0.38826087 2:1 3:1 #
0.76842621021335388853401582309743 1:0.21307692 2:0.35714287 3:1 #
-0.76842621021335388853401582309743 1:0.10347826 2:0.15384616 3:1 #
0.76842621021335388853401582309743 1:0.42428571 2:0.75 3:1 #
-0.76842621021335388853401582309743 1:0.29923075 2:0.87671232 3:1 #
-0.76842621021335388853401582309743 1:0.43799999 2:0.22222222 3:1 #
-0.76842621021335388853401582309743 1:0.30619049 2:0.83333331 3:1 #
0.76842621021335388853401582309743 1:0.26478261 2:0.5 3:1 #
-0.76842621021335388853401582309743 1:0.51521736 2:0.52173913 3:1 #
0.76842621021335388853401582309743 1:0.2704348 2:1 3:1 #
-0.76842621021335388853401582309743 1:0.24699999 2:1 3:1 #
0.76842621021335388853401582309743 1:0.37937501 2:0.23076923 3:1 #
-0.76842621021335388853401582309743 1:0.25138888 2:0.11111111 3:1 #
0.76842621021335388853401582309743 1:0.31999999 2:0.96774191 3:1 #
0.76842621021335388853401582309743 1:0.35333332 2:0.07692308 3:1 #
-0.76842621021335388853401582309743 1:0.34818181 2:0.1891892 3:1 #
0.76842621021335388853401582309743 1:0.20809524 2:0.89999998 3:1 #
-0.76842621021335388853401582309743 1:0.26090908 2:0.96153843 3:1 #
-0.76842621021335388853401582309743 1:0.27785715 2:0.92500001 3:1 #
0.76842621021335388853401582309743 1:0.28857142 2:0.31182796 3:1 #
-0.76842621021335388853401582309743 1:0.26636365 2:0.19444445 3:1 #
0.76842621021335388853401582309743 1:0.3157143 2:0.91428572 3:1 #
-0.76842621021335388853401582309743 1:0.29181817 2:0.88235295 3:1 #
0.76842621021335388853401582309743 1:0.178 2:0.125 3:1 #
-0.76842621021335388853401582309743 1:0.21857142 2:0.26190478 3:1 #
0.76842621021335388853401582309743 1:0.24447368 2:0.89830506 3:1 #
0.76842621021335388853401582309743 1:0.31482759 2:0.25 3:1 #
-0.76842621021335388853401582309743 1:0.36131579 2:0.40000001 3:1 #
0.76842621021335388853401582309743 1:0.20333333 2:0.75 3:1 #
-0.76842621021335388853401582309743 1:0.30172414 2:0.85714287 3:1 #
-0.76842621021335388853401582309743 1:0.32307693 2:0.72972971 3:1 #
0.76842621021335388853401582309743 1:0.27935484 2:0.51428574 3:1 #
-0.76842621021335388853401582309743 1:0.21181819 2:0.3548387 3:1 #
0.76842621021335388853401582309743 1:0.426 2:0.97435898 3:1 #
-0.76842621021335388853401582309743 1:0.26444444 2:0.94736844 3:1 #
0.76842621021335388853401582309743 1:0.20645161 2:0.23809524 3:1 #
-0.76842621021335388853401582309743 1:0.28 2:0.23529412 3:1 #
0.76842621021335388853401582309743 1:0.24205129 2:1 3:1 #
-0.76842621021335388853401582309743 1:0.25 2:0.97619045 3:1 #
0.76842621021335388853401582309743 1:0.264 2:0.27272728 3:1 #
-0.76842621021335388853401582309743 1:0.27636364 2:0.2820513 3:1 #
0.76842621021335388853401582309743 1:0.27812499 2:0.85714287 3:1 #
-0.76842621021335388853401582309743 1:0.26499999 2:0.94444442 3:1 #
0.76842621021335388853401582309743 1:0.33818182 2:0.13333334 3:1 #
-0.76842621021335388853401582309743 1:0.31173912 2:0.11111111 3:1 #
0.76842621021335388853401582309743 1:0.2853125 2:1 3:1 #
0.76842621021335388853401582309743 1:0.1616129 2:0.06666667 3:1 #
-0.76842621021335388853401582309743 1:0.25473684 2:0.96666664 3:1 #
0.76842621021335388853401582309743 1:0.259 2:0.74193549 3:1 #
0.76842621021335388853401582309743 1:0.2737931 2:0.875 3:1 #
0.76842621021335388853401582309743 1:0.23032258 2:0.375 3:1 #
-0.76842621021335388853401582309743 1:0.36000001 2:0.60975611 3:1 #
0.76842621021335388853401582309743 1:0.33849999 2:0.61904764 3:1 #
-0.76842621021335388853401582309743 1:0.36351851 2:0.58333331 3:1 #
0.76842621021335388853401582309743 1:0.33911765 2:0.57692307 3:1 #
0.76842621021335388853401582309743 1:0.30357143 2:0.69999999 3:1 #
-0.76842621021335388853401582309743 1:0.34846154 2:0.6388889 3:1 #
-0.76842621021335388853401582309743 1:0.32666665 2:0.71232879 3:1 #
0.76842621021335388853401582309743 1:0.27391306 2:0.58333331 3:1 #
-0.76842621021335388853401582309743 1:0.19761905 2:0.89473683 3:1 #
0.76842621021335388853401582309743 1:0.37615386 2:0.77777779 3:1 #
-0.76842621021335388853401582309743 1:0.29181817 2:0.87878788 3:1 #
-0.76842621021335388853401582309743 1:0.3125 2:0.78947371 3:1 #
0.76842621021335388853401582309743 1:0.26909092 2:0.34999999 3:1 #
-0.76842621021335388853401582309743 1:0.28071427 2:0.29268292 3:1 #
0.76842621021335388853401582309743 1:0.3696 2:1 3:1 #
-0.76842621021335388853401582309743 1:0.46250001 2:1 3:1 #
0.76842621021335388853401582309743 1:0.31739131 2:0.16129032 3:1 #
-0.76842621021335388853401582309743 1:0.25600001 2:0.1875 3:1 #
0.76842621021335388853401582309743 1:0.40533334 2:1 3:1 #
0.76842621021335388853401582309743 1:0.27968749 2:0.39130434 3:1 #
0.76842621021335388853401582309743 1:0.20999999 2:0.54545456 3:1 #
-0.76842621021335388853401582309743 1:0.36142856 2:0.55555558 3:1 #
-0.76842621021335388853401582309743 1:0.34545454 2:0.63414633 3:1 #
0.76842621021335388853401582309743 1:0.28684211 2:0.81818181 3:1 #
-0.76842621021335388853401582309743 1:0.294 2:0.86486489 3:1 #
0.76842621021335388853401582309743 1:0.47052631 2:0.5714286 3:1 #
-0.76842621021335388853401582309743 1:0.38352942 2:0.41176471 3:1 #
0.76842621021335388853401582309743 1:0.22142857 2:0.83333331 3:1 #
-0.76842621021335388853401582309743 1:0.27857143 2:0.90476191 3:1 #
0.76842621021335388853401582309743 1:0.4595238 2:0.2631579 3:1 #
-0.76842621021335388853401582309743 1:0.32800001 2:0.21428572 3:1 #
0.76842621021335388853401582309743 1:0.24032257 2:1 3:1 #
-0.76842621021335388853401582309743 1:0.23318182 2:1 3:1 #
0.76842621021335388853401582309743 1:0.36818182 2:0.1388889 3:1 #
-0.76842621021335388853401582309743 1:0.34789473 2:0.15384616 3:1 #
0.76842621021335388853401582309743 1:0.21461539 2:0.86486489 3:1 #
-0.76842621021335388853401582309743 1:0.29045454 2:0.86956519 3:1 #
0.76842621021335388853401582309743 1:0.37937501 2:0.2857143 3:1 #
-0.76842621021335388853401582309743 1:0.34299999 2:0.30769232 3:1 #
0.76842621021335388853401582309743 1:0.37380952 2:0.89999998 3:1 #
-0.76842621021335388853401582309743 1:0.26750001 2:0.92727274 3:1 #
0.76842621021335388853401582309743 1:0.2392 2:0.18181819 3:1 #
-0.76842621021335388853401582309743 1:0.29647058 2:0.16 3:1 #
0.76842621021335388853401582309743 1:0.2932258 2:1 3:1 #
-0.76842621021335388853401582309743 1:0.26300001 2:0.93333334 3:1 #
0.76842621021335388853401582309743 1:0.24368422 2:0.11538462 3:1 #
-0.76842621021335388853401582309743 1:0.25304347 2:0.1 3:1 #
0.76842621021335388853401582309743 1:0.19787879 2:0.875 3:1 #
-0.76842621021335388853401582309743 1:0.27281249 2:0.90909094 3:1 #
-0.76842621021335388853401582309743 1:0.28636363 2:0.87272727 3:1 #
0.76842621021335388853401582309743 1:0.33250001 2:0.33333334 3:1 #
-0.76842621021335388853401582309743 1:0.3175 2:0.26666668 3:1 #
0.76842621021335388853401582309743 1:0.39774194 2:0.95454544 3:1 #
0.76842621021335388853401582309743 1:0.20586208 2:0.22222222 3:1 #
-0.76842621021335388853401582309743 1:0.33083335 2:0.33333334 3:1 #
0.76842621021335388853401582309743 1:0.22812501 2:0.74285716 3:1 #
-0.76842621021335388853401582309743 1:0.28192309 2:0.88235295 3:1 #
0.76842621021335388853401582309743 1:0.4294737 2:0.23529412 3:1 #
-0.76842621021335388853401582309743 1:0.35742858 2:0.175 3:1 #
0.76842621021335388853401582309743 1:0.2344 2:0.8125 3:1 #
-0.76842621021335388853401582309743 1:0.3075 2:0.80000001 3:1 #
0.76842621021335388853401582309743 1:0.39857143 2:0.16666667 3:1 #
-0.76842621021335388853401582309743 1:0.33500001 2:0.16666667 3:1 #
0.76842621021335388853401582309743 1:0.46264705 2:1 3:1 #
-0.76842621021335388853401582309743 1:0.37730768 2:1 3:1 #
-0.76842621021335388853401582309743 1:0.42941177 2:0.86363637 3:1 #
0.76842621021335388853401582309743 1:0.21250001 2:0.60975611 3:1 #
-0.76842621021335388853401582309743 1:0.34299999 2:0.61538464 3:1 #
0.76842621021335388853401582309743 1:0.3888889 2:0.72222221 3:1 #
-0.76842621021335388853401582309743 1:0.3238889 2:0.72727275 3:1 #
0.76842621021335388853401582309743 1:0.23954545 2:0.625 3:1 #
-0.76842621021335388853401582309743 1:0.21818182 2:0.44999999 3:1 #
0.76842621021335388853401582309743 1:0.37722221 2:0.63333333 3:1 #
-0.76842621021335388853401582309743 1:0.30485713 2:0.80000001 3:1 #
0.76842621021335388853401582309743 1:0.2682353 2:0.58333331 3:1 #
0.76842621021335388853401582309743 1:0.2374074 2:0.76666665 3:1 #
-0.76842621021335388853401582309743 1:0.35166666 2:0.58333331 3:1 #
-0.76842621021335388853401582309743 1:0.31157896 2:0.75 3:1 #
0.76842621021335388853401582309743 1:0.27375001 2:0.55555558 3:1 #
-0.76842621021335388853401582309743 1:0.24157895 2:0.47169811 3:1 #
0.76842621021335388853401582309743 1:0.33000001 2:0.83333331 3:1 #
-0.76842621021335388853401582309743 1:0.28727272 2:0.85714287 3:1 #
0.76842621021335388853401582309743 1:0.30416667 2:0.083333336 3:1 #
-0.76842621021335388853401582309743 1:0.29833335 2:0.1025641 3:1 #
0.76842621021335388853401582309743 1:0.31222221 2:0.86666667 3:1 #
-0.76842621021335388853401582309743 1:0.27238095 2:0.90909094 3:1 #
0.76842621021335388853401582309743 1:0.22576924 2:0.15384616 3:1 #
-0.76842621021335388853401582309743 1:0.23230769 2:0.15384616 3:1 #
0.76842621021335388853401582309743 1:0.39756757 2:1 3:1 #
0.76842621021335388853401582309743 1:0.2045 2:0.375 3:1 #
-0.76842621021335388853401582309743 1:0.34545454 2:0.46153846 3:1 #
0.76842621021335388853401582309743 1:0.28090909 2:0.73333335 3:1 #
-0.76842621021335388853401582309743 1:0.30533335 2:0.77419353 3:1 #
0.76842621021335388853401582309743 1:0.35407406 2:0.28125 3:1 #
-0.76842621021335388853401582309743 1:0.246875 2:0.22857143 3:1 #
0.76842621021335388853401582309743 1:0.37543479 2:0.85365856 3:1 #
-0.76842621021335388853401582309743 1:0.29533333 2:0.82352942 3:1 #
0.76842621021335388853401582309743 1:0.16 2:0.27906978 3:1 #
-0.76842621021335388853401582309743 1:0.22464286 2:0.29032257 3:1 #
0.76842621021335388853401582309743 1:0.18275861 2:0.93333334 3:1 #
-0.76842621021335388853401582309743 1:0.2588889 2:0.93150687 3:1 #
0.76842621021335388853401582309743 1:0.34470588 2:0.21428572 3:1 #
-0.76842621021335388853401582309743 1:0.30545455 2:0.22857143 3:1 #
0.76842621021335388853401582309743 1:0.26689655 2:0.85714287 3:1 #
-0.76842621021335388853401582309743 1:0.27636364 2:0.8888889 3:1 #
0.76842621021335388853401582309743 1:0.22733334 2:0.13333334 3:1 #
0.76842621021335388853401582309743 1:0.15666667 2:0.08176101 3:1 #
0.76842621021335388853401582309743 1:0.41133332 2:0.92000002 3:1 #
-0.76842621021335388853401582309743 1:0.34653062 2:0.95833331 3:1 #
-0.76842621021335388853401582309743 1:0.29499999 2:0.8125 3:1 #
0.76842621021335388853401582309743 1:0.24052632 2:0.40000001 3:1 #
-0.76842621021335388853401582309743 1:0.35764706 2:0.33333334 3:1 #
0.76842621021335388853401582309743 1:0.20763157 2:0.6981132 3:1 #
-0.76842621021335388853401582309743 1:0.30862069 2:0.75 3:1 #
0.76842621021335388853401582309743 1:0.31758621 2:0.58333331 3:1 #
0.76842621021335388853401582309743 1:0.4074074 2:0.82222223 3:1 #
-0.76842621021335388853401582309743 1:0.3416 2:0.63157892 3:1 #
0.76842621021335388853401582309743 1:0.42393941 2:0.63636363 3:1 #
-0.76842621021335388853401582309743 1:0.3435294 2:0.57894737 3:1 #
0.76842621021335388853401582309743 1:0.20333333 2:0.75 3:1 #
-0.76842621021335388853401582309743 1:0.28666666 2:0.83333331 3:1 #
0.76842621021335388853401582309743 1:0.36526316 2:0.60000002 3:1 #
-0.76842621021335388853401582309743 1:0.33428571 2:0.56097561 3:1 #
-0.76842621021335388853401582309743 1:0.30076924 2:0.76923078 3:1 #
0.76842621021335388853401582309743 1:0.30357143 2:0.44444445 3:1 #
-0.76842621021335388853401582309743 1:0.33428571 2:0.43589744 3:1 #
0.76842621021335388853401582309743 1:0.24783784 2:0.93333334 3:1 #
-0.76842621021335388853401582309743 1:0.25736842 2:0.91176468 3:1 #
0.76842621021335388853401582309743 1:0.33447367 2:0.15384616 3:1 #
-0.76842621021335388853401582309743 1:0.22818182 2:0.19512194 3:1 #
0.76842621021335388853401582309743 1:0.46641025 2:0.91428572 3:1 #
-0.76842621021335388853401582309743 1:0.5176 2:1 3:1 #
0.76842621021335388853401582309743 1:0.164 2:0.03773585 3:1 #
-0.76842621021335388853401582309743 1:0.21466666 2:0.2962963 3:1 #
0.76842621021335388853401582309743 1:0.330625 2:0.81818181 3:1 #
-0.76842621021335388853401582309743 1:0.27692309 2:0.86956519 3:1 #
-0.76842621021335388853401582309743 1:0.292 2:0.80769229 3:1 #
0.76842621021335388853401582309743 1:0.20416667 2:0.33333334 3:1 #
-0.76842621021335388853401582309743 1:0.25230768 2:0.24742268 3:1 #
0.76842621021335388853401582309743 1:0.29210526 2:1 3:1 #
-0.76842621021335388853401582309743 1:0.30551726 2:1 3:1 #
0.76842621021335388853401582309743 1:0.21107143 2:0.14285715 3:1 #
-0.76842621021335388853401582309743 1:0.215 2:0.2857143 3:1 #
0.76842621021335388853401582309743 1:0.33777776 2:1 3:1 #
0.76842621021335388853401582309743 1:0.19351351 2:0.2 3:1 #
-0.76842621021335388853401582309743 1:0.27142859 2:0.31182796 3:1 #
0.76842621021335388853401582309743 1:0.38100001 2:0.7647059 3:1 #
0.76842621021335388853401582309743 1:0.27363637 2:0.27500001 3:1 #
-0.76842621021335388853401582309743 1:0.47999999 2:0.42857143 3:1 #
0.76842621021335388853401582309743 1:0.19382353 2:0.8888889 3:1 #
-0.76842621021335388853401582309743 1:0.25999999 2:0.90476191 3:1 #
0.76842621021335388853401582309743 1:0.358125 2:0.625 3:1 #
0.76842621021335388853401582309743 1:0.46950001 2:0.73333335 3:1 #
-0.76842621021335388853401582309743 1:0.32714286 2:0.6388889 3:1 #
-0.76842621021335388853401582309743 1:0.32185185 2:0.69444442 3:1 #
0.76842621021335388853401582309743 1:0.31424242 2:0.54166669 3:1 #
-0.76842621021335388853401582309743 1:0.42636365 2:0.41666666 3:1 #
0.76842621021335388853401582309743 1:0.23139535 2:0.75 3:1 #
-0.76842621021335388853401582309743 1:0.27411765 2:0.875 3:1 #
0.76842621021335388853401582309743 1:0.31777778 2:0.2857143 3:1 #
-0.76842621021335388853401582309743 1:0.090000004 2:0.20689656 3:1 #
0.76842621021335388853401582309743 1:0.50666666 2:1 3:1 #
-0.76842621021335388853401582309743 1:0.3934375 2:0.94999999 3:1 #
0.76842621021335388853401582309743 1:0.25825 2:0.37931034 3:1 #
-0.76842621021335388853401582309743 1:0.347 2:0.31428573 3:1 #
0.76842621021335388853401582309743 1:0.19428572 2:1 3:1 #
-0.76842621021335388853401582309743 1:0.23589744 2:0.97142857 3:1 #
-0.76842621021335388853401582309743 1:0.27785715 2:0.86206895 3:1 #
0.76842621021335388853401582309743 1:0.29777777 2:0.2857143 3:1 #
-0.46991758147393553057824533425446 1:0.2176 2:0.25 3:1 #
0.76842621021335388853401582309743 1:0.25833333 2:0.87096775 3:1 #
-0.76842621021335388853401582309743 1:0.26925927 2:0.88235295 3:1 #
0.76842621021335388853401582309743 1:0.20518519 2:0.037037037 3:1 #
-0.76842621021335388853401582309743 1:0.11705882 2:0.046153847 3:1 #
0.76842621021335388853401582309743 1:0.24730769 2:0.97058821 3:1 #
-0.76842621021335388853401582309743 1:0.22736841 2:1 3:1 #
0.76842621021335388853401582309743 1:0.22393939 2:0.21052632 3:1 #
-0.76842621021335388853401582309743 1:0.23466666 2:0.21951219 3:1 #
0.76842621021335388853401582309743 1:0.3273913 2:1 3:1 #
-0.76842621021335388853401582309743 1:0.29935485 2:0.97142857 3:1 #
0.76842621021335388853401582309743 1:0.2113793 2:0.2 3:1 #
-0.76672323964775068727561802006676 1:0.2168421 2:0.1923077 3:1 #
0.76842621021335388853401582309743 1:0.34 2:0.95454544 3:1 #
-0.76842621021335388853401582309743 1:0.28452381 2:1 3:1 #
0.76842621021335388853401582309743 1:0.29499999 2:0.25714287 3:1 #
-0.76842621021335388853401582309743 1:0.37875 2:0.25999999 3:1 #
0.76842621021335388853401582309743 1:0.27666667 2:1 3:1 #
-0.76842621021335388853401582309743 1:0.30199999 2:1 3:1 #
0.76842621021335388853401582309743 1:0.3847619 2:0.0625 3:1 #
-0.76842621021335388853401582309743 1:0.33944446 2:0.090909094 3:1 #
0.76842621021335388853401582309743 1:0.29049999 2:0.93333334 3:1 #
-0.76842621021335388853401582309743 1:0.27611113 2:0.86153847 3:1 #
0.76842621021335388853401582309743 1:0.26523811 2:0.3125 3:1 #
-0.76842621021335388853401582309743 1:0.40272728 2:0.4074074 3:1 #
0.76842621021335388853401582309743 1:0.26290321 2:0.75 3:1 #
-0.76842621021335388853401582309743 1:0.29206896 2:0.80000001 3:1 #
0.76842621021335388853401582309743 1:0.33000001 2:0.5 3:1 #
-0.76842621021335388853401582309743 1:0.21733333 2:0.58333331 3:1 #
0.76842621021335388853401582309743 1:0.40461537 2:0.80000001 3:1 #
-0.76842621021335388853401582309743 1:0.37215686 2:0.83333331 3:1 #
0.76842621021335388853401582309743 1:0.14928572 2:0.071428575 3:1 #
-0.76842621021335388853401582309743 1:0.10611111 2:0.17475729 3:1 #
0.76842621021335388853401582309743 1:0.345 2:0.94999999 3:1 #
-0.76842621021335388853401582309743 1:0.35137931 2:1 3:1 #
0.76842621021335388853401582309743 1:0.21466666 2:0.17857143 3:1 #
-0.76842621021335388853401582309743 1:0.24375001 2:0.18181819 3:1 #
0.76842621021335388853401582309743 1:0.28096774 2:0.96774191 3:1 #
0.76842621021335388853401582309743 1:0.32852942 2:0.18181819 3:1 #
-0.76842621021335388853401582309743 1:0.27923077 2:0.85000002 3:1 #
0.76842621021335388853401582309743 1:0.18076923 2:0.26666668 3:1 #
0.76842621021335388853401582309743 1:0.29722223 2:0.375 3:1 #
0.76842621021335388853401582309743 1:0.42393941 2:0.75 3:1 #
-0.76842621021335388853401582309743 1:0.33657894 2:0.88571429 3:1 #
-0.76842621021335388853401582309743 1:0.31933334 2:0.69999999 3:1 #
0.76842621021335388853401582309743 1:0.26304349 2:0.63333333 3:1 #
-0.76842621021335388853401582309743 1:0.32111111 2:0.68181819 3:1 #
0.76842621021335388853401582309743 1:0.25666666 2:0.66666669 3:1 #
-0.76842621021335388853401582309743 1:0.32230771 2:0.66666669 3:1 #
0.76842621021335388853401582309743 1:0.28864864 2:0.69230771 3:1 #
-0.76842621021335388853401582309743 1:0.30500001 2:0.73333335 3:1 #
0.76842621021335388853401582309743 1:0.29434782 2:0.69999999 3:1 #
0.76842621021335388853401582309743 1:0.31999999 2:0.5714286 3:1 #
-0.76842621021335388853401582309743 1:0.32440001 2:0.64285713 3:1 #
0.76842621021335388853401582309743 1:0.46950001 2:0.73333335 3:1 #
-0.76842621021335388853401582309743 1:0.31999999 2:0.60869563 3:1 #
0.76842621021335388853401582309743 1:0.17457142 2:0.75 3:1 #
-0.76842621021335388853401582309743 1:0.29764706 2:0.7647059 3:1 #
0.76842621021335388853401582309743 1:0.41257143 2:0.27272728 3:1 #
-0.76842621021335388853401582309743 1:0.29037037 2:0.20588236 3:1 #
0.76842621021335388853401582309743 1:0.37416667 2:0.90909094 3:1 #
-0.76842621021335388853401582309743 1:0.26636365 2:0.88135594 3:1 #
0.76842621021335388853401582309743 1:0.19470589 2:0.090909094 3:1 #
-0.76842621021335388853401582309743 1:0.23931034 2:0.074074075 3:1 #
0.76842621021335388853401582309743 1:0.22916667 2:0.85714287 3:1 #
-0.76842621021335388853401582309743 1:0.25885713 2:0.89999998 3:1 #
-0.76842621021335388853401582309743 1:0.3285 2:0.23684211 3:1 #
0.76842621021335388853401582309743 1:0.40964285 2:0.88524592 3:1 #
0.76842621021335388853401582309743 1:0.32655174 2:0.090909094 3:1 #
-0.76842621021335388853401582309743 1:0.41894737 2:0.090909094 3:1 #
0.76842621021335388853401582309743 1:0.25827587 2:0.75862068 3:1 #
-0.76842621021335388853401582309743 1:0.27645162 2:0.84482759 3:1 #
0.76842621021335388853401582309743 1:0.45214286 2:0.16666667 3:1 #
0.76842621021335388853401582309743 1:0.27034482 2:1 3:1 #
0.76842621021335388853401582309743 1:0.36521739 2:0.33333334 3:1 #
-0.76842621021335388853401582309743 1:0.26133335 2:0.8888889 3:1 #
-0.76842621021335388853401582309743 1:0.345 2:0.33333334 3:1 #
0.76842621021335388853401582309743 1:0.29679999 2:0.86363637 3:1 #
0.76842621021335388853401582309743 1:0.28588235 2:0.34999999 3:1 #
-0.76842621021335388853401582309743 1:0.27636364 2:0.83333331 3:1 #
0.76842621021335388853401582309743 1:0.25478262 2:0.42857143 3:1 #
-0.76842621021335388853401582309743 1:0.375 2:0.40000001 3:1 #
-0.76842621021335388853401582309743 1:0.30263159 2:0.75 3:1 #
0.76842621021335388853401582309743 1:0.24962963 2:0.5714286 3:1 #
-0.76842621021335388853401582309743 1:0.32949999 2:0.55555558 3:1 #
0.76842621021335388853401582309743 1:0.3576 2:0.68888891 3:1 #
-0.76842621021335388853401582309743 1:0.30363637 2:0.73333335 3:1 #
0.76842621021335388853401582309743 1:0.31444445 2:0.69999999 3:1 #
-0.76842621021335388853401582309743 1:0.317 2:0.625 3:1 #
0.76842621021335388853401582309743 1:0.25 2:0.64705884 3:1 #
-0.76842621021335388853401582309743 1:0.30461538 2:0.69230771 3:1 #
0.76842621021335388853401582309743 1:0.32642856 2:0.59375 3:1 #
-0.76842621021335388853401582309743 1:0.32692307 2:0.56521738 3:1 #
0.76842621021335388853401582309743 1:0.23434782 2:0.76923078 3:1 #
-0.76842621021335388853401582309743 1:0.28812501 2:0.80000001 3:1 #
-0.76842621021335388853401582309743 1:0.086363636 2:0.26785713 3:1 #
0.76842621021335388853401582309743 1:0.4725 2:0.875 3:1 #
-0.76842621021335388853401582309743 1:0.44125 2:1 3:1 #
0.76842621021335388853401582309743 1:0.16133334 2:0.33333334 3:1 #
-0.76842621021335388853401582309743 1:0.35291666 2:0.37037036 3:1 #
0.76842621021335388853401582309743 1:0.27617648 2:1 3:1 #
-0.76842621021335388853401582309743 1:0.35600001 2:0.40000001 3:1 #
0.76842621021335388853401582309743 1:0.28999999 2:0.875 3:1 #
-0.76842621021335388853401582309743 1:0.25428572 2:0.90909094 3:1 #
0.76842621021335388853401582309743 1:0.39190477 2:0.090909094 3:1 #
-0.76842621021335388853401582309743 1:0.29285714 2:0.77777779 3:1 #
0.76842621021335388853401582309743 1:0.42956522 2:0.2 3:1 #
-0.76842621021335388853401582309743 1:0.41894737 2:0.090909094 3:1 #
0.76842621021335388853401582309743 1:0.31384614 2:0.96551722 3:1 #
-0.76842621021335388853401582309743 1:0.78416669 2:0.375 3:1 #
0.76842621021335388853401582309743 1:0.27200001 2:0.86666667 3:1 #
-0.76842621021335388853401582309743 1:0.27200001 2:0.83999997 3:1 #
0.76842621021335388853401582309743 1:0.46882352 2:0.30000001 3:1 #
0.76842621021335388853401582309743 1:0.30937499 2:0.22222222 3:1 #
0.76842621021335388853401582309743 1:0.43105263 2:0.94915253 3:1 #
-0.76842621021335388853401582309743 1:0.36705881 2:1 3:1 #
0.76842621021335388853401582309743 1:0.18333334 2:0.06666667 3:1 #
-0.76842621021335388853401582309743 1:0.23625 2:0.125 3:1 #
0.76842621021335388853401582309743 1:0.23538461 2:0.30000001 3:1 #
-0.76842621021335388853401582309743 1:0.24818182 2:0.23529412 3:1 #
0.76842621021335388853401582309743 1:0.26538461 2:0.9375 3:1 #
0.76842621021335388853401582309743 1:0.32655174 2:0.1 3:1 #
-0.76842621021335388853401582309743 1:0.24888889 2:0.92682928 3:1 #
-0.76842621021335388853401582309743 1:0.32142857 2:0.090909094 3:1 #
0.76842621021335388853401582309743 1:0.1781579 2:0.83333331 3:1 #
-0.76842621021335388853401582309743 1:0.25285715 2:0.90909094 3:1 #
-0.76842621021335388853401582309743 1:0.2775 2:0.82051283 3:1 #
0.76842621021335388853401582309743 1:0.30500001 2:0.21428572 3:1 #
0.76842621021335388853401582309743 1:0.33844444 2:1 3:1 #
-0.76842621021335388853401582309743 1:0.26166666 2:0.19047619 3:1 #
-0.76842621021335388853401582309743 1:0.30675676 2:1 3:1 #
0.76842621021335388853401582309743 1:0.25999999 2:0.14285715 3:1 #
-0.76842621021335388853401582309743 1:0.27411765 2:0.13333334 3:1 #
0.76842621021335388853401582309743 1:0.2385 2:1 3:1 #
-0.76842621021335388853401582309743 1:0.22233333 2:1 3:1 #
0.76842621021335388853401582309743 1:0.28117648 2:0.125 3:1 #
-0.76842621021335388853401582309743 1:0.2904762 2:0.12727273 3:1 #
0.76842621021335388853401582309743 1:0.32517242 2:0.80487806 3:1 #
-0.76842621021335388853401582309743 1:0.29054055 2:0.78125 3:1 #
-0.76842621021335388853401582309743 1:0.29764706 2:0.75757575 3:1 #
0.76842621021335388853401582309743 1:0.23866667 2:0.40000001 3:1 #
-0.76842621021335388853401582309743 1:0.33047619 2:0.40625 3:1 #
0.76842621021335388853401582309743 1:0.31869566 2:0.69444442 3:1 #
-0.76842621021335388853401582309743 1:0.29727274 2:0.74074072 3:1 #
0.76842621021335388853401582309743 1:0.29304346 2:0.44444445 3:1 #
-0.76842621021335388853401582309743 1:0.28526315 2:0.375 3:1 #
0.76842621021335388853401582309743 1:0.34724137 2:0.90909094 3:1 #
-0.76842621021335388853401582309743 1:0.34441176 2:0.95890409 3:1 #
0.76842621021335388853401582309743 1:0.30933332 2:0.26666668 3:1 #
-0.76842621021335388853401582309743 1:0.26899999 2:0.25 3:1 #
0.76842621021335388853401582309743 1:0.36057141 2:1 3:1 #
-0.76842621021335388853401582309743 1:0.33483872 2:0.97500002 3:1 #
0.76842621021335388853401582309743 1:0.21666667 2:0.23529412 3:1 #
-0.76842621021335388853401582309743 1:0.21538462 2:0.22727273 3:1 #
0.76842621021335388853401582309743 1:0.26542857 2:0.86956519 3:1 #
-0.76842621021335388853401582309743 1:0.27700001 2:0.81999999 3:1 #
0.76842621021335388853401582309743 1:0.21444444 2:0.045454547 3:1 #
-0.76842621021335388853401582309743 1:0.203125 2:0.85294116 3:1 #
0.76842621021335388853401582309743 1:0.2865625 2:0.875 3:1 #
0.76842621021335388853401582309743 1:0.16263159 2:0.11111111 3:1 #
-0.76842621021335388853401582309743 1:0.10727273 2:0.12765957 3:1 #
0.76842621021335388853401582309743 1:0.27583334 2:0.7647059 3:1 #
0.76842621021335388853401582309743 1:0.27649999 2:0.40000001 3:1 #
-0.76842621021335388853401582309743 1:0.32969698 2:0.5 3:1 #
0.76842621021335388853401582309743 1:0.16592592 2:0.71428573 3:1 #
-0.76842621021335388853401582309743 1:0.294 2:0.75609756 3:1 #
0.76842621021335388853401582309743 1:0.35093749 2:0.43589744 3:1 #
-0.70241292370655894483633119307342 1:0.21518518 2:0.64285713 3:1 #
0.76842621021335388853401582309743 1:0.36333334 2:1 3:1 #
-0.76842621021335388853401582309743 1:0.29592592 2:0.95890409 3:1 #
0.76842621021335388853401582309743 1:0.25600001 2:0.14285715 3:1 #
-0.76842621021335388853401582309743 1:0.28190476 2:0.13333334 3:1 #
0.76842621021335388853401582309743 1:0.2764 2:1 3:1 #
-0.76842621021335388853401582309743 1:0.31 2:1 3:1 #
0.76842621021335388853401582309743 1:0.26846153 2:0.2 3:1 #
-0.76842621021335388853401582309743 1:0.25375 2:0.18181819 3:1 #
-0.76842621021335388853401582309743 1:0.26111111 2:0.21428572 3:1 #
0.76842621021335388853401582309743 1:0.2588 2:1 3:1 #
-0.76842621021335388853401582309743 1:0.219375 2:1 3:1 #
0.76842621021335388853401582309743 1:0.28200001 2:0.1 3:1 #
-0.76842621021335388853401582309743 1:0.29307693 2:0.083333336 3:1 #
0.76842621021335388853401582309743 1:0.27777779 2:1 3:1 #
-0.76842621021335388853401582309743 1:0.27807692 2:1 3:1 #
-0.76842621021335388853401582309743 1:0.24736843 2:0.9285714 3:1 #
0.76842621021335388853401582309743 1:0.13 2:0.53333336 3:1 #
-0.76842621021335388853401582309743 1:0.2090909 2:0.40000001 3:1 #
0.76842621021335388853401582309743 1:0.22277778 2:0.64999998 3:1 #
-0.76842621021335388853401582309743 1:0.29555556 2:0.73076922 3:1 #
0.76842621021335388853401582309743 1:0.38374999 2:0.375 3:1 #
-0.76842621021335388853401582309743 1:0.35764706 2:0.38461539 3:1 #
-0.76842621021335388853401582309743 1:0.33636364 2:0.41999999 3:1 #
0.76842621021335388853401582309743 1:0.39454547 2:0.83333331 3:1 #
-0.76842621021335388853401582309743 1:0.28400001 2:0.80000001 3:1 #
0.76842621021335388853401582309743 1:0.33633333 2:0.42105263 3:1 #
0.76842621021335388853401582309743 1:0.1296 2:0.58333331 3:1 #
-0.76842621021335388853401582309743 1:0.30916667 2:0.64705884 3:1 #
0.76842621021335388853401582309743 1:0.20933333 2:0.56410259 3:1 #
0.76842621021335388853401582309743 1:0.13947369 2:0.82051283 3:1 #
0.76842621021335388853401582309743 1:0.55333334 2:0.69696969 3:1 #
-0.76842621021335388853401582309743 1:0.39421052 2:0.7647059 3:1 #
0.76842621021335388853401582309743 1:0.15033333 2:0.5 3:1 #
-0.76842621021335388853401582309743 1:0.32533333 2:0.56 3:1 #
0.76842621021335388853401582309743 1:0.23 2:0.57999998 3:1 #
-0.76842621021335388853401582309743 1:0.3190909 2:0.58536583 3:1 #
0.76842621021335388853401582309743 1:0.33684212 2:0.67500001 3:1 #
-0.76842621021335388853401582309743 1:0.29928571 2:0.71428573 3:1 #
0.76842621021335388853401582309743 1:0.32724139 2:0.5714286 3:1 #
-0.76842621021335388853401582309743 1:0.32624999 2:0.53333336 3:1 #
0.76842621021335388853401582309743 1:0.28 2:0.66666669 3:1 #
-0.76842621021335388853401582309743 1:0.30588236 2:0.66000003 3:1 #
0.76842621021335388853401582309743 1:0.45890909 2:0.64516127 3:1 #
-0.76842621021335388853401582309743 1:0.29733333 2:0.66666669 3:1 #
-0.76842621021335388853401582309743 1:0.31999999 2:0.5714286 3:1 #
0.76842621021335388853401582309743 1:0.15631579 2:0.60000002 3:1 #
-0.76842621021335388853401582309743 1:0.29550001 2:0.71428573 3:1 #
0.76842621021335388853401582309743 1:0.32285714 2:0.58823532 3:1 #
0.76842621021335388853401582309743 1:0.23552631 2:0.77777779 3:1 #
0.76842621021335388853401582309743 1:0.37333333 2:0.86885244 3:1 #
-0.76842621021335388853401582309743 1:0.37851852 2:0.94520545 3:1 #
0.76842621021335388853401582309743 1:0.22916667 2:0.083333336 3:1 #
-0.76842621021335388853401582309743 1:0.270625 2:0.15789473 3:1 #
0.76842621021335388853401582309743 1:0.26473683 2:1 3:1 #
-0.76842621021335388853401582309743 1:0.24736843 2:0.92592591 3:1 #
0.76842621021335388853401582309743 1:0.19294117 2:0.25 3:1 #
-0.76842621021335388853401582309743 1:0.26499999 2:0.037037037 3:1 #
0.76842621021335388853401582309743 1:0.26199999 2:0.75862068 3:1 #
-0.76842621021335388853401582309743 1:0.27869564 2:0.80952382 3:1 #
0.76842621021335388853401582309743 1:0.2355102 2:0.28947368 3:1 #
-0.76842621021335388853401582309743 1:0.33058822 2:0.33333334 3:1 #
0.76842621021335388853401582309743 1:0.34099999 2:1 3:1 #
0.76842621021335388853401582309743 1:0.28375 2:0.2857143 3:1 #
0.76842621021335388853401582309743 1:0.25952381 2:0.73584908 3:1 #
-0.76842621021335388853401582309743 1:0.27615383 2:0.81818181 3:1 #
0.76842621021335388853401582309743 1:0.35958335 2:0.33333334 3:1 #
-0.76842621021335388853401582309743 1:0.29076922 2:0.24324325 3:1 #
0.76842621021335388853401582309743 1:0.29777777 2:0.96666664 3:1 #
-0.76842621021335388853401582309743 1:0.31 2:0.92682928 3:1 #
0.76842621021335388853401582309743 1:0.345 2:0.18181819 3:1 #
-0.76842621021335388853401582309743 1:0.33388889 2:0.19047619 3:1 #
0.76842621021335388853401582309743 1:0.27620691 2:0.89999998 3:1 #
-0.76842621021335388853401582309743 1:0.24941176 2:0.90909094 3:1 #
-0.76842621021335388853401582309743 1:0.27454546 2:0.80000001 3:1 #
0.76842621021335388853401582309743 1:0.215 2:0.46153846 3:1 #
-0.76842621021335388853401582309743 1:0.33470589 2:0.46153846 3:1 #
0.76842621021335388853401582309743 1:0.35692307 2:0.84615386 3:1 #
-0.76842621021335388853401582309743 1:0.25785714 2:0.875 3:1 #
0.76842621021335388853401582309743 1:0.3339535 2:0.39473686 3:1 #
-0.76842621021335388853401582309743 1:0.33899999 2:0.35135135 3:1 #
0.76842621021335388853401582309743 1:0.139 2:1 3:1 #
0.76842621021335388853401582309743 1:0.4168421 2:0.27027026 3:1 #
-0.76842621021335388853401582309743 1:0.21529412 2:1 3:1 #
0.76842621021335388853401582309743 1:0.32258064 2:0.25 3:1 #
0.76842621021335388853401582309743 1:0.17 2:0.089285716 3:1 #
0.76842621021335388853401582309743 1:0.30239999 2:0.97560978 3:1 #
0.76842621021335388853401582309743 1:0.2165 2:0.125 3:1 #
-0.76842621021335388853401582309743 1:0.2751852 2:1 3:1 #
-0.76842621021335388853401582309743 1:0.29321429 2:0.15384616 3:1 #
0.76842621021335388853401582309743 1:0.28062499 2:1 3:1 #
0.76842621021335388853401582309743 1:0.31900001 2:0.1923077 3:1 #
-0.76842621021335388853401582309743 1:0.33050001 2:0.29411766 3:1 #
0.76842621021335388853401582309743 1:0.1925 2:0.71428573 3:1 #
-0.76842621021335388853401582309743 1:0.34333333 2:1 3:0 #
0.76842621021335388853401582309743 1:0.35183674 2:0.30769232 3:1 #
-0.76842621021335388853401582309743 1:0.30461538 2:0.6111111 3:1 #
0.76842621021335388853401582309743 1:0.29124999 2:0.86666667 3:0 #
-0.76842621021335388853401582309743 1:0.34999999 2:0.875 3:0 #
0.76842621021335388853401582309743 1:0.23428571 2:0.53125 3:1 #
-0.76842621021335388853401582309743 1:0.32133332 2:0.53333336 3:1 #
0.76842621021335388853401582309743 1:0.21666667 2:0.71666664 3:0 #
-0.76842621021335388853401582309743 1:0 2:0.52380955 3:0 #
0.76842621021335388853401582309743 1:0.37937501 2:0.68181819 3:1 #
-0.76842621021335388853401582309743 1:0.29357144 2:0.72972971 3:1 #
0.76842621021335388853401582309743 1:0.28742856 2:0.67924529 3:1 #
-0.76842621021335388853401582309743 1:0.36000001 2:0.25 3:0 #
0.76842621021335388853401582309743 1:0.27777779 2:0.29166666 3:0 #
0.76842621021335388853401582309743 1:0.32093751 2:0.64516127 3:1 #
-0.76842621021335388853401582309743 1:0.34571427 2:0.31818181 3:0 #
0.76842621021335388853401582309743 1:0.28291667 2:0.60000002 3:1 #
-0.76842621021335388853401582309743 1:0.30785716 2:0.57999998 3:1 #
-0.76842621021335388853401582309743 1:0.30000001 2:0.60869563 3:1 #
0.76842621021335388853401582309743 1:0.27410257 2:0.625 3:1 #
-0.76842621021335388853401582309743 1:0.29384616 2:0.66666669 3:1 #
0.76842621021335388853401582309743 1:0.27076924 2:0.5 3:1 #
0.76842621021335388853401582309743 1:0.24166666 2:0.5 3:1 #
0.76842621021335388853401582309743 1:0.55333334 2:0.70588237 3:1 #
-0.76842621021335388853401582309743 1:0.3145 2:0.55645162 3:1 #
-0.76842621021335388853401582309743 1:0.37347826 2:0.78947371 3:1 #
0.76842621021335388853401582309743 1:0.24384615 2:0.57407409 3:1 #
-0.76842621021335388853401582309743 1:0.33434781 2:0.45454547 3:1 #
0.76842621021335388853401582309743 1:0.30666667 2:0.86666667 3:1 #
-0.76842621021335388853401582309743 1:0.25523809 2:0.88235295 3:1 #
0.76842621021335388853401582309743 1:0.24571429 2:0.58536583 3:1 #
-0.76842621021335388853401582309743 1:0.29181817 2:0.68292683 3:1 #
-0.76842621021335388853401582309743 1:0.31137931 2:0.56 3:1 #
0.76842621021335388853401582309743 1:0.29785714 2:0.72222221 3:1 #
-0.76842621021335388853401582309743 1:0.28705883 2:0.75 3:1 #
0.76842621021335388853401582309743 1:0.33054054 2:0.44444445 3:1 #
-0.35804292612568006104467599470809 1:0.31804878 2:0.79487181 3:1 #
0.76842621021335388853401582309743 1:0.33272728 2:0.93333334 3:1 #
-0.76842621021335388853401582309743 1:0.38384616 2:1 3:1 #
0.76842621021335388853401582309743 1:0.16240001 2:0.11111111 3:1 #
-0.76842621021335388853401582309743 1:0.10727273 2:0.1627907 3:1 #
0.76842621021335388853401582309743 1:0.33818182 2:0.92307693 3:1 #
-0.76842621021335388853401582309743 1:0.38142857 2:0.875 3:1 #
0.76842621021335388853401582309743 1:0.23333333 2:0.37209302 3:1 #
-0.76842621021335388853401582309743 1:0.32421052 2:0.44444445 3:1 #
0.76842621021335388853401582309743 1:0.31299999 2:0.77499998 3:1 #
-0.76842621021335388853401582309743 1:0.26499999 2:0.83783782 3:1 #
-0.76842621021335388853401582309743 1:0.27399999 2:0.80000001 3:1 #
0.76842621021335388853401582309743 1:0.2717647 2:0.38461539 3:1 #
-0.76842621021335388853401582309743 1:0.25208333 2:0.26666668 3:1 #
-0.76842621021335388853401582309743 1:0.26300001 2:0.27777779 3:1 #
0.76842621021335388853401582309743 1:0.23847826 2:1 3:1 #
-0.76842621021335388853401582309743 1:0.234375 2:0.95238096 3:1 #
-0.76842621021335388853401582309743 1:0.33307692 2:0.25 3:1 #
0.76842621021335388853401582309743 1:0.15366666 2:0.71428573 3:1 #
-0.76842621021335388853401582309743 1:0.28133333 2:0.76923078 3:1 #
0.76842621021335388853401582309743 1:0.24111111 2:0.11111111 3:0 #
-0.76842621021335388853401582309743 1:0.35222223 2:0.20512821 3:0 #
0.76842621021335388853401582309743 1:0.2271875 2:0.60000002 3:1 #
-0.76842621021335388853401582309743 1:0.29111111 2:0.72727275 3:1 #
0.76842621021335388853401582309743 1:0.33086956 2:0.5625 3:1 #
-0.76842621021335388853401582309743 1:0.32185185 2:0.46000001 3:1 #
0.76842621021335388853401582309743 1:0.46266666 2:0.8888889 3:1 #
-0.76842621021335388853401582309743 1:0.25090909 2:0.89795917 3:1 #
0.76842621021335388853401582309743 1:0.24034482 2:0.2 3:1 #
-0.76842621021335388853401582309743 1:0.33500001 2:0.11111111 3:1 #
0.76842621021335388853401582309743 1:0.264 2:1 3:1 #
-0.76842621021335388853401582309743 1:0.23999999 2:0.93333334 3:1 #
0.76842621021335388853401582309743 1:0.3890909 2:0.086956523 3:1 #
-0.76842621021335388853401582309743 1:0.45899999 2:0.05882353 3:1 #
0.76842621021335388853401582309743 1:0.20769231 2:0.76923078 3:1 #
0.76842621021335388853401582309743 1:0.30068967 2:0.07692308 3:1 #
-0.76842621021335388853401582309743 1:0.101 2:0.17391305 3:1 #
-0.76842621021335388853401582309743 1:0.23235294 2:0.1724138 3:1 #
0.76842621021335388853401582309743 1:0.22 2:0.7735849 3:1 #
0.76842621021335388853401582309743 1:0.20411764 2:0.11627907 3:1 #
-0.76842621021335388853401582309743 1:0.31312501 2:0.55000001 3:1 #
0.76842621021335388853401582309743 1:0.33655173 2:0.5714286 3:1 #
-0.76842621021335388853401582309743 1:0.32210526 2:0.5 3:1 #
0.76842621021335388853401582309743 1:0.31200001 2:0.66666669 3:1 #
-0.76842621021335388853401582309743 1:0.29260871 2:0.64999998 3:1 #
0.76842621021335388853401582309743 1:0.329 2:0.61538464 3:1 #
-0.76842621021335388853401582309743 1:0.31218749 2:0.55555558 3:1 #
0.76842621021335388853401582309743 1:0.25411764 2:0.69230771 3:1 #
0.76842621021335388853401582309743 1:0.3055 2:0.34285715 3:1 #
-0.76842621021335388853401582309743 1:0.285 2:0.6875 3:1 #
0.76842621021335388853401582309743 1:0.26647058 2:0.5 3:1 #
-0.76842621021335388853401582309743 1:0.32266667 2:0.44 3:1 #
0.76842621021335388853401582309743 1:0.33571428 2:0.74074072 3:1 #
-0.76842621021335388853401582309743 1:0.2652941 2:0.83333331 3:1 #
-0.76842621021335388853401582309743 1:0.32529411 2:0.34285715 3:1 #
0.76842621021335388853401582309743 1:0.16439025 2:1 3:1 #
-0.76842621021335388853401582309743 1:0.21292683 2:1 3:1 #
0.76842621021335388853401582309743 1:0.41166666 2:0.2857143 3:1 #
-0.76842621021335388853401582309743 1:0.32263157 2:0.21818182 3:1 #
0.76842621021335388853401582309743 1:0.32146341 2:0.92000002 3:1 #
-0.76842621021335388853401582309743 1:0.24600001 2:0.91397852 3:1 #
0.76842621021335388853401582309743 1:0.22806452 2:0.625 3:1 #
-0.76842621021335388853401582309743 1:0.27629629 2:0.78260869 3:1 #
0.76842621021335388853401582309743 1:0.26538461 2:0.53846157 3:1 #
-0.76842621021335388853401582309743 1:0.23642857 2:0.27272728 3:1 #
0.76842621021335388853401582309743 1:0.28105262 2:0.8214286 3:1 #
0.76842621021335388853401582309743 1:0.20380953 2:0.36363637 3:1 #
-0.76842621021335388853401582309743 1:0.28749999 2:0.65789473 3:1 #
0.76842621021335388853401582309743 1:0.242 2:0.63636363 3:1 #
-0.76842621021335388853401582309743 1:0.28999999 2:0.63636363 3:1 #
0.76842621021335388853401582309743 1:0.35454544 2:0.5 3:1 #
-0.76842621021335388853401582309743 1:0.31090909 2:0.55000001 3:1 #
0.76842621021335388853401582309743 1:0.22263157 2:0.72093022 3:1 #
0.76842621021335388853401582309743 1:0.37076923 2:0.35714287 3:1 #
-0.76842621021335388853401582309743 1:0.29733333 2:0.60000002 3:1 #
-0.76842621021335388853401582309743 1:0.31900001 2:0.5 3:1 #
0.76842621021335388853401582309743 1:0.2751613 2:0.75862068 3:1 #
-0.76842621021335388853401582309743 1:0.2447619 2:0.91525424 3:1 #
-0.76842621021335388853401582309743 1:0.33428571 2:0.36363637 3:1 #
0.76842621021335388853401582309743 1:0.30962962 2:1 3:1 #
-0.76842621021335388853401582309743 1:0.21275862 2:1 3:1 #
0.76842621021335388853401582309743 1:0.22538462 2:0.30000001 3:1 #
-0.76842621021335388853401582309743 1:0.21307692 2:0.30952382 3:1 #
0.76842621021335388853401582309743 1:0.24138889 2:0.9285714 3:1 #
0.76842621021335388853401582309743 1:0.19730769 2:0.1 3:1 #
-0.76842621021335388853401582309743 1:0.27666667 2:0.76923078 3:1 #
-0.76842621021335388853401582309743 1:0.32157895 2:0.31428573 3:1 #
0.76842621021335388853401582309743 1:0.22448276 2:0.82857144 3:1 #
-0.76842621021335388853401582309743 1:0.22317073 2:0.97619045 3:1 #
0.76842621021335388853401582309743 1:0.41304347 2:0.1875 3:1 #
-0.76842621021335388853401582309743 1:0.37900001 2:0.074074075 3:1 #
0.76842621021335388853401582309743 1:0.22892857 2:1 3:1 #
-0.76842621021335388853401582309743 1:0.24388888 2:0.91666669 3:1 #
0.76842621021335388853401582309743 1:0.2873913 2:0.10714286 3:1 #
-0.76842621021335388853401582309743 1:0.25767443 2:0.075000003 3:1 #
-0.76842621021335388853401582309743 1:0.24185185 2:0.16666667 3:1 #
0.76842621021335388853401582309743 1:0.27407408 2:0.87096775 3:1 #
-0.76842621021335388853401582309743 1:0.23999999 2:0.92207789 3:1 #
-0.76842621021335388853401582309743 1:0.31933334 2:0.43902439 3:1 #
0.76842621021335388853401582309743 1:0.20999999 2:0.75 3:1 #
0.76842621021335388853401582309743 1:0.25567567 2:0.38461539 3:1 #
-0.76842621021335388853401582309743 1:0.28583333 2:0.66666669 3:1 #
0.76842621021335388853401582309743 1:0.28428572 2:0.60000002 3:1 #
0.76842621021335388853401582309743 1:0.20590909 2:0.8051948 3:1 #
0.76842621021335388853401582309743 1:0.57583332 2:0.66666669 3:1 #
-0.76842621021335388853401582309743 1:0.52666664 2:0.80769229 3:1 #
0.76842621021335388853401582309743 1:0.18888889 2:0.3974359 3:1 #
0.76842621021335388853401582309743 1:0.226 2:0.77777779 3:1 #
-0.76842621021335388853401582309743 1:0.331875 2:0.38 3:1 #
-0.76842621021335388853401582309743 1:0.2557143 2:0.85294116 3:1 #
0.76842621021335388853401582309743 1:0.30071428 2:0.30000001 3:1 #
-0.76842621021335388853401582309743 1:0.27454546 2:0.19512194 3:1 #
0.76842621021335388853401582309743 1:0.38379312 2:1 3:1 #
-0.76842621021335388853401582309743 1:0.33033332 2:0.88 3:1 #
0.76842621021335388853401582309743 1:0.18125001 2:0.1923077 3:1 #
-0.76842621021335388853401582309743 1:0.092 2:0.16666667 3:1 #
-0.76842621021335388853401582309743 1:0.099230766 2:0.18181819 3:1 #
0.76842621021335388853401582309743 1:0.30392858 2:1 3:1 #
-0.76842621021335388853401582309743 1:0.34178573 2:1 3:1 #
0.76842621021335388853401582309743 1:0.22933333 2:0.20833333 3:1 #
-0.76842621021335388853401582309743 1:0.27629629 2:0.12903225 3:1 #
-0.76842621021335388853401582309743 1:0.33000001 2:0.27272728 3:1 #
0.76842621021335388853401582309743 1:0.27500001 2:0.75 3:1 #
-0.76842621021335388853401582309743 1:0.24909091 2:0.88 3:1 #
0.76842621021335388853401582309743 1:0.30769232 2:0.052631579 3:1 #
-0.76842621021335388853401582309743 1:0.27399999 2:0.032258064 3:1 #
0.76842621021335388853401582309743 1:0.31241378 2:1 3:1 #
-0.76842621021335388853401582309743 1:0.24035715 2:0.91666669 3:1 #
0.76842621021335388853401582309743 1:0.28999999 2:0.60000002 3:1 #
-0.76842621021335388853401582309743 1:0.28545454 2:0.66666669 3:1 #
-0.76842621021335388853401582309743 1:0.30894735 2:0.53846157 3:1 #
0.76842621021335388853401582309743 1:0.21142857 2:0.72727275 3:1 #
0.76842621021335388853401582309743 1:0.31266665 2:0.58441556 3:1 #
-0.76842621021335388853401582309743 1:0.29750001 2:0.58333331 3:1 #
-0.76842621021335388853401582309743 1:0.3009091 2:0.5714286 3:1 #
0.76842621021335388853401582309743 1:0.41595238 2:0.5714286 3:1 #
-0.76842621021335388853401582309743 1:0.30649999 2:0.54545456 3:1 #
0.76842621021335388853401582309743 1:0.16909091 2:0.60526317 3:1 #
-0.76842621021335388853401582309743 1:0.27483872 2:0.76785713 3:1 #
0.76842621021335388853401582309743 1:0.30133334 2:0.47499999 3:1 #
-0.36284674080922879602084663019923 1:0.050000001 2:0.34408602 3:0 #
0.76842621021335388853401582309743 1:0.43894738 2:0.96875 3:1 #
-0.76842621021335388853401582309743 1:0.41119999 2:0.96296299 3:1 #
0.76842621021335388853401582309743 1:0.23774193 2:0.064516127 3:1 #
-0.76842621021335388853401582309743 1:0.38461539 2:0.048780486 3:1 #
0.76842621021335388853401582309743 1:0.23828572 2:0.89999998 3:1 #
0.76842621021335388853401582309743 1:0.44466665 2:0.088235296 3:1 #
-0.76842621021335388853401582309743 1:0.31062499 2:0.5 3:1 #
0.76842621021335388853401582309743 1:0.21966666 2:0.66666669 3:1 #
-0.76842621021335388853401582309743 1:0.27160001 2:0.78048778 3:1 #
0.76842621021335388853401582309743 1:0.20999999 2:0.43478259 3:1 #
-0.76842621021335388853401582309743 1:0.089285716 2:0.22680412 3:1 #
0.76842621021335388853401582309743 1:0.28920001 2:0.78125 3:1 #
-0.76842621021335388853401582309743 1:0.11 2:0.11688311 3:1 #
-0.76842621021335388853401582309743 1:0.40000001 2:0.85714287 3:1 #
-0.76842621021335388853401582309743 1:0.25095239 2:0.87012988 3:1 #
0.76842621021335388853401582309743 1:0.16533333 2:0.46666667 3:1 #
-0.76842621021335388853401582309743 1:0.32529411 2:0.38461539 3:1 #
-0.76842621021335388853401582309743 1:0.30846155 2:0.51851851 3:1 #
0.76842621021335388853401582309743 1:0.26105264 2:0.78787881 3:1 #
-0.76842621021335388853401582309743 1:0.24909091 2:0.87719297 3:1 #
0.76842621021335388853401582309743 1:0.39740741 2:0.25 3:1 #
-0.76842621021335388853401582309743 1:0.41894737 2:0.055555556 3:1 #
0.76842621021335388853401582309743 1:0.19264705 2:1 3:1 #
-0.76842621021335388853401582309743 1:0.23999999 2:0.91489363 3:1 #
-0.76842621021335388853401582309743 1:0.30708334 2:0.48717949 3:1 #
0.76842621021335388853401582309743 1:0.38906977 2:0.68181819 3:1 #
-0.76842621021335388853401582309743 1:0.35321429 2:0.78378379 3:1 #
0.76842621021335388853401582309743 1:0.17749999 2:0.33333334 3:1 #
-0.76842621021335388853401582309743 1:0.1025 2:0.20338982 3:1 #
0.76842621021335388853401582309743 1:0.3994737 2:0.96428573 3:1 #
0.76842621021335388853401582309743 1:0.2165 2:0.074074075 3:1 #
-0.76842621021335388853401582309743 1:0.35822222 2:0.91176468 3:1 #
-0.76842621021335388853401582309743 1:0.41363636 2:0.035714287 3:1 #
0.76842621021335388853401582309743 1:0.19724999 2:0.78260869 3:1 #
-0.76842621021335388853401582309743 1:0.32157895 2:0.30769232 3:1 #
0.76842621021335388853401582309743 1:0.34526315 2:0.14285715 3:1 #
-0.76842621021335388853401582309743 1:0.2168421 2:0.99029124 3:1 #
0.76842621021335388853401582309743 1:0.47193548 2:0.46666667 3:1 #
-0.76842621021335388853401582309743 1:0.57050002 2:0.18181819 3:1 #
-0.76842621021335388853401582309743 1:0.31941175 2:0.40909091 3:1 #
0.76842621021335388853401582309743 1:0.163 2:0.94736844 3:1 #
-0.76842621021335388853401582309743 1:0.21555555 2:0.98701298 3:1 #
0.76842621021335388853401582309743 1:0.26764706 2:0.071428575 3:1 #
-0.76842621021335388853401582309743 1:0.29363635 2:0.033333335 3:1 #
0.76842621021335388853401582309743 1:0.31270272 2:1 3:1 #
-0.76842621021335388853401582309743 1:0.23 2:0.94999999 3:1 #
0.76842621021335388853401582309743 1:0.29478261 2:0.32051283 3:1 #
-0.76842621021335388853401582309743 1:0.32043478 2:0.40000001 3:1 #
0.76842621021335388853401582309743 1:0.2709091 2:0.78571427 3:1 #
-0.76842621021335388853401582309743 1:0.41363636 2:0.043478262 3:1 #
0.76842621021335388853401582309743 1:0.21259259 2:0.90909094 3:1 #
-0.76842621021335388853401582309743 1:0.24250001 2:0.90476191 3:1 #
0.76842621021335388853401582309743 1:0.28749999 2:0.071428575 3:1 #
-0.76842621021335388853401582309743 1:0.2155 2:0.58333331 3:1 #
-0.76842621021335388853401582309743 1:0.31166667 2:0.45967743 3:1 #
0.76842621021335388853401582309743 1:0.41263157 2:0.75 3:1 #
0.76842621021335388853401582309743 1:0.22 2:0.4848485 3:1 #
-0.76842621021335388853401582309743 1:0.10625 2:0.125 3:1 #
0.76842621021335388853401582309743 1:0.34407407 2:0.72727275 3:1 #
-0.76842621021335388853401582309743 1:0.34833333 2:0.87903225 3:1 #
0.76842621021335388853401582309743 1:0.1752 2:0.2857143 3:1 #
-0.76842621021335388853401582309743 1:0.28400001 2:0.16666667 3:1 #
0.76842621021335388853401582309743 1:0.33115384 2:1 3:1 #
-0.76842621021335388853401582309743 1:0.24939394 2:0.875 3:1 #
-0.76842621021335388853401582309743 1:0.26894736 2:0.79166669 3:1 #
0.76842621021335388853401582309743 1:0.23034483 2:0.5 3:1 #
-0.76842621021335388853401582309743 1:0.30399999 2:0.47368422 3:1 #
0.76842621021335388853401582309743 1:0.22958334 2:0.77777779 3:1 #
0.76842621021335388853401582309743 1:0.34407407 2:0.625 3:1 #
-0.76842621021335388853401582309743 1:0.2973913 2:0.55555558 3:1 #
-0.76842621021335388853401582309743 1:0.28999999 2:0.58974361 3:1 #
0.76842621021335388853401582309743 1:0.24967742 2:0.66153848 3:1 #
-0.76842621021335388853401582309743 1:0.28333333 2:0.6769231 3:1 #
0.76842621021335388853401582309743 1:0.35183674 2:0.43902439 3:1 #
-0.76842621021335388853401582309743 1:0.31555554 2:0.27500001 3:1 #
0.76842621021335388853401582309743 1:0.13192308 2:1 3:1 #
0.76842621021335388853401582309743 1:0.27950001 2:0.79545456 3:1 #
0.76842621021335388853401582309743 1:0.28733334 2:0.35714287 3:1 #
-0.76842621021335388853401582309743 1:0.29809523 2:0.51428574 3:1 #
0.76842621021335388853401582309743 1:0.25523809 2:0.6875 3:1 #
-0.76842621021335388853401582309743 1:0.26785713 2:0.79452056 3:1 #
0.76842621021335388853401582309743 1:0.37434784 2:0.46875 3:1 #
-0.76842621021335388853401582309743 1:0.31999999 2:0.33333334 3:1 #
0.76842621021335388853401582309743 1:0.33710527 2:0.13333334 3:1 #
-0.76842621021335388853401582309743 1:0.226 2:0.95999998 3:1 #
-0.76842621021335388853401582309743 1:0.32095239 2:0.3951613 3:1 #
-0.76842621021335388853401582309743 1:0.27857143 2:0.73333335 3:1 #
-0.76842621021335388853401582309743 1:0.294 2:0.56410259 3:1 #
0.76842621021335388853401582309743 1:0.41352943 2:0.58333331 3:1 #
0.76842621021335388853401582309743 1:0.18861111 2:0.77777779 3:1 #
-0.76842621021335388853401582309743 1:0.24107143 2:0.89999998 3:1 #
0.76842621021335388853401582309743 1:0.30034482 2:0.30555555 3:1 #
-0.76842621021335388853401582309743 1:0.33384615 2:0.06666667 3:1 #
0.76842621021335388853401582309743 1:0.33000001 2:0.97500002 3:1 #
-0.76842621021335388853401582309743 1:0.29384616 2:0.54545456 3:1 #
-0.76842621021335388853401582309743 1:0.28400001 2:0.65217394 3:1 #
0.76842621021335388853401582309743 1:0.18515152 2:0.76923078 3:1 #
-0.76842621021335388853401582309743 1:0.26076922 2:0.81481481 3:1 #
0.76842621021335388853401582309743 1:0.44045454 2:0.2857143 3:1 #
0.76842621021335388853401582309743 1:0.28139535 2:1 3:1 #
-0.76842621021335388853401582309743 1:0.22272727 2:0.95876288 3:1 #
-0.76842621021335388853401582309743 1:0.11384615 2:0.064935066 3:1 #
0.76842621021335388853401582309743 1:0.3895238 2:0.84848487 3:1 #
-0.76842621021335388853401582309743 1:0.41692308 2:1 3:1 #
0.76842621021335388853401582309743 1:0.19588235 2:0.11111111 3:1 #
0.76842621021335388853401582309743 1:0.21848485 2:0.85714287 3:1 #
-0.76842621021335388853401582309743 1:0.33037037 2:0.18518518 3:1 #
-0.76842621021335388853401582309743 1:0.20742857 2:1 3:1 #
0.76842621021335388853401582309743 1:0.3292 2:0.15555556 3:1 #
-0.76842621021335388853401582309743 1:0.33250001 2:0.15384616 3:1 #
0.76842621021335388853401582309743 1:0.27970588 2:0.94999999 3:1 #
-0.76842621021335388853401582309743 1:0.25468084 2:1 3:1 #
0.76842621021335388853401582309743 1:0.28583333 2:0.1 3:1 #
-0.76842621021335388853401582309743 1:0.29062501 2:0.028571429 3:1 #
-0.76842621021335388853401582309743 1:0.28375 2:0.033333335 3:1 #
0.76842621021335388853401582309743 1:0.31999999 2:0.98387098 3:1 #
-0.76842621021335388853401582309743 1:0.34277779 2:0.98630136 3:1 #
0.76842621021335388853401582309743 1:0.1952381 2:0.2 3:1 #
0.76842621021335388853401582309743 1:0.142 2:0.07692308 3:1 #
-0.76842621021335388853401582309743 1:0.3009091 2:0.47058824 3:1 #
0.76842621021335388853401582309743 1:0.36500001 2:0.95833331 3:1 #
0.76842621021335388853401582309743 1:0.16500001 2:0.3275862 3:1 #
0.76842621021335388853401582309743 1:0.23076923 2:0.81818181 3:1 #
-0.76842621021335388853401582309743 1:0.30684212 2:0.94444442 3:1 #
-0.76842621021335388853401582309743 1:0.2535294 2:0.84375 3:1 #
-0.76842621021335388853401582309743 1:0.27411765 2:0.75999999 3:1 #
0.76842621021335388853401582309743 1:0.15700001 2:0.33333334 3:1 #
-0.76842621021335388853401582309743 1:0.09375 2:0.16438356 3:1 #
0.76842621021335388853401582309743 1:0.27769232 2:0.80000001 3:1 #
0.76842621021335388853401582309743 1:0.30227274 2:1 3:1 #
0.76842621021335388853401582309743 1:0.23655172 2:0.25757575 3:1 #
-0.76842621021335388853401582309743 1:0.29583332 2:0.2 3:1 #
0.76842621021335388853401582309743 1:0.14277777 2:0.86363637 3:1 #
-0.76842621021335388853401582309743 1:0.22181818 2:0.95999998 3:1 #
0.76842621021335388853401582309743 1:0.50714284 2:0.45833334 3:1 #
-0.76842621021335388853401582309743 1:0.55500001 2:0.11111111 3:1 #
0.76842621021335388853401582309743 1:0.21419355 2:1 3:1 #
-0.76842621021335388853401582309743 1:0.25812501 2:0.82608694 3:1 #
0.76842621021335388853401582309743 1:0.29949999 2:0.12820514 3:1 #
-0.04079078924404944822557084194159 1:0.25111112 2:0.043010753 3:1 #
-0.76842621021335388853401582309743 1:0.31850001 2:0.37142858 3:1 #
0.76842621021335388853401582309743 1:0.18527777 2:0.60000002 3:1 #
0.76842621021335388853401582309743 1:0.41352943 2:0.63636363 3:1 #
-0.76842621021335388853401582309743 1:0.27399999 2:0.75 3:1 #
-0.76842621021335388853401582309743 1:0.30058825 2:0.47619048 3:1 #
0.76842621021335388853401582309743 1:0.345 2:0.84615386 3:1 #
-0.76842621021335388853401582309743 1:0.21666667 2:0.97435898 3:1 #
0.76842621021335388853401582309743 1:0.37739131 2:0.33333334 3:1 #
-0.76842621021335388853401582309743 1:0.35176471 2:0.16129032 3:1 #
0.76842621021335388853401582309743 1:0.228 2:1 3:1 #
0.76842621021335388853401582309743 1:0.25772727 2:0.125 3:1 #
-0.76842621021335388853401582309743 1:0.28333333 2:0.95999998 3:1 #
0.76842621021335388853401582309743 1:0.24843749 2:0.30000001 3:1 #
-0.76842621021335388853401582309743 1:0.24416667 2:0.21428572 3:1 #
0.76842621021335388853401582309743 1:0.22473684 2:0.90625 3:1 #
-0.76842621021335388853401582309743 1:0.2074074 2:1 3:1 #
-0.76842621021335388853401582309743 1:0.21933334 2:0.96296299 3:1 #
-0.76842621021335388853401582309743 1:0.23571429 2:0.90909094 3:1 #
0.76842621021335388853401582309743 1:0.27000001 2:0.14285715 3:1 #
-0.76842621021335388853401582309743 1:0.26205882 2:0.024390243 3:1 #
0.76842621021335388853401582309743 1:0.22619048 2:0.89473683 3:1 #
0.76842621021335388853401582309743 1:0.32749999 2:0.083333336 3:1 #
-0.76842621021335388853401582309743 1:0.24129032 2:0.89041096 3:1 #
-0.76842621021335388853401582309743 1:0.38066667 2:0.071428575 3:1 #
0.76842621021335388853401582309743 1:0.24972223 2:0.8888889 3:1 #
-0.76842621021335388853401582309743 1:0.3188889 2:0.33333334 3:1 #
0.76842621021335388853401582309743 1:0.25592592 2:0.75862068 3:1 #
0.76842621021335388853401582309743 1:0.169375 2:0.33333334 3:1 #
0.76842621021335388853401582309743 1:0.28529412 2:0.46666667 3:1 #
-0.76842621021335388853401582309743 1:0.26249999 2:0.80769229 3:1 #
-0.76842621021335388853401582309743 1:0.31600001 2:0.33333334 3:1 #
0.76842621021335388853401582309743 1:0.24966666 2:1 3:1 #
0.76842621021335388853401582309743 1:0.30055556 2:0.42857143 3:1 #
-0.76842621021335388853401582309743 1:0.31470588 2:0.2857143 3:1 #
0.76842621021335388853401582309743 1:0.25545454 2:1 3:1 #
0.76842621021335388853401582309743 1:0.27161291 2:0.09375 3:1 #
-0.76842621021335388853401582309743 1:0.23552631 2:0.16666667 3:1 #
0.76842621021335388853401582309743 1:0.19499999 2:0.83720928 3:1 #
-0.76842621021335388853401582309743 1:0.20736842 2:1 3:1 #
-0.76842621021335388853401582309743 1:0.25681818 2:0.83076924 3:1 #
0.76842621021335388853401582309743 1:0.39333335 2:0.89999998 3:1 #
-0.76842621021335388853401582309743 1:0.40230769 2:0.81818181 3:1 #
0.76842621021335388853401582309743 1:0.122 2:0.16666667 3:1 #
-0.76842621021335388853401582309743 1:0.088 2:0.13043478 3:1 #
-0.76842621021335388853401582309743 1:0.31761906 2:0.40000001 3:1 #
0.76842621021335388853401582309743 1:0.3145946 2:0.75 3:1 #
0.76842621021335388853401582309743 1:0.33363637 2:0.16666667 3:1 #
0.76842621021335388853401582309743 1:0.41055554 2:0.5 3:1 #
-0.76842621021335388853401582309743 1:0.27909091 2:0.70689654 3:1 #
0.76842621021335388853401582309743 1:0.21935484 2:0.55000001 3:1 #
-0.76842621021335388853401582309743 1:0.10428572 2:0.14285715 3:1 #
-0.76842621021335388853401582309743 1:0.34266666 2:0.90476191 3:1 #
0.76842621021335388853401582309743 1:0.1925 2:0.090909094 3:1 #
0.76842621021335388853401582309743 1:0.16333333 2:0.76666665 3:1 #
0.76842621021335388853401582309743 1:0.31928572 2:1 3:1 #
-0.76842621021335388853401582309743 1:0.24733333 2:0.86666667 3:1 #
0.76842621021335388853401582309743 1:0.2 2:0.27906978 3:1 #
-0.76842621021335388853401582309743 1:0.23172414 2:0.18181819 3:1 #
-0.76842621021335388853401582309743 1:0.298125 2:0.45945945 3:1 #
0.76842621021335388853401582309743 1:0.32391304 2:0.73015875 3:1 #
0.76842621021335388853401582309743 1:0.28347826 2:0.38461539 3:1 #
-0.76842621021335388853401582309743 1:0.2682353 2:0.77419353 3:1 #
0.76842621021335388853401582309743 1:0.15000001 2:0.44736841 3:1 #
-0.76842621021335388853401582309743 1:0.097894736 2:0.22222222 3:1 #
0.76842621021335388853401582309743 1:0.40421054 2:1 3:1 #
-0.76842621021335388853401582309743 1:0.38481483 2:0.95833331 3:1 #
-0.76842621021335388853401582309743 1:0.34785715 2:0.77777779 3:1 #
0.76842621021335388853401582309743 1:0.23470588 2:0.80000001 3:1 #
-0.76842621021335388853401582309743 1:0.4224138 2:0.56521738 3:1 #
0.76842621021335388853401582309743 1:0.21346153 2:0.65714288 3:1 #
-0.76842621021335388853401582309743 1:0.27068967 2:0.75268817 3:1 #
0.76842621021335388853401582309743 1:0.43833333 2:0.58333331 3:1 #
-0.76842621021335388853401582309743 1:0.31714284 2:0.40000001 3:1 #
-0.76842621021335388853401582309743 1:0.28588235 2:0.62337661 3:1 #
0.76842621021335388853401582309743 1:0.24821429 2:0.61538464 3:1 #
-0.76842621021335388853401582309743 1:0.289 2:0.58823532 3:1 #
0.76842621021335388853401582309743 1:0.37923077 2:0.55555558 3:1 #
-0.76842621021335388853401582309743 1:0.294 2:0.51851851 3:1 #
-0.76842621021335388853401582309743 1:0.48666668 2:0.70731705 3:1 #
0.76842621021335388853401582309743 1:0.28068966 2:0.61538464 3:1 #
-0.76842621021335388853401582309743 1:0.21611111 2:0.47311828 3:1 #
-0.76842621021335388853401582309743 1:0.27741936 2:0.71428573 3:1 #
0.76842621021335388853401582309743 1:0.40081081 2:0.60000002 3:1 #
0.76842621021335388853401582309743 1:0.25 2:0.89999998 3:1 #
-0.76842621021335388853401582309743 1:0.22333333 2:0.94444442 3:1 #
0.76842621021335388853401582309743 1:0.28243244 2:0.10483871 3:1 #
-0.76842621021335388853401582309743 1:0.33000001 2:0.083333336 3:1 #
-0.76842621021335388853401582309743 1:0.31121212 2:0.11111111 3:1 #
0.76842621021335388853401582309743 1:0.33617648 2:0.75 3:1 #
0.76842621021335388853401582309743 1:0.23352942 2:0.38461539 3:1 #
-0.76842621021335388853401582309743 1:0.22285715 2:0.22727273 3:1 #
0.76842621021335388853401582309743 1:0.25032258 2:1 3:1 #
-0.76842621021335388853401582309743 1:0.27555555 2:0.72727275 3:1 #
0.76842621021335388853401582309743 1:0.2563158 2:0.5 3:1 #
-0.76842621021335388853401582309743 1:0.31615385 2:0.31999999 3:1 #
0.76842621021335388853401582309743 1:0.26956522 2:0.92500001 3:1 #
-0.76842621021335388853401582309743 1:0.25850001 2:0.81818181 3:1 #
0.76842621021335388853401582309743 1:0.38457143 2:0.52380955 3:1 #
-0.76842621021335388853401582309743 1:0.31473684 2:0.30645162 3:1 #
-0.76842621021335388853401582309743 1:0.31079999 2:0.37142858 3:1 #
0.76842621021335388853401582309743 1:0.23280001 2:0.88461536 3:1 #
-0.76842621021335388853401582309743 1:0.25612903 2:1 3:1 #
0.76842621021335388853401582309743 1:0.19571428 2:0.1 3:1 #
-0.76842621021335388853401582309743 1:0.24588235 2:0.016949153 3:1 #
0.76842621021335388853401582309743 1:0.36681819 2:0.875 3:1 #
-0.76842621021335388853401582309743 1:0.2452174 2:0.87096775 3:1 #
-0.76842621021335388853401582309743 1:0.25411764 2:0.83870965 3:1 #
0.76842621021335388853401582309743 1:0.28806451 2:0.4074074 3:1 #
-0.76842621021335388853401582309743 1:0.28117648 2:0.68000001 3:1 #
-0.76842621021335388853401582309743 1:0.315 2:0.34999999 3:1 #
0.76842621021335388853401582309743 1:0.18125001 2:1 3:1 #
-0.76842621021335388853401582309743 1:0.2015 2:1 3:1 #
0.76842621021335388853401582309743 1:0.34571427 2:0.5 3:1 #
-0.76842621021335388853401582309743 1:0.31200001 2:0.27586207 3:1 #
-0.76842621021335388853401582309743 1:0.30899999 2:0.37837839 3:1 #
-0.76842621021335388853401582309743 1:0.30076924 2:0.42105263 3:1 #
0.76842621021335388853401582309743 1:0.31258065 2:0.74000001 3:1 #
-0.76842621021335388853401582309743 1:0.42074075 2:1 3:1 #
0.76842621021335388853401582309743 1:0.2590909 2:0.23076923 3:1 #
0.76842621021335388853401582309743 1:0.31119049 2:0.969697 3:1 #
-0.76842621021335388853401582309743 1:0.29647058 2:0.26666668 3:1 #
0.76842621021335388853401582309743 1:0.22083333 2:0.10606061 3:1 #
-0.76842621021335388853401582309743 1:0.21571429 2:0.21951219 3:1 #
0.76842621021335388853401582309743 1:0.34636363 2:0.80000001 3:1 #
0.76842621021335388853401582309743 1:0.15923077 2:0.029411765 3:1 #
-0.76842621021335388853401582309743 1:0.32307693 2:0.85454547 3:1 #
0.76842621021335388853401582309743 1:0.27583334 2:0.43333334 3:1 #
0.76842621021335388853401582309743 1:0.15000001 2:1 3:1 #
0.76842621021335388853401582309743 1:0.26875001 2:0.17647059 3:1 #
-0.76842621021335388853401582309743 1:0.25142857 2:0.84615386 3:1 #
0.76842621021335388853401582309743 1:0.37291667 2:0.4375 3:1 #
-0.76842621021335388853401582309743 1:0.31 2:0.36842105 3:1 #
0.76842621021335388853401582309743 1:0.21866667 2:0.87179488 3:1 #
-0.76842621021335388853401582309743 1:0.21384615 2:0.96774191 3:1 #
-0.76842621021335388853401582309743 1:0.27461538 2:0.15625 3:1 #
-0.76842621021335388853401582309743 1:0.285 2:0.61818182 3:1 #
0.76842621021335388853401582309743 1:0.28999999 2:0.61538464 3:1 #
-0.76842621021335388853401582309743 1:0.289 2:0.54545456 3:1 #
0.76842621021335388853401582309743 1:0.27666667 2:0.64999998 3:1 #
-0.76842621021335388853401582309743 1:0.257 2:0.81818181 3:1 #
-0.76842621021335388853401582309743 1:0.27529413 2:0.71052629 3:1 #
0.76842621021335388853401582309743 1:0.22636363 2:0.61538464 3:1 #
-0.76842621021335388853401582309743 1:0.27900001 2:0.67567569 3:1 #
-0.76842621021335388853401582309743 1:0.28741935 2:0.5625 3:1 #
0.76842621021335388853401582309743 1:0.31052631 2:0.75 3:1 #
-0.76842621021335388853401582309743 1:0.25421053 2:0.83333331 3:1 #
0.76842621021335388853401582309743 1:0.26199999 2:0.33333334 3:1 #
-0.76842621021335388853401582309743 1:0.26217392 2:0.045454547 3:1 #
0.76842621021335388853401582309743 1:0.30411765 2:1 3:1 #
-0.76842621021335388853401582309743 1:0.22857143 2:0.9245283 3:1 #
-0.76842621021335388853401582309743 1:0.28299999 2:0.63636363 3:1 #
0.76842621021335388853401582309743 1:0.22823529 2:0.57232702 3:1 #
-0.76842621021335388853401582309743 1:0.29653847 2:0.42857143 3:1 #
0.76842621021335388853401582309743 1:0.21166667 2:0.78787881 3:1 #
-0.76842621021335388853401582309743 1:0.22173913 2:0.94736844 3:1 #
0.76842621021335388853401582309743 1:0.50384617 2:0.21875 3:1 #
0.76842621021335388853401582309743 1:0.19645162 2:1 3:1 #
-0.76842621021335388853401582309743 1:0.28846154 2:0.5 3:1 #
0.76842621021335388853401582309743 1:0.26928571 2:0.69999999 3:1 #
0.76842621021335388853401582309743 1:0.26166666 2:0.36363637 3:1 #
-0.76842621021335388853401582309743 1:0.26913044 2:0.14634146 3:1 #
-0.76842621021335388853401582309743 1:0.30357143 2:0.40000001 3:1 #
0.76842621021335388853401582309743 1:0.26458332 2:0.81818181 3:1 #
0.76842621021335388853401582309743 1:0.25684211 2:0.06666667 3:1 #
0.76842621021335388853401582309743 1:0.19821429 2:0.35714287 3:1 #
-0.76842621021335388853401582309743 1:0.094999999 2:0.25609756 3:1 #
0.76842621021335388853401582309743 1:0.34933335 2:0.84722221 3:1 #
-0.76842621021335388853401582309743 1:0.41846153 2:0.94444442 3:1 #
-0.76842621021335388853401582309743 1:0.26090908 2:0.012987013 3:1 #
-0.76842621021335388853401582309743 1:0.26857144 2:0.095238097 3:1 #
0.76842621021335388853401582309743 1:0.33757576 2:0.9512195 3:1 #
0.76842621021335388853401582309743 1:0.19705883 2:0.2 3:1 #
-0.76842621021335388853401582309743 1:0.2132 2:0.45454547 3:1 #
0.76842621021335388853401582309743 1:0.30305555 2:0.55172414 3:1 #
-0.76842621021335388853401582309743 1:0.28600001 2:0.58333331 3:1 #
