SVM-light Version V6.02
2 # kernel type
3 # kernel parameter -d 
1 # kernel parameter -g 
1 # kernel parameter -s 
1 # kernel parameter -r 
empty# kernel parameter -u 
5 # highest feature index 
21552 # number of training documents 
3997 # number of support vectors plus 1 
-0.498349 # threshold b, each following line is a SV (starting with alpha*y)
0.76745885634853905354901826285641 1:0.31812501 2:0.23636363 3:1 4:0.058928572 5:0.0025313774 #
0.76745885634853905354901826285641 1:0.2742857 2:0.25396827 3:0 4:0.023214286 5:0.0020660909 #
-0.76745885634853905354901826285641 1:0.20833333 2:0.86206895 3:1 4:0.028796297 5:0.0004955125 #
0.76745885634853905354901826285641 1:0.30500001 2:0.80000001 3:1 4:0.018819444 5:0.0012851643 #
0.76745885634853905354901826285641 1:0.17200001 2:0.60000002 3:1 4:0.050571427 5:0.0012710727 #
0.76745885634853905354901826285641 1:0.35533333 2:0.96666664 3:1 4:0.0436 5:0.0055863722 #
-0.76745885634853905354901826285641 1:0.19114286 2:0.94999999 3:1 4:0.054081634 5:0.0016499022 #
0.76745885634853905354901826285641 1:0.24117647 2:0.38095239 3:1 4:0.03392157 5:0.0011471538 #
-0.76745885634853905354901826285641 1:0.47285715 2:0.98245615 3:1 4:0.052346937 5:0.0055695032 #
0.76745885634853905354901826285641 1:0.31666666 2:0.46153846 3:1 4:0.050916668 5:0.0025831067 #
-0.76745885634853905354901826285641 1:0.57050002 2:0.18181819 3:1 4:0.0735 5:0.0029812488 #
0.76745885634853905354901826285641 1:0.28916666 2:0.89999998 3:1 4:0.03675 5:0.0065137977 #
-0.76745885634853905354901826285641 1:0.19400001 2:0.96363634 3:1 4:0.023071429 5:0.0031401315 #
0.76745885634853905354901826285641 1:0.54500002 2:0.22580644 3:1 4:0.049899999 5:0.0054070149 #
-0.76745885634853905354901826285641 1:0.53100002 2:0.76190478 3:1 4:0.036400001 5:0.0025698619 #
0.76745885634853905354901826285641 1:0.40714285 2:0.044444446 3:0 4:0.043673471 5:0.010069461 #
-0.33892872586726258132827638291928 1:0.46611112 2:0.46666667 3:1 4:0.057416666 5:0.0023289442 #
-0.76745885634853905354901826285641 1:0.43714285 2:0.032258064 3:0 4:0.043714285 5:0.00050006114 #
0.76745885634853905354901826285641 1:0.19352941 2:0.875 3:1 4:0.049647059 5:0.0014913165 #
-0.76745885634853905354901826285641 1:0.54454547 2:0.58823532 3:1 4:0.043545455 5:0.0024306495 #
0.76745885634853905354901826285641 1:0.39111111 2:0.93814433 3:0 4:0.051574074 5:0.0027506358 #
-0.76745885634853905354901826285641 1:0.34333333 2:1 3:0 4:0.048333332 5:0.0037492819 #
0.76745885634853905354901826285641 1:0.31176472 2:0.22857143 3:1 4:0.034852941 5:0.0019025212 #
-0.76744134191972168679285459802486 1:0.26205882 2:0.024390243 3:1 4:0.033941176 5:0.0024695771 #
0.76745885634853905354901826285641 1:0.94999999 2:0.64705884 3:0 4:0.0735 5:0.035233852 #
-0.76745885634853905354901826285641 1:0.495 2:0.55172414 3:0 4:0.087750003 5:0.035882115 #
0.76745885634853905354901826285641 1:0.46823528 2:0.2857143 3:1 4:0.068588234 5:0.0032090179 #
-0.76745885634853905354901826285641 1:0.78416669 2:0.23999999 3:1 4:0.046309523 5:0.002180456 #
0.76745885634853905354901826285641 1:0.25777778 2:0.5 3:0 4:0.037129629 5:0.0010148971 #
-0.76745885634853905354901826285641 1:0.42500001 2:0.55172414 3:0 4:0.087750003 5:0.035882115 #
0.76745885634853905354901826285641 1:0.28999999 2:0.14285715 3:1 4:0.035897437 5:0.0019631973 #
-0.23452176784412528953716048363276 1:0.12185185 2:0.025974026 3:1 4:0.016080247 5:0.00015722623 #
0.76745885634853905354901826285641 1:0.34999999 2:0.80000001 3:0 4:0.023250001 5:0.0042956029 #
-0.76745885634853905354901826285641 1:0.39500001 2:0.85714287 3:0 4:0.060357142 5:0.0010535624 #
0.76745885634853905354901826285641 1:0.26300001 2:0.62857145 3:1 4:0.036416668 5:0.0018711369 #
-0.76745885634853905354901826285641 1:0.2381579 2:0.66666669 3:1 4:0.028969299 5:0.0005376683 #
0.76745885634853905354901826285641 1:0.33250001 2:0.69999999 3:0 4:0.057124998 5:0.0097457599 #
-0.76745885634853905354901826285641 1:0.35666665 2:0.71428573 3:0 4:0.010333333 5:0.00056132674 #
0.76745885634853905354901826285641 1:0.43642858 2:0.66666669 3:1 4:0.047440477 5:0.0045817876 #
-0.76745885634853905354901826285641 1:0.40925926 2:0.66666669 3:1 4:0.07767196 5:0.0037632077 #
0.76745885634853905354901826285641 1:0.33375001 2:0.375 3:0 4:0.047142856 5:0.0087960875 #
-0.76745885634853905354901826285641 1:0.3125 2:0.41666666 3:0 4:0.0091071427 5:0.00025709806 #
0.76745885634853905354901826285641 1:0.22882353 2:0.80952382 3:1 4:0.037843138 5:0.0011188792 #
-0.76745885634853905354901826285641 1:0.24862069 2:0.83116883 3:1 4:0.01962069 5:0.002389834 #
0.76745885634853905354901826285641 1:0.36833334 2:0.60000002 3:0 4:0.07 5:0.0040330221 #
-0.76745885634853905354901826285641 1:0.38111112 2:0.5 3:0 4:0.05111111 5:0.0022444013 #
0.76745885634853905354901826285641 1:0.36428571 2:0.85714287 3:1 4:0.024047619 5:0.0016216587 #
-0.76745885634853905354901826285641 1:0.34812501 2:0.8888889 3:1 4:0.043214284 5:0.0018542368 #
0.76745885634853905354901826285641 1:0.46529412 2:0.18181819 3:1 4:0.053529412 5:0.0026725573 #
-0.76745885634853905354901826285641 1:0.43799999 2:0.22222222 3:1 4:0.068466663 5:0.0054360116 #
0.76745885634853905354901826285641 1:0.27571428 2:1 3:1 4:0.073285714 5:0.0028919426 #
-0.76745885634853905354901826285641 1:0.29114285 2:1 3:1 4:0.065771431 5:0.002166746 #
0.76745885634853905354901826285641 1:0.30894735 2:0.5 3:1 4:0.030631579 5:0.0023896487 #
-0.76745885634853905354901826285641 1:0.32185185 2:0.46000001 3:1 4:0.015370371 5:0.0022044077 #
0.76745885634853905354901826285641 1:0.31833333 2:1 3:1 4:0.060555555 5:0.0052937195 #
-0.76745885634853905354901826285641 1:0.36000001 2:1 3:1 4:0.059880953 5:0.0021482112 #
0.76745885634853905354901826285641 1:0.31944445 2:0.14285715 3:1 4:0.078722224 5:0.0053339931 #
-0.76745885634853905354901826285641 1:0.38272727 2:0.02631579 3:1 4:0.073454544 5:0.0013765612 #
0.76745885634853905354901826285641 1:0.46173912 2:1 3:1 4:0.090186335 5:0.005598098 #
-0.76745885634853905354901826285641 1:0.37200001 2:0.97560978 3:1 4:0.067450002 5:0.0040523931 #
0.76745885634853905354901826285641 1:0.31583333 2:0.11428571 3:1 4:0.060138889 5:0.0018140816 #
-0.76745885634853905354901826285641 1:0.33384615 2:0.06666667 3:1 4:0.065461539 5:0.0046714554 #
0.76745885634853905354901826285641 1:0.33352941 2:0.85714287 3:1 4:0.058470588 5:0.0029109686 #
-0.76745885634853905354901826285641 1:0.40461537 2:0.93055558 3:1 4:0.074000001 5:0.0045428993 #
0.76745885634853905354901826285641 1:0.51999998 2:0.34999999 3:1 4:0.062181819 5:0.0024796033 #
-0.76745885634853905354901826285641 1:0.51521736 2:0.35714287 3:1 4:0.058086958 5:0.0012118497 #
0.76745885634853905354901826285641 1:0.25166667 2:1 3:1 4:0.051541667 5:0.0045899213 #
-0.76745885634853905354901826285641 1:0.25 2:0.97619045 3:1 4:0.060666665 5:0.003785966 #
0.76745885634853905354901826285641 1:0.62699997 2:0.45454547 3:1 4:0.063285716 5:0.010125143 #
-0.76745885634853905354901826285641 1:0.60409093 2:0.44444445 3:1 4:0.052922077 5:0.0018106066 #
0.76745885634853905354901826285641 1:0.46529412 2:0.66666669 3:1 4:0.053529412 5:0.0026725573 #
-0.76745885634853905354901826285641 1:0.47999999 2:0.61904764 3:1 4:0.037 5:0.0011225069 #
0.76745885634853905354901826285641 1:0.26714286 2:0.5714286 3:1 4:0.024047619 5:0.0011205302 #
-0.76745885634853905354901826285641 1:0.25913045 2:0.54166669 3:1 4:0.064999998 5:0.0047511822 #
0.76745885634853905354901826285641 1:0.48480001 2:0.18421052 3:1 4:0.04324 5:0.0035995478 #
-0.76745885634853905354901826285641 1:0.47999999 2:0.21428572 3:1 4:0.037 5:0.0011225069 #
0.76745885634853905354901826285641 1:0.50954545 2:0.94444442 3:1 4:0.057999998 5:0.0085258707 #
-0.76745885634853905354901826285641 1:0.36121953 2:0.98000002 3:1 4:0.048252031 5:0.0021662163 #
0.76745885634853905354901826285641 1:0.36666667 2:0.03846154 3:1 4:0.031714287 5:0.0054171374 #
-0.76745885634853905354901826285641 1:0.41894737 2:0.055555556 3:1 4:0.033157896 5:0.0016205612 #
0.76745885634853905354901826285641 1:0.42533332 2:0.875 3:1 4:0.029666666 5:0.0018240324 #
-0.76745885634853905354901826285641 1:0.41540539 2:0.83333331 3:1 4:0.027413128 5:0.0017295808 #
0.76745885634853905354901826285641 1:0.24062499 2:0.40000001 3:1 4:0.050562501 5:0.002181669 #
-0.76745885634853905354901826285641 1:0.30076924 2:0.42105263 3:1 4:0.073736265 5:0.0047237836 #
0.76745885634853905354901826285641 1:0.43599999 2:0.77777779 3:1 4:0.032857142 5:0.0023639665 #
0.76745885634853905354901826285641 1:0.16518518 2:0.02631579 3:1 4:0.062740743 5:0.0031819865 #
-0.76745885634853905354901826285641 1:0.51521736 2:0.71428573 3:1 4:0.058086958 5:0.0012118497 #
-0.76745885634853905354901826285641 1:0.10714286 2:0.010752688 3:1 4:0.025666667 5:0.00051884167 #
0.76745885634853905354901826285641 1:0.46923077 2:0.87179488 3:1 4:0.03476923 5:0.0040988838 #
-0.76745885634853905354901826285641 1:0.34357142 2:0.9375 3:1 4:0.044183675 5:0.003671705 #
0.76745885634853905354901826285641 1:0.13124999 2:0.25 3:1 4:0.054375 5:0.0010752549 #
-0.76745885634853905354901826285641 1:0.18894736 2:0.24390244 3:1 4:0.070684209 5:0.0040520476 #
0.76745885634853905354901826285641 1:0.260625 2:1 3:1 4:0.068374999 5:0.0037018694 #
-0.76745885634853905354901826285641 1:0.32966667 2:1 3:1 4:0.054238096 5:0.003561826 #
0.76745885634853905354901826285641 1:0.42222223 2:0.33333334 3:1 4:0.068499997 5:0.0030878379 #
-0.76745885634853905354901826285641 1:0.53100002 2:0.70588237 3:1 4:0.036400001 5:0.0025698619 #
0.76745885634853905354901826285641 1:0.49416667 2:0.51219511 3:1 4:0.097499996 5:0.008673531 #
-0.76745885634853905354901826285641 1:0.39565217 2:0.35714287 3:1 4:0.056956522 5:0.0055289301 #
0.76745885634853905354901826285641 1:0.28066668 2:0.77777779 3:1 4:0.042555556 5:0.00084687764 #
-0.76745885634853905354901826285641 1:0.27684212 2:0.60000002 3:1 4:0.081879698 5:0.0045674685 #
0.76745885634853905354901826285641 1:0.48909092 2:0.42857143 3:1 4:0.07030303 5:0.0037385605 #
-0.76745885634853905354901826285641 1:0.47999999 2:0.42857143 3:1 4:0.037 5:0.0011225069 #
0.76745885634853905354901826285641 1:0.30363637 2:1 3:1 4:0.082597405 5:0.0043599214 #
-0.76745885634853905354901826285641 1:0.32857144 2:1 3:1 4:0.054619048 5:0.0016321333 #
0.76745885634853905354901826285641 1:0.42052633 2:0.11538462 3:1 4:0.052706767 5:0.0026156963 #
-0.76745885634853905354901826285641 1:0.41363636 2:0.043478262 3:1 4:0.086623378 5:0.002219738 #
0.76745885634853905354901826285641 1:0.34066668 2:1 3:1 4:0.069466665 5:0.0070021939 #
-0.76745885634853905354901826285641 1:0.30526316 2:1 3:1 4:0.053684212 5:0.0031536086 #
0.76745885634853905354901826285641 1:0.23975609 2:0.125 3:1 4:0.050243903 5:0.0017151718 #
-0.76745885634853905354901826285641 1:0.2482353 2:0.15000001 3:1 4:0.068647057 5:0.0039081261 #
0.76745885634853905354901826285641 1:0.30769232 2:0.95555556 3:1 4:0.04142857 5:0.0062341578 #
-0.76745885634853905354901826285641 1:0.33384615 2:0.95238096 3:1 4:0.047802199 5:0.0028909685 #
0.76745885634853905354901826285641 1:0.245 2:0.42857143 3:1 4:0.022500001 5:0.00103858 #
-0.76745885634853905354901826285641 1:0.25962964 2:0.40909091 3:1 4:0.044703703 5:0.010421749 #
0.76745885634853905354901826285641 1:0.30916667 2:0.5714286 3:1 4:0.070416667 5:0.0077686431 #
-0.76745885634853905354901826285641 1:0.34666666 2:0.6100629 3:0 4:0.039722223 5:0.00079771661 #
0.76745885634853905354901826285641 1:0.23285714 2:0.43333334 3:1 4:0.02952381 5:0.0012855841 #
-0.76745885634853905354901826285641 1:0.27615383 2:0.5 3:1 4:0.069461539 5:0.0026836616 #
0.76745885634853905354901826285641 1:0.255 2:0.38961038 3:0 4:0.062916666 5:0.0034939025 #
-0.76745885634853905354901826285641 1:0.21600001 2:0.62962961 3:1 4:0.058200002 5:0.0014102202 #
0.76745885634853905354901826285641 1:0.330625 2:0.65517241 3:1 4:0.01953125 5:0.0010922923 #
-0.76745885634853905354901826285641 1:0.34846154 2:0.6388889 3:1 4:0.016858974 5:0.00054429029 #
0.76745885634853905354901826285641 1:0.32571429 2:0.14285715 3:0 4:0.066142857 5:0.003366485 #
-0.76745885634853905354901826285641 1:0.43714285 2:0.125 3:0 4:0.043714285 5:0.00050006114 #
0.76745885634853905354901826285641 1:0.40416667 2:0.55555558 3:1 4:0.028928572 5:0.0026118143 #
-0.76745885634853905354901826285641 1:0.3661111 2:0.57575756 3:1 4:0.047301587 5:0.0021978989 #
0.76745885634853905354901826285641 1:0.32571429 2:0.16666667 3:0 4:0.066142857 5:0.003366485 #
-0.76745885634853905354901826285641 1:0.27857143 2:0.26666668 3:0 4:0.069714285 5:0.0033098562 #
0.76745885634853905354901826285641 1:0.18944444 2:0.5 3:1 4:0.036574073 5:0.0015194066 #
-0.76745885634853905354901826285641 1:0.28279999 2:0.54545456 3:1 4:0.040228572 5:0.001344268 #
0.76745885634853905354901826285641 1:0.41 2:0.55555558 3:0 4:0.033 5:0.00083074142 #
-0.76745885634853905354901826285641 1:0.43625 2:0.47368422 3:0 4:0.093500003 5:0.0073495088 #
0.76745885634853905354901826285641 1:0.44928572 2:0.46875 3:1 4:0.047040816 5:0.0069034598 #
-0.76745885634853905354901826285641 1:0.38481483 2:0.47619048 3:1 4:0.049592592 5:0.0013539385 #
0.76745885634853905354901826285641 1:0.21333334 2:0.375 3:0 4:0.077142857 5:0.0016723464 #
-0.76745885634853905354901826285641 1:0.32210526 2:0.5 3:1 4:0.028991228 5:0.0017326642 #
0.76745885634853905354901826285641 1:0.27454546 2:0.46666667 3:1 4:0.02987013 5:0.0063927365 #
-0.76745885634853905354901826285641 1:0.26048779 2:0.46341464 3:1 4:0.022585366 5:0.00058084889 #
0.76745885634853905354901826285641 1:0.52200001 2:0.80645162 3:1 4:0.0603 5:0.0092464453 #
-0.76745885634853905354901826285641 1:0.78416669 2:0.73333335 3:1 4:0.046309523 5:0.002180456 #
0.76745885634853905354901826285641 1:0.18478261 2:0.2857143 3:1 4:0.033869565 5:0.00098186778 #
0.76745885634853905354901826285641 1:0.35800001 2:0.61904764 3:1 4:0.040266667 5:0.0042397664 #
0.76745885634853905354901826285641 1:0.47799999 2:0.9375 3:1 4:0.085199997 5:0.0032918684 #
-0.76745885634853905354901826285641 1:0.33533335 2:0.94 3:1 4:0.056722224 5:0.0055234754 #
0.76745885634853905354901826285641 1:0.32449999 2:0.03846154 3:1 4:0.047125001 5:0.0013807649 #
-0.76745885634853905354901826285641 1:0.31111112 2:0.090909094 3:1 4:0.039047617 5:0.0026057218 #
0.76745885634853905354901826285641 1:0.26225805 2:0.93023258 3:1 4:0.052870966 5:0.0042212168 #
-0.76745885634853905354901826285641 1:0.29121211 2:1 3:1 4:0.047151513 5:0.0016608638 #
0.76745885634853905354901826285641 1:0.24166666 2:0.31578946 3:1 4:0.031666666 5:0.0026840274 #
-0.76745885634853905354901826285641 1:0.29785714 2:0.32258064 3:1 4:0.034214284 5:0.0093307476 #
0.76745885634853905354901826285641 1:0.40882352 2:0.8888889 3:1 4:0.030882353 5:0.0034563281 #
-0.76745885634853905354901826285641 1:0.35538462 2:0.875 3:1 4:0.052967034 5:0.0027244079 #
0.76745885634853905354901826285641 1:0.330625 2:0.47619048 3:1 4:0.01953125 5:0.0010922923 #
-0.76745885634853905354901826285641 1:0.27909091 2:0.41463414 3:1 4:0.021454545 5:0.0057408838 #
0.76745885634853905354901826285641 1:0.35238096 2:0.74074072 3:1 4:0.065238096 5:0.0027664041 #
-0.76745885634853905354901826285641 1:0.40909091 2:0.78048778 3:1 4:0.082727276 5:0.0035786245 #
0.76745885634853905354901826285641 1:0.44346154 2:0.16666667 3:1 4:0.063730769 5:0.0051602474 #
-0.76745885634853905354901826285641 1:0.37875 2:0.25999999 3:1 4:0.019166667 5:0.0021290011 #
0.76745885634853905354901826285641 1:0.17526315 2:0.85714287 3:1 4:0.032192983 5:0.00081724836 #
-0.76745885634853905354901826285641 1:0.26846153 2:0.96774191 3:1 4:0.078000002 5:0.0099731544 #
0.76745885634853905354901826285641 1:0.32449999 2:0.13636364 3:1 4:0.047125001 5:0.0013807649 #
-0.76745885634853905354901826285641 1:0.264375 2:0.12307692 3:1 4:0.04775 5:0.0026711831 #
0.76745885634853905354901826285641 1:0.42458335 2:1 3:1 4:0.087678574 5:0.0052924925 #
-0.76745885634853905354901826285641 1:0.28488889 2:1 3:1 4:0.04671111 5:0.0010997204 #
0.76745885634853905354901826285641 1:0.34333333 2:0.13636364 3:1 4:0.026095238 5:0.0024723497 #
-0.76745885634853905354901826285641 1:0.375 2:0.14814815 3:1 4:0.033285715 5:0.0011747106 #
0.76745885634853905354901826285641 1:0.18260869 2:0.89999998 3:1 4:0.043586958 5:0.0013620141 #
-0.76745885634853905354901826285641 1:0.27923077 2:0.96774191 3:1 4:0.078000002 5:0.0099731544 #
0.76745885634853905354901826285641 1:0.31156251 2:0.13157895 3:1 4:0.0324375 5:0.0022626631 #
-0.76745885634853905354901826285641 1:0.30559999 2:0.125 3:1 4:0.041359998 5:0.0016005005 #
0.76745885634853905354901826285641 1:0.22695652 2:1 3:1 4:0.079391301 5:0.0033720469 #
-0.76745885634853905354901826285641 1:0.219375 2:1 3:1 4:0.069750004 5:0.001639337 #
0.76745885634853905354901826285641 1:0.19499999 2:0.15789473 3:1 4:0.043099999 5:0.002962091 #
0.76745885634853905354901826285641 1:0.19190477 2:0.11363637 3:1 4:0.03357143 5:0.00052730186 #
0.76745885634853905354901826285641 1:0.32612902 2:0.84126985 3:1 4:0.03954301 5:0.0015380366 #
-0.76745885634853905354901826285641 1:0.31594595 2:0.80645162 3:1 4:0.0484556 5:0.0037026713 #
0.76745885634853905354901826285641 1:0.30423078 2:0.11111111 3:1 4:0.029038461 5:0.0017360862 #
-0.76745885634853905354901826285641 1:0.2904762 2:0.12727273 3:1 4:0.047755104 5:0.0043220404 #
0.76745885634853905354901826285641 1:0.30535713 2:1 3:1 4:0.083520405 5:0.0049012261 #
-0.76745885634853905354901826285641 1:0.28777778 2:0.97777778 3:1 4:0.053015873 5:0.0024952658 #
0.76745885634853905354901826285641 1:0.38833332 2:0.1 3:1 4:0.059833333 5:0.0018357871 #
-0.76745885634853905354901826285641 1:0.38066667 2:0.071428575 3:1 4:0.056333333 5:0.001940637 #
0.76745885634853905354901826285641 1:0.18833333 2:0.86666667 3:1 4:0.062916666 5:0.0033752511 #
-0.76745885634853905354901826285641 1:0.22555555 2:0.91111112 3:1 4:0.079598762 5:0.002210574 #
0.76745885634853905354901826285641 1:0.25999999 2:0.6226415 3:1 4:0.026444444 5:0.0010331782 #
-0.76745885634853905354901826285641 1:0.30058825 2:0.47619048 3:1 4:0.027647059 5:0.0019316996 #
0.76745885634853905354901826285641 1:0.2485 2:0.71428573 3:1 4:0.045333333 5:0.0012577065 #
-0.76745885634853905354901826285641 1:0.27125001 2:0.70175439 3:1 4:0.039702382 5:0.0028332646 #
0.76745885634853905354901826285641 1:0.46250001 2:0.075000003 3:0 4:0.085535713 5:0.013223467 #
-0.76745885634853905354901826285641 1:0.44 2:0.17391305 3:0 4:0.041999999 5:0.016611353 #
0.76745885634853905354901826285641 1:0.20852941 2:0.60000002 3:1 4:0.040058825 5:0.0017144476 #
-0.59106088276109336465680144101498 1:0.20588236 2:0.3125 3:1 4:0.053865544 5:0.0014406402 #
0.76745885634853905354901826285641 1:0.45076925 2:0.83870965 3:1 4:0.036923077 5:0.0031513916 #
-0.76745885634853905354901826285641 1:0.36759999 2:0.81818181 3:1 4:0.052857142 5:0.00289209 #
0.76745885634853905354901826285641 1:0.31666666 2:0.125 3:1 4:0.054249998 5:0.0025146287 #
-0.76745885634853905354901826285641 1:0.38 2:0.10526316 3:1 4:0.078199998 5:0.0045808284 #
0.76745885634853905354901826285641 1:0.2976923 2:1 3:1 4:0.062153846 5:0.0027459569 #
-0.76745885634853905354901826285641 1:0.3009091 2:0.96551722 3:1 4:0.023506494 5:0.0030642091 #
0.76745885634853905354901826285641 1:0.48344827 2:0.16666667 3:1 4:0.073241383 5:0.0037187163 #
-0.76745885634853905354901826285641 1:0.45785713 2:0.2173913 3:1 4:0.092 5:0.0051251054 #
0.76745885634853905354901826285641 1:0.22714286 2:1 3:1 4:0.058849208 5:0.0023299083 #
-0.76745885634853905354901826285641 1:0.25090909 2:1 3:1 4:0.058969695 5:0.0016841724 #
0.76745885634853905354901826285641 1:0.41479999 2:0.31707317 3:1 4:0.047079999 5:0.0033084122 #
-0.76745885634853905354901826285641 1:0.42212123 2:0.27272728 3:1 4:0.028181817 5:0.001888699 #
0.76745885634853905354901826285641 1:0.44965518 2:1 3:1 4:0.076724134 5:0.0039207968 #
-0.76745885634853905354901826285641 1:0.34812501 2:0.91891891 3:1 4:0.043214284 5:0.0018542368 #
0.76745885634853905354901826285641 1:0.25999999 2:0.045454547 3:0 4:0.077500001 5:0.0041971421 #
0.76745885634853905354901826285641 1:0.28299999 2:0.66666669 3:1 4:0.0495 5:0.0027053028 #
0.76745885634853905354901826285641 1:0.205 2:0.64150941 3:1 4:0.033988096 5:0.001124977 #
-0.76745885634853905354901826285641 1:0.30363637 2:0.73333335 3:1 4:0.074000001 5:0.0022568908 #
0.76745885634853905354901826285641 1:0.46000001 2:0.06818182 3:0 4:0.092833333 5:0.0083901947 #
-0.76745885634853905354901826285641 1:0.51999998 2:0.05882353 3:0 4:0.1125 5:0.0028657687 #
0.76745885634853905354901826285641 1:0.2956 2:0.88333333 3:1 4:0.030466666 5:0.0016611415 #
-0.76745885634853905354901826285641 1:0.32941177 2:0.91379309 3:1 4:0.053941175 5:0.0090792589 #
0.76745885634853905354901826285641 1:0.40833333 2:0.25 3:1 4:0.046 5:0.0043444033 #
-0.76745885634853905354901826285641 1:0.34058824 2:0.2 3:1 4:0.02964706 5:0.0020156018 #
0.76745885634853905354901826285641 1:0.485625 2:1 3:1 4:0.054241072 5:0.0054116622 #
-0.76745885634853905354901826285641 1:0.31615385 2:0.94444442 3:1 4:0.042153846 5:0.0043493011 #
0.76745885634853905354901826285641 1:0.18000001 2:0.125 3:1 4:0.071041666 5:0.0031839705 #
-0.76745885634853905354901826285641 1:0.28117648 2:0.097560972 3:1 4:0.074705884 5:0.0037995214 #
0.76745885634853905354901826285641 1:0.41850001 2:0.84375 3:1 4:0.08685714 5:0.0079868147 #
-0.76745885634853905354901826285641 1:0.36000001 2:0.82857144 3:1 4:0.059880953 5:0.0021482112 #
0.76745885634853905354901826285641 1:0.33071429 2:0.083333336 3:1 4:0.047244899 5:0.004975908 #
-0.76745885634853905354901826285641 1:0.36714286 2:0.080645159 3:1 4:0.046666667 5:0.0055536279 #
0.76745885634853905354901826285641 1:0.42550001 2:1 3:1 4:0.067857146 5:0.002808647 #
-0.76745885634853905354901826285641 1:0.32210526 2:0.90909094 3:1 4:0.079022557 5:0.0026126439 #
0.76745885634853905354901826285641 1:0.3524 2:0.14285715 3:1 4:0.035599999 5:0.0030049793 #
-0.76745885634853905354901826285641 1:0.41600001 2:0.1 3:1 4:0.042571429 5:0.0030510309 #
0.76745885634853905354901826285641 1:0.18777777 2:0.875 3:1 4:0.059876543 5:0.0015272381 #
-0.76745885634853905354901826285641 1:0.28666666 2:0.96666664 3:1 4:0.08238095 5:0.0023923377 #
0.76745885634853905354901826285641 1:0.42199999 2:0.25641027 3:1 4:0.06735 5:0.0033261613 #
-0.76745885634853905354901826285641 1:0.40099999 2:0.31818181 3:1 4:0.059500001 5:0.0046501271 #
0.76745885634853905354901826285641 1:0.37846154 2:0.97959185 3:1 4:0.062197801 5:0.0061669666 #
-0.76745885634853905354901826285641 1:0.31058824 2:0.94117647 3:1 4:0.026386555 5:0.00062891567 #
0.76745885634853905354901826285641 1:0.34999999 2:0.33333334 3:1 4:0.074600004 5:0.0035930586 #
-0.76745885634853905354901826285641 1:0.35764706 2:0.33333334 3:1 4:0.063529409 5:0.0016560617 #
0.76745885634853905354901826285641 1:0.17366667 2:0.90196079 3:1 4:0.024611112 5:0.0012933633 #
-0.76745885634853905354901826285641 1:0.28961539 2:0.97058821 3:1 4:0.044395603 5:0.0012697937 #
0.76745885634853905354901826285641 1:0.50690478 2:0.25 3:1 4:0.050857142 5:0.005099209 #
-0.76745885634853905354901826285641 1:0.45785713 2:0.23809524 3:1 4:0.092 5:0.0051251054 #
0.76745885634853905354901826285641 1:0.28210527 2:0.80769229 3:1 4:0.038421053 5:0.0013408202 #
-0.76745885634853905354901826285641 1:0.34647059 2:0.83999997 3:1 4:0.031960785 5:0.0059185335 #
0.76745885634853905354901826285641 1:0.28 2:0.71428573 3:0 4:0.073250003 5:0.0031837809 #
-0.76745885634853905354901826285641 1:0.23777778 2:0.21428572 3:1 4:0.036851853 5:0.00069514953 #
0.76745885634853905354901826285641 1:0.46043479 2:0.73170733 3:1 4:0.031695653 5:0.0040976233 #
-0.76745885634853905354901826285641 1:0.54454547 2:0.66666669 3:1 4:0.043545455 5:0.0024306495 #
0.76745885634853905354901826285641 1:0.24217391 2:0.5625 3:1 4:0.052521739 5:0.0046659131 #
0.76745885634853905354901826285641 1:0.36571428 2:0.44444445 3:1 4:0.10035715 5:0.0028874232 #
0.76745885634853905354901826285641 1:0.51058823 2:0.90769231 3:1 4:0.070294119 5:0.0080353664 #
-0.76745885634853905354901826285641 1:0.32432431 2:0.90909094 3:1 4:0.052586872 5:0.0028218355 #
0.76745885634853905354901826285641 1:0.25238097 2:0.047619049 3:1 4:0.037142858 5:0.0015588979 #
-0.40881177994987977220020525237487 1:0.24588235 2:0.016949153 3:1 4:0.045882352 5:0.0048517357 #
0.76745885634853905354901826285641 1:0.41517243 2:1 3:1 4:0.049359605 5:0.003396828 #
-0.76745885634853905354901826285641 1:0.38777778 2:0.96363634 3:1 4:0.053904761 5:0.004171697 #
0.76745885634853905354901826285641 1:0.27243245 2:0.16666667 3:1 4:0.063310809 5:0.0021755756 #
-0.76745885634853905354901826285641 1:0.33388889 2:0.19047619 3:1 4:0.063888893 5:0.0048929569 #
0.76745885634853905354901826285641 1:0.19347826 2:0.90476191 3:1 4:0.033224639 5:0.0019593486 #
-0.76745885634853905354901826285641 1:0.31434783 2:0.92307693 3:1 4:0.072521739 5:0.0041212598 #
0.76745885634853905354901826285641 1:0.44666666 2:0.3125 3:1 4:0.048047621 5:0.003381673 #
-0.76745885634853905354901826285641 1:0.38583332 2:0.29268292 3:1 4:0.029750001 5:0.0023183851 #
0.76745885634853905354901826285641 1:0.40423077 2:1 3:1 4:0.057417583 5:0.0053619193 #
-0.76745885634853905354901826285641 1:0.30199999 2:0.9285714 3:1 4:0.059799999 5:0.002949575 #
0.76745885634853905354901826285641 1:0.35642856 2:0.15384616 3:1 4:0.0495 5:0.0034082783 #
-0.76745885634853905354901826285641 1:0.36823529 2:0.16666667 3:1 4:0.05327731 5:0.0052570938 #
0.76745885634853905354901826285641 1:0.23823529 2:0.88235295 3:1 4:0.061092436 5:0.0034049302 #
-0.76745885634853905354901826285641 1:0.30588236 2:0.91666669 3:1 4:0.049117647 5:0.0031828948 #
0.76745885634853905354901826285641 1:0.33565217 2:0.07692308 3:1 4:0.025688406 5:0.0011322001 #
-0.76745885634853905354901826285641 1:0.21857142 2:0.74358976 3:1 4:0.03255102 5:0.0022534069 #
0.76745885634853905354901826285641 1:0.28560001 2:0.73333335 3:1 4:0.049142856 5:0.0038497879 #
-0.76745885634853905354901826285641 1:0.39107144 2:0.76190478 3:1 4:0.047821429 5:0.0013055835 #
0.76745885634853905354901826285641 1:0.51428574 2:0.22222222 3:0 4:0.058142856 5:0.0082585467 #
-0.76745885634853905354901826285641 1:0.55222225 2:0.2857143 3:0 4:0.046 5:0.0029227319 #
0.76745885634853905354901826285641 1:0.385625 2:0.65384614 3:1 4:0.050982144 5:0.0088806711 #
-0.76745885634853905354901826285641 1:0.398 2:0.71428573 3:1 4:0.0394 5:0.0058050002 #
0.76745885634853905354901826285641 1:0.22125 2:0.36666667 3:0 4:0.036249999 5:0.0021633161 #
0.76745885634853905354901826285641 1:0.19666667 2:0.35294119 3:0 4:0.065444447 5:0.0036229531 #
0.76745885634853905354901826285641 1:0.43724138 2:0.69999999 3:1 4:0.080655172 5:0.0033630596 #
-0.76745885634853905354901826285641 1:0.51521736 2:0.64705884 3:1 4:0.058086958 5:0.0012118497 #
0.76745885634853905354901826285641 1:0.22809523 2:0.61538464 3:1 4:0.071999997 5:0.0026025458 #
-0.76745885634853905354901826285641 1:0.20269231 2:0.63157892 3:1 4:0.087115385 5:0.0024453918 #
0.76745885634853905354901826285641 1:0.43735296 2:0.62 3:1 4:0.045323528 5:0.0033268323 #
-0.76745885634853905354901826285641 1:0.51499999 2:0.61904764 3:1 4:0.050944444 5:0.0011134421 #
0.76745885634853905354901826285641 1:0.15177777 2:0.625 3:1 4:0.028222222 5:0.0009823232 #
0.76745885634853905354901826285641 1:0.34999999 2:0.2 3:1 4:0.053541668 5:0.002491365 #
0.76745885634853905354901826285641 1:0.48966667 2:1 3:1 4:0.05109524 5:0.0054785935 #
-0.76745885634853905354901826285641 1:0.29421052 2:0.93103451 3:1 4:0.078421056 5:0.0080065643 #
0.76745885634853905354901826285641 1:0.21555555 2:0.05882353 3:1 4:0.055166665 5:0.0034715196 #
-0.76745885634853905354901826285641 1:0.21558824 2:0.75268817 3:1 4:0.032735296 5:0.0067721852 #
0.76745885634853905354901826285641 1:0.2878125 2:0.86363637 3:1 4:0.058660716 5:0.0036516506 #
-0.76745885634853905354901826285641 1:0.33399999 2:0.85294116 3:1 4:0.045714285 5:0.0017151213 #
0.76745885634853905354901826285641 1:0.30424243 2:0.090909094 3:1 4:0.059621211 5:0.0033780287 #
-0.76745885634853905354901826285641 1:0.32391304 2:0.11428571 3:1 4:0.061231885 5:0.0041959779 #
0.76745885634853905354901826285641 1:0.34516129 2:0.83333331 3:1 4:0.034285713 5:0.0024282017 #
-0.76745885634853905354901826285641 1:0.33399999 2:0.84848487 3:1 4:0.045714285 5:0.0017151213 #
0.76745885634853905354901826285641 1:0.33937499 2:0.44871795 3:1 4:0.028802084 5:0.0045482414 #
-0.76745885634853905354901826285641 1:0.51499999 2:0.60869563 3:1 4:0.050944444 5:0.0011134421 #
0.76745885634853905354901826285641 1:0.30909091 2:0.66666669 3:1 4:0.043181818 5:0.0022285799 #
-0.76745885634853905354901826285641 1:0.47999999 2:0.52941179 3:1 4:0.037 5:0.0011225069 #
0.76745885634853905354901826285641 1:0.32588235 2:0.60000002 3:1 4:0.056705881 5:0.0035014618 #
-0.76745885634853905354901826285641 1:0.25125 2:0.83333331 3:1 4:0.052812502 5:0.0032564243 #
0.76745885634853905354901826285641 1:0.49363637 2:0.8888889 3:1 4:0.069181815 5:0.0031885835 #
-0.76745885634853905354901826285641 1:0.30958334 2:0.90909094 3:1 4:0.04220238 5:0.0037306305 #
0.76745885634853905354901826285641 1:0.30173913 2:0.03125 3:1 4:0.047329191 5:0.0039020104 #
-0.76745885634853905354901826285641 1:0.29363635 2:0.033333335 3:1 4:0.089909092 5:0.0015820187 #
0.76745885634853905354901826285641 1:0.12947369 2:0.85714287 3:1 4:0.038421053 5:0.0021796776 #
-0.76745885634853905354901826285641 1:0.31954545 2:0.88461536 3:1 4:0.034454547 5:0.0016646804 #
0.76745885634853905354901826285641 1:0.48473683 2:0.16666667 3:1 4:0.074736841 5:0.0025494781 #
-0.76745885634853905354901826285641 1:0.36631578 2:0.17647059 3:1 4:0.051473685 5:0.0053594522 #
0.76745885634853905354901826285641 1:0.41666666 2:0.97222221 3:1 4:0.046833333 5:0.0041327248 #
-0.76745885634853905354901826285641 1:0.29866666 2:0.91666669 3:1 4:0.066 5:0.0028703683 #
0.76745885634853905354901826285641 1:0.14428571 2:0.2857143 3:1 4:0.049246032 5:0.0013798117 #
-0.76745885634853905354901826285641 1:0.22666667 2:0.27777779 3:1 4:0.056285713 5:0.0056303926 #
0.76745885634853905354901826285641 1:0.36470589 2:0.88571429 3:1 4:0.089176469 5:0.0027522803 #
-0.76745885634853905354901826285641 1:0.32078949 2:0.8611111 3:1 4:0.077828944 5:0.0027688739 #
0.76745885634853905354901826285641 1:0.28533334 2:0.047619049 3:1 4:0.02695238 5:0.002333245 #
0.76745885634853905354901826285641 1:0.38249999 2:0.72727275 3:1 4:0.059833333 5:0.0018357871 #
-0.76745885634853905354901826285641 1:0.28375 2:0.033333335 3:1 4:0.044374999 5:0.0032111162 #
-0.76745885634853905354901826285641 1:0.2965 2:0.071428575 3:1 4:0.0407 5:0.0040609324 #
0.76745885634853905354901826285641 1:0.40900001 2:0.72727275 3:1 4:0.037428573 5:0.0068357186 #
-0.76745885634853905354901826285641 1:0.3828125 2:1 3:1 4:0.047366071 5:0.0016143449 #
0.76745885634853905354901826285641 1:0.22571428 2:0.05882353 3:1 4:0.078285716 5:0.0044929637 #
-0.76745885634853905354901826285641 1:0.40909091 2:0.58974361 3:1 4:0.082727276 5:0.0035786245 #
-0.76745885634853905354901826285641 1:0.53100002 2:0.5714286 3:1 4:0.036400001 5:0.0025698619 #
0.76745885634853905354901826285641 1:0.37833333 2:0.91379309 3:0 4:0.022380952 5:0.0028290553 #
-0.76745885634853905354901826285641 1:0.442 2:0.97297299 3:0 4:0.085142858 5:0.010581611 #
0.76745885634853905354901826285641 1:0.39473686 2:0.6111111 3:1 4:0.056368422 5:0.0041754032 #
-0.76745885634853905354901826285641 1:0.38090909 2:0.63636363 3:1 4:0.052987013 5:0.0017966131 #
0.76745885634853905354901826285641 1:0.33375001 2:0.70833331 3:0 4:0.024821429 5:0.0049560876 #
-0.76745885634853905354901826285641 1:0.33625001 2:0.70833331 3:0 4:0.041145835 5:0.0050446251 #
0.76745885634853905354901826285641 1:0.22086957 2:0.60000002 3:1 4:0.049565218 5:0.0016867069 #
-0.76745885634853905354901826285641 1:0.30649999 2:0.54545456 3:1 4:0.044 5:0.011647865 #
0.76745885634853905354901826285641 1:0.41249999 2:0.72727275 3:0 4:0.076250002 5:0.012210832 #
-0.76745885634853905354901826285641 1:0.38111112 2:0.7352941 3:0 4:0.05111111 5:0.0022444013 #
0.76745885634853905354901826285641 1:0.31838709 2:0.5 3:1 4:0.033870969 5:0.0013154718 #
-0.76745885634853905354901826285641 1:0.22684211 2:0.4909091 3:1 4:0.012781955 5:0.0038517055 #
0.76745885634853905354901826285641 1:0.42750001 2:0.69565219 3:0 4:0.054125 5:0.00054277468 #
-0.76745885634853905354901826285641 1:0.39500001 2:0.78494626 3:0 4:0.044374999 5:0.018058741 #
0.76745885634853905354901826285641 1:0.30125001 2:0.66666669 3:1 4:0.050892856 5:0.0054849931 #
-0.76745885634853905354901826285641 1:0.37263158 2:0.64705884 3:1 4:0.065037593 5:0.0070371218 #
0.76745885634853905354901826285641 1:0.22428571 2:0.94444442 3:0 4:0.070595235 5:0.0019334549 #
-0.76745885634853905354901826285641 1:0.35124999 2:0.78494626 3:0 4:0.044374999 5:0.018058741 #
0.76745885634853905354901826285641 1:0.43952382 2:0.66666669 3:1 4:0.074761905 5:0.0064687668 #
-0.76745885634853905354901826285641 1:0.37333333 2:0.66666669 3:1 4:0.044133332 5:0.0022523005 #
0.76745885634853905354901826285641 1:0.43142858 2:0.45833334 3:0 4:0.045142855 5:0.0011657432 #
-0.76745885634853905354901826285641 1:0.37285715 2:0.42857143 3:0 4:0.038428571 5:0.0017485818 #
0.76745885634853905354901826285641 1:0.27000001 2:0.66666669 3:1 4:0.057628207 5:0.0017993911 #
-0.76745885634853905354901826285641 1:0.31933334 2:0.69999999 3:1 4:0.071238093 5:0.0030764572 #
0.76745885634853905354901826285641 1:0.43142858 2:0.46666667 3:0 4:0.045142855 5:0.0011657432 #
-0.76745885634853905354901826285641 1:0.37444445 2:0.48387095 3:0 4:0.052111112 5:0.0027841397 #
0.76745885634853905354901826285641 1:0.44285715 2:0.66666669 3:1 4:0.066734694 5:0.0047853785 #
-0.76745885634853905354901826285641 1:0.53100002 2:0.56521738 3:1 4:0.036400001 5:0.0025698619 #
0.76745885634853905354901826285641 1:0.43142858 2:0.46666667 3:0 4:0.045142855 5:0.0011657432 #
-0.76745885634853905354901826285641 1:0.34 2:0.53333336 3:0 4:0.051199999 5:0.0017659034 #
0.76745885634853905354901826285641 1:0.44285715 2:0.67647058 3:1 4:0.066734694 5:0.0047853785 #
-0.76745885634853905354901826285641 1:0.3652381 2:0.78571427 3:1 4:0.04442177 5:0.0042435997 #
0.76745885634853905354901826285641 1:0.46142858 2:0.52941179 3:0 4:0.071000002 5:0.0075571402 #
-0.76745885634853905354901826285641 1:0.43875 2:0.33333334 3:0 4:0.058571428 5:0.0080821356 #
0.76745885634853905354901826285641 1:0.30935484 2:0.82499999 3:1 4:0.055935483 5:0.0037104727 #
-0.76745885634853905354901826285641 1:0.35179487 2:0.8108108 3:1 4:0.054505493 5:0.0024719245 #
0.76745885634853905354901826285641 1:0.43571427 2:0.039999999 3:0 4:0.071224488 5:0.0044812174 #
-0.76745885634853905354901826285641 1:0.48333332 2:0.17391305 3:0 4:0.041999999 5:0.016611353 #
0.76745885634853905354901826285641 1:0.34105262 2:0.80000001 3:1 4:0.072719298 5:0.0055370349 #
-0.76745885634853905354901826285641 1:0.31125 2:0.86206895 3:1 4:0.1115625 5:0.0065235076 #
0.76745885634853905354901826285641 1:0.18125001 2:0.30555555 3:0 4:0.03732143 5:0.0022545918 #
-0.76745885634853905354901826285641 1:0.34571427 2:0.31818181 3:0 4:0.089183673 5:0.0041703391 #
0.76745885634853905354901826285641 1:0.39545456 2:0.94999999 3:1 4:0.076909088 5:0.0056955153 #
-0.76745885634853905354901826285641 1:0.34400001 2:0.82352942 3:1 4:0.029142857 5:0.0025081323 #
0.76745885634853905354901826285641 1:0.33555555 2:0.33333334 3:0 4:0.072666667 5:0.0042560268 #
-0.76745885634853905354901826285641 1:0.33000001 2:0.36363637 3:0 4:0.078035712 5:0.0036490469 #
0.76745885634853905354901826285641 1:0.44947368 2:0.90322578 3:1 4:0.067105263 5:0.0039841905 #
0.76745885634853905354901826285641 1:0.31105262 2:0.27272728 3:1 4:0.037669174 5:0.0043143951 #
-0.76745885634853905354901826285641 1:0.36789474 2:0.91666669 3:1 4:0.051616542 5:0.0029761153 #
-0.76745885634853905354901826285641 1:0.28999999 2:0.92000002 3:1 4:0.084473684 5:0.0025877662 #
-0.76745885634853905354901826285641 1:0.33000001 2:0.27272728 3:1 4:0.064571425 5:0.00080406462 #
0.76745885634853905354901826285641 1:0.235 2:0.91891891 3:1 4:0.047400001 5:0.0035606357 #
-0.76745885634853905354901826285641 1:0.2985 2:0.9130435 3:1 4:0.042300001 5:0.0010616825 #
0.76745885634853905354901826285641 1:0.27687499 2:0.125 3:1 4:0.043392856 5:0.0047382549 #
-0.76745885634853905354901826285641 1:0.2256 2:0.21052632 3:1 4:0.045919999 5:0.002099965 #
0.76745885634853905354901826285641 1:0.42714286 2:1 3:1 4:0.058200002 5:0.0019981796 #
-0.76745885634853905354901826285641 1:0.41499999 2:0.91666669 3:1 4:0.024933333 5:0.0011569345 #
0.76745885634853905354901826285641 1:0.2665 2:0.2857143 3:1 4:0.06425 5:0.0030345307 #
-0.76745885634853905354901826285641 1:0.40272728 2:0.4074074 3:1 4:0.071909092 5:0.0029087998 #
0.76745885634853905354901826285641 1:0.33047619 2:1 3:1 4:0.07309524 5:0.0034301765 #
-0.76745885634853905354901826285641 1:0.2574074 2:1 3:1 4:0.049523808 5:0.0028357038 #
0.76745885634853905354901826285641 1:0.40260869 2:0.36585367 3:1 4:0.056347825 5:0.0028797959 #
-0.76745885634853905354901826285641 1:0.41793102 2:1 3:1 4:0.062610835 5:0.00316925 #
-0.76745885634853905354901826285641 1:0.20999999 2:0.30000001 3:1 4:0.096210524 5:0.0053074532 #
0.76745885634853905354901826285641 1:0.45807692 2:0.96610171 3:1 4:0.050038461 5:0.0039922097 #
-0.76745885634853905354901826285641 1:0.39380953 2:1 3:1 4:0.044693876 5:0.0031259898 #
0.76745885634853905354901826285641 1:0.33565217 2:0.18181819 3:1 4:0.025688406 5:0.0011322001 #
0.76745885634853905354901826285641 1:0.23333333 2:0.86666667 3:1 4:0.05486111 5:0.0016717042 #
-0.76745885634853905354901826285641 1:0.35742858 2:0.175 3:1 4:0.048342858 5:0.0030017467 #
-0.76745885634853905354901826285641 1:0.36366665 2:0.25 3:1 4:0.050238095 5:0.0049017491 #
0.76745885634853905354901826285641 1:0.20482759 2:1 3:1 4:0.030948276 5:0.00064564066 #
-0.76745885634853905354901826285641 1:0.25782609 2:1 3:1 4:0.043297101 5:0.0017049345 #
0.76745885634853905354901826285641 1:0.28181818 2:0.088888891 3:1 4:0.053116884 5:0.0040179016 #
-0.76745885634853905354901826285641 1:0.34545454 2:0.63414633 3:1 4:0.14763637 5:0.0045210216 #
0.76745885634853905354901826285641 1:0.43241379 2:0.93220341 3:1 4:0.059793103 5:0.0038789164 #
-0.76745885634853905354901826285641 1:0.25894737 2:1 3:1 4:0.026766917 5:0.0018004224 #
0.76745885634853905354901826285641 1:0.24076924 2:0.38095239 3:1 4:0.037912089 5:0.0014936381 #
-0.76745885634853905354901826285641 1:0.37333333 2:0.65217394 3:1 4:0.044133332 5:0.0022523005 #
0.76745885634853905354901826285641 1:0.27000001 2:0.83333331 3:1 4:0.031020408 5:0.0031599414 #
-0.76745885634853905354901826285641 1:0.28636363 2:0.95833331 3:1 4:0.033969697 5:0.0021793393 #
0.76745885634853905354901826285641 1:0.49181819 2:0.5 3:1 4:0.087454543 5:0.0059635518 #
-0.0028995329686430280045905671926221 1:0.28999999 2:0.69999999 3:0 4:0.0045714285 5:0.00014081376 #
0.76745885634853905354901826285641 1:0.22 2:1 3:1 4:0.040178571 5:0.00099453586 #
-0.76745885634853905354901826285641 1:0.40354165 2:0.5714286 3:1 4:0.03935764 5:0.0018351907 #
-0.76745885634853905354901826285641 1:0.22407408 2:0.47619048 3:1 4:0.060925927 5:0.0015777673 #
0.76745885634853905354901826285641 1:0.15227273 2:0.56521738 3:1 4:0.031325758 5:0.0010532116 #
0.76745885634853905354901826285641 1:0.176 2:0.6111111 3:1 4:0.046250001 5:0.0015380917 #
-0.76745885634853905354901826285641 1:0.20933333 2:0.22580644 3:1 4:0.05952381 5:0.0032404673 #
0.76745885634853905354901826285641 1:0.50392854 2:0.9375 3:1 4:0.048979592 5:0.005240228 #
-0.76745885634853905354901826285641 1:0.27250001 2:0.969697 3:1 4:0.044693876 5:0.0012074375 #
0.76745885634853905354901826285641 1:0.17399999 2:0.033333335 3:1 4:0.04788889 5:0.0012284535 #
-0.76745885634853905354901826285641 1:0.29062501 2:0.028571429 3:1 4:0.068187498 5:0.0040331967 #
0.76745885634853905354901826285641 1:0.31074074 2:1 3:1 4:0.1021164 5:0.0046729292 #
-0.76745885634853905354901826285641 1:0.2985 2:0.90476191 3:1 4:0.042300001 5:0.0010616825 #
0.76745885634853905354901826285641 1:0.32030302 2:0.045454547 3:1 4:0.023358585 5:0.001576311 #
-0.76745885634853905354901826285641 1:0.345 2:0.33333334 3:1 4:0.041363638 5:0.0045438414 #
0.76745885634853905354901826285641 1:0.31576923 2:0.83999997 3:1 4:0.044115383 5:0.0030051237 #
-0.76745885634853905354901826285641 1:0.28812501 2:0.92307693 3:1 4:0.031071428 5:0.0011684424 #
0.76745885634853905354901826285641 1:0.31428573 2:0.1509434 3:1 4:0.054345239 5:0.0036683206 #
-0.76745885634853905354901826285641 1:0.17696969 2:1 3:1 4:0.046792928 5:0.0027583935 #
-0.76745885634853905354901826285641 1:0.51521736 2:0.52380955 3:1 4:0.058086958 5:0.0012118497 #
0.76745885634853905354901826285641 1:0.19142857 2:0.625 3:1 4:0.056230158 5:0.0017394174 #
-0.76745885634853905354901826285641 1:0.21590909 2:0.74193549 3:1 4:0.030265151 5:0.002030089 #
0.76745885634853905354901826285641 1:0.42931819 2:0.75 3:1 4:0.042454544 5:0.0043312167 #
0.76745885634853905354901826285641 1:0.2811628 2:1 3:1 4:0.077475086 5:0.0040679011 #
-0.76745885634853905354901826285641 1:0.32583332 2:0.83333331 3:1 4:0.048809525 5:0.0031595898 #
0.76745885634853905354901826285641 1:0.212 2:0.14285715 3:1 4:0.041888889 5:0.0018664839 #
-0.76745885634853905354901826285641 1:0.34299999 2:0.80487806 3:1 4:0.046700001 5:0.0010014733 #
0.76745885634853905354901826285641 1:0.20181818 2:0.42857143 3:1 4:0.01909091 5:0.0027909819 #
-0.76745885634853905354901826285641 1:0.11857143 2:0.077922076 3:1 4:0.015833333 5:0.00034943299 #
0.76745885634853905354901826285641 1:0.40315789 2:1 3:1 4:0.054285713 5:0.0049819276 #
-0.76745885634853905354901826285641 1:0.34357142 2:0.79411763 3:1 4:0.044183675 5:0.003671705 #
0.76745885634853905354901826285641 1:0.49142858 2:0.06666667 3:0 4:0.072857141 5:0.0012146898 #
-0.76745885634853905354901826285641 1:0.3888889 2:0.055555556 3:0 4:0.022222223 5:0.0043882155 #
0.76745885634853905354901826285641 1:0.24083333 2:0.66666669 3:1 4:0.021083333 5:0.00030717067 #
0.76745885634853905354901826285641 1:0.49142858 2:0.06666667 3:0 4:0.072857141 5:0.0012146898 #
-0.76745885634853905354901826285641 1:0.32259259 2:0.80645162 3:1 4:0.05448148 5:0.0020111485 #
0.76745885634853905354901826285641 1:0.26142856 2:0.41558442 3:0 4:0.055833332 5:0.0019948534 #
-0.76745885634853905354901826285641 1:0.426 2:0.33333334 3:0 4:0.079800002 5:0.0066146539 #
0.76745885634853905354901826285641 1:0.31523809 2:0.60000002 3:1 4:0.028503401 5:0.0040595667 #
-0.76745885634853905354901826285641 1:0.36000001 2:0.60975611 3:1 4:0.065133333 5:0.00199416 #
-0.76745885634853905354901826285641 1:0.366 2:0.039999999 3:0 4:0.11828572 5:0.0041517909 #
0.76745885634853905354901826285641 1:0.51190478 2:0.86666667 3:1 4:0.051523808 5:0.0051558539 #
-0.76745885634853905354901826285641 1:0.3276923 2:0.83333331 3:1 4:0.03021978 5:0.0011398455 #
0.76745885634853905354901826285641 1:0.37142858 2:0.055555556 3:0 4:0.1 5:0.014211868 #
0.76745885634853905354901826285641 1:0.20884615 2:0.5 3:1 4:0.026538461 5:0.0035119371 #
-0.76745885634853905354901826285641 1:0.43875 2:0.25 3:0 4:0.058571428 5:0.0080821356 #
-0.76745885634853905354901826285641 1:0.43875 2:0.33333334 3:0 4:0.058571428 5:0.0080821356 #
0.76745885634853905354901826285641 1:0.23714286 2:0.5 3:1 4:0.043214284 5:0.0019973898 #
-0.76745885634853905354901826285641 1:0.27952382 2:0.47945204 3:1 4:0.039931972 5:0.0045797327 #
0.76745885634853905354901826285641 1:0.42285714 2:0.61290324 3:0 4:0.072857141 5:0.0012146898 #
-0.76745885634853905354901826285641 1:0.41999999 2:0.91666669 3:0 4:0.07 5:0.021456089 #
0.76745885634853905354901826285641 1:0.25962964 2:0.5 3:1 4:0.0420679 5:0.0010755892 #
-0.73813741846586833350585266089183 1:0.20857143 2:0.72881359 3:1 4:0.052797619 5:0.0022147782 #
0.76745885634853905354901826285641 1:0.1925 2:0.94999999 3:0 4:0.057500001 5:0.0014420026 #
0.76745885634853905354901826285641 1:0.35222223 2:0.1 3:1 4:0.068555556 5:0.0011379129 #
-0.76745885634853905354901826285641 1:0.2352 2:0.55555558 3:1 4:0.034499999 5:0.0040967185 #
0.76745885634853905354901826285641 1:0.28799999 2:0.1572327 3:1 4:0.055444445 5:0.0046064574 #
-0.76745885634853905354901826285641 1:0.51521736 2:0.52173913 3:1 4:0.058086958 5:0.0012118497 #
0.76745885634853905354901826285641 1:0.29124999 2:0.86666667 3:0 4:0.041875001 5:0.0036062794 #
-0.76745885634853905354901826285641 1:0.34545454 2:0.46153846 3:1 4:0.14763637 5:0.0045210216 #
0.76745885634853905354901826285641 1:0.50749999 2:0.70588237 3:0 4:0.079625003 5:0.01099073 #
-0.76745885634853905354901826285641 1:0.34333333 2:1 3:0 4:0.048333332 5:0.0037492819 #
0.76745885634853905354901826285641 1:0.35299999 2:0.63333333 3:1 4:0.039642856 5:0.0050825588 #
-0.76745885634853905354901826285641 1:0.32533333 2:0.56 3:1 4:0.060199998 5:0.0060799015 #
0.76745885634853905354901826285641 1:0.43333334 2:0.79166669 3:0 4:0.051333334 5:0.0061616991 #
-0.76745885634853905354901826285641 1:0.34599999 2:0.76363635 3:0 4:0.044857144 5:0.0044920435 #
0.76745885634853905354901826285641 1:0.45100001 2:0.33333334 3:1 4:0.072849996 5:0.0040493612 #
-0.76745885634853905354901826285641 1:0.34 2:0.53333336 3:0 4:0.051199999 5:0.0017659034 #
0.76745885634853905354901826285641 1:0.43777779 2:0.64285713 3:1 4:0.058074076 5:0.0031697743 #
-0.76745885634853905354901826285641 1:0.35124999 2:0.68421054 3:1 4:0.039017856 5:0.0029239769 #
0.76745885634853905354901826285641 1:0.31999999 2:0.20833333 3:0 4:0.04011111 5:0.0022878391 #
-0.76745885634853905354901826285641 1:0.38 2:0.16666667 3:0 4:0.092833333 5:0.0017177628 #
0.76745885634853905354901826285641 1:0.155 2:0.83333331 3:1 4:0.067239583 5:0.0016434061 #
-0.76745885634853905354901826285641 1:0.31968749 2:0.83333331 3:1 4:0.038937502 5:0.0010090529 #
0.76745885634853905354901826285641 1:0.25749999 2:0.1875 3:0 4:0.061000001 5:0.00079166202 #
-0.76745885634853905354901826285641 1:0.36000001 2:0.25 3:0 4:0.071964286 5:0.0026238621 #
0.76745885634853905354901826285641 1:0.39899999 2:0.94444442 3:1 4:0.083800003 5:0.0036071439 #
-0.76745885634853905354901826285641 1:0.30655172 2:0.85000002 3:1 4:0.073379308 5:0.004697938 #
0.76745885634853905354901826285641 1:0.44714287 2:0.083333336 3:0 4:0.074285716 5:0.0011051522 #
-0.76745885634853905354901826285641 1:0.31999999 2:0.023809524 3:0 4:0.080408163 5:0.0036792795 #
0.76745885634853905354901826285641 1:0.41512194 2:0.76190478 3:1 4:0.042195123 5:0.0028580597 #
-0.76745885634853905354901826285641 1:0.33944446 2:0.75 3:1 4:0.034761906 5:0.0024916995 #
0.76745885634853905354901826285641 1:0.30777779 2:0.40816328 3:0 4:0.03952381 5:0.006799215 #
0.76745885634853905354901826285641 1:0.28518519 2:0.89655173 3:1 4:0.05952381 5:0.003612886 #
-0.76745885634853905354901826285641 1:0.3125 2:0.78947371 3:1 4:0.075750001 5:0.0025740364 #
0.76745885634853905354901826285641 1:0.43928573 2:0.66666669 3:1 4:0.08214286 5:0.0014171819 #
-0.76745885634853905354901826285641 1:0.54454547 2:0.47826087 3:1 4:0.043545455 5:0.0024306495 #
0.76745885634853905354901826285641 1:0.22321428 2:0.95652175 3:1 4:0.044255953 5:0.0022910188 #
-0.76745885634853905354901826285641 1:0.245 2:1 3:1 4:0.048076924 5:0.0013351217 #
-0.76745885634853905354901826285641 1:0.27277777 2:0.95238096 3:1 4:0.057301588 5:0.0028977676 #
0.76745885634853905354901826285641 1:0.32944444 2:0.2857143 3:1 4:0.013842593 5:0.00046118192 #
-0.76745885634853905354901826285641 1:0.2175 2:0.77272725 3:1 4:0.032395832 5:0.00094361155 #
0.76745885634853905354901826285641 1:0.33217391 2:1 3:1 4:0.061739132 5:0.0015433119 #
-0.76745885634853905354901826285641 1:0.26521739 2:0.96296299 3:1 4:0.049192548 5:0.0028502601 #
0.76745885634853905354901826285641 1:0.27842104 2:0.090909094 3:1 4:0.041879699 5:0.0016693748 #
-0.76745885634853905354901826285641 1:0.38461539 2:0.048780486 3:1 4:0.064769231 5:0.0010762234 #
0.76745885634853905354901826285641 1:0.25125 2:1 3:1 4:0.023567708 5:0.00080052449 #
0.76745885634853905354901826285641 1:0.28242424 2:0.14285715 3:1 4:0.037484847 5:0.001956603 #
-0.76745885634853905354901826285641 1:0.30239999 2:0.86956519 3:1 4:0.054633334 5:0.004639762 #
-0.76745885634853905354901826285641 1:0.30625001 2:0.84677422 3:1 4:0.05078125 5:0.0042622513 #
0.76745885634853905354901826285641 1:0.22214286 2:0.2857143 3:1 4:0.045571428 5:0.0012157265 #
-0.47853863015385034174187239841558 1:0.11 2:0.11764706 3:1 4:0.044025972 5:0.00072687492 #
0.76745885634853905354901826285641 1:0.31486487 2:1 3:1 4:0.042741314 5:0.0024338199 #
-0.76745885634853905354901826285641 1:0.25767443 2:0.075000003 3:1 4:0.030093024 5:0.003459177 #
0.76745885634853905354901826285641 1:0.30346155 2:1 3:1 4:0.068681322 5:0.0028420386 #
-0.76745885634853905354901826285641 1:0.32404256 2:0.98305082 3:1 4:0.035361703 5:0.0011701251 #
-0.76745885634853905354901826285641 1:0.3075 2:0.80000001 3:1 4:0.060550001 5:0.0045646606 #
0.76745885634853905354901826285641 1:0.14480001 2:0.071428575 3:1 4:0.053300001 5:0.0013999207 #
-0.76745885634853905354901826285641 1:0.11928572 2:0.017857144 3:1 4:0.03265306 5:0.00037057002 #
-0.76745885634853905354901826285641 1:0.12 2:0.010752688 3:1 4:0.025666667 5:0.00051884167 #
0.76745885634853905354901826285641 1:0.33675 2:0.89655173 3:1 4:0.035166666 5:0.0010874572 #
0.76745885634853905354901826285641 1:0.27047619 2:0.2 3:1 4:0.04107143 5:0.002199003 #
-0.76745885634853905354901826285641 1:0.30727273 2:0.875 3:1 4:0.021272726 5:0.0019982536 #
-0.76745885634853905354901826285641 1:0.29923075 2:0.87671232 3:1 4:0.044175826 5:0.0056298664 #
0.76745885634853905354901826285641 1:0.21470588 2:0.45454547 3:1 4:0.067941174 5:0.0028571205 #
-0.76745885634853905354901826285641 1:0.23931034 2:0.074074075 3:1 4:0.068908043 5:0.0023724393 #
0.76745885634853905354901826285641 1:0.38826087 2:1 3:1 4:0.086708076 5:0.005874949 #
-0.76745885634853905354901826285641 1:0.36351851 2:0.58333331 3:1 4:0.055694446 5:0.0033605185 #
0.76745885634853905354901826285641 1:0.41431817 2:0.83333331 3:1 4:0.050909091 5:0.0025492318 #
-0.76745885634853905354901826285641 1:0.43857142 2:0.83333331 3:1 4:0.064897962 5:0.0017169127 #
0.76745885634853905354901826285641 1:0.27935484 2:0.51428574 3:1 4:0.046639785 5:0.0010096191 #
-0.76745885634853905354901826285641 1:0.3238889 2:0.72727275 3:1 4:0.053277779 5:0.0068630325 #
0.76745885634853905354901826285641 1:0.26478261 2:0.5 3:1 4:0.050826088 5:0.0058091837 #
-0.76745885634853905354901826285641 1:0.10333333 2:0.14285715 3:1 4:0.022266667 5:0.00036807131 #
0.76745885634853905354901826285641 1:0.33407408 2:0.94999999 3:1 4:0.050555557 5:0.0027955088 #
-0.76745885634853905354901826285641 1:0.11705882 2:0.046153847 3:1 4:0.010588235 5:0.00034558502 #
0.76745885634853905354901826285641 1:0.44687501 2:0.90909094 3:1 4:0.059812501 5:0.0013955813 #
-0.76745885634853905354901826285641 1:0.40956521 2:1 3:1 4:0.063291922 5:0.0058592348 #
0.76745885634853905354901826285641 1:0.26153848 2:0.064102568 3:1 4:0.03602564 5:0.0033257196 #
-0.76745885634853905354901826285641 1:0.54454547 2:0.47619048 3:1 4:0.043545455 5:0.0024306495 #
-0.76745885634853905354901826285641 1:0.324375 2:0.75 3:1 4:0.041964285 5:0.0022322524 #
-0.76745885634853905354901826285641 1:0.32666665 2:0.71232879 3:1 4:0.048214287 5:0.0062760767 #
0.76745885634853905354901826285641 1:0.42428571 2:0.75 3:1 4:0.08030612 5:0.005152354 #
0.76745885634853905354901826285641 1:0.184 2:0.25 3:1 4:0.041828573 5:0.0014111606 #
-0.76745885634853905354901826285641 1:0.25083333 2:0.16666667 3:1 4:0.068333335 5:0.0029981839 #
-0.76745885634853905354901826285641 1:0.31615385 2:0.31999999 3:1 4:0.078910254 5:0.0020760142 #
0.76745885634853905354901826285641 1:0.20333333 2:0.75 3:1 4:0.057944443 5:0.0013909813 #
0.76745885634853905354901826285641 1:0.389 2:0.2 3:1 4:0.071400002 5:0.0022695288 #
-0.76745885634853905354901826285641 1:0.26499999 2:0.94444442 3:1 4:0.056833334 5:0.0022371144 #
0.76745885634853905354901826285641 1:0.36521739 2:0.057142857 3:1 4:0.040062111 5:0.0015722268 #
-0.76745885634853905354901826285641 1:0.31999999 2:0.083333336 3:1 4:0.066904761 5:0.0021001874 #
-0.76745885634853905354901826285641 1:0.3576923 2:0.41666666 3:1 4:0.075824179 5:0.0038427531 #
0.76745885634853905354901826285641 1:0.33849999 2:0.61904764 3:1 4:0.035166666 5:0.0010874572 #
0.76745885634853905354901826285641 1:0.3146154 2:0.31428573 3:1 4:0.062564105 5:0.0057393191 #
-0.76745885634853905354901826285641 1:0.31157896 2:0.75 3:1 4:0.070833333 5:0.003615282 #
0.76745885634853905354901826285641 1:0.33911765 2:0.57692307 3:1 4:0.048558824 5:0.0018387904 #
-0.76745885634853905354901826285641 1:0.38352942 2:0.41176471 3:1 4:0.050084032 5:0.0023271872 #
0.76745885634853905354901826285641 1:0.31999999 2:0.96774191 3:1 4:0.020333333 5:0.0022142897 #
-0.76745885634853905354901826285641 1:0.24699999 2:1 3:1 4:0.037374999 5:0.0045054876 #
0.76745885634853905354901826285641 1:0.28434783 2:1 3:1 4:0.063086957 5:0.0039801118 #
-0.76745885634853905354901826285641 1:0.33250001 2:0.15384616 3:1 4:0.023055555 5:0.0013933441 #
0.76745885634853905354901826285641 1:0.24447368 2:0.89830506 3:1 4:0.050548244 5:0.0013415508 #
0.76745885634853905354901826285641 1:0.36521739 2:0.090909094 3:1 4:0.040062111 5:0.0015722268 #
-0.76745885634853905354901826285641 1:0.30700001 2:1 3:1 4:0.047714286 5:0.0036304991 #
0.76745885634853905354901826285641 1:0.33947369 2:0.2 3:1 4:0.043233082 5:0.0044005238 #
-0.7216543775168919871987327496754 1:0.26782608 2:0.054545455 3:1 4:0.023167701 5:0.0023526191 #
-0.76745885634853905354901826285641 1:0.3190909 2:0.7631579 3:1 4:0.039818183 5:0.0014675123 #
0.76745885634853905354901826285641 1:0.2704348 2:1 3:1 4:0.043659419 5:0.00095672993 #
-0.76745885634853905354901826285641 1:0.31647059 2:0.16363636 3:1 4:0.053613447 5:0.0054256488 #
0.76745885634853905354901826285641 1:0.30428571 2:0.029411765 3:1 4:0.033357143 5:0.0023008166 #
-0.76745885634853905354901826285641 1:0.25999999 2:0.96666664 3:1 4:0.045000002 5:0.0012504763 #
0.76745885634853905354901826285641 1:0.20809524 2:0.89999998 3:1 4:0.050380953 5:0.004735807 #
-0.76745885634853905354901826285641 1:0.3282353 2:0.034482758 3:1 4:0.033193279 5:0.0035067841 #
-0.76745885634853905354901826285641 1:0.27785715 2:0.92500001 3:1 4:0.04692857 5:0.0034867623 #
-0.76745885634853905354901826285641 1:0.28846154 2:0.5 3:1 4:0.085307695 5:0.0053848163 #
0.76745885634853905354901826285641 1:0.30357143 2:0.69999999 3:1 4:0.052464284 5:0.0017747881 #
0.76745885634853905354901826285641 1:0.21307692 2:0.35714287 3:1 4:0.038782053 5:0.00071961049 #
0.76745885634853905354901826285641 1:0.3157143 2:0.91428572 3:1 4:0.064642854 5:0.0040352489 #
-0.76745885634853905354901826285641 1:0.10933334 2:0.032258064 3:1 4:0.028666666 5:0.00030515864 #
-0.76745885634853905354901826285641 1:0.26090908 2:0.96153843 3:1 4:0.046493508 5:0.0014926444 #
0.76745885634853905354901826285641 1:0.21250001 2:0.11111111 3:1 4:0.023095239 5:0.0035365052 #
-0.62343476866795821678124411846511 1:0.24390244 2:0.11111111 3:1 4:0.028097561 5:0.0037498157 #
0.76745885634853905354901826285641 1:0.27812499 2:0.85714287 3:1 4:0.034791667 5:0.00049813272 #
0.76745885634853905354901826285641 1:0.15041667 2:0.36666667 3:1 4:0.035374999 5:0.0012401072 #
-0.76745885634853905354901826285641 1:0.30172414 2:0.85714287 3:1 4:0.044827588 5:0.0011294982 #
-0.76745885634853905354901826285641 1:0.32230771 2:0.66666669 3:1 4:0.06543956 5:0.0025416175 #
0.76745885634853905354901826285641 1:0.27391306 2:0.58333331 3:1 4:0.054037265 5:0.0029334154 #
-0.76745885634853905354901826285641 1:0.32949999 2:0.55555558 3:1 4:0.069357142 5:0.0026668266 #
0.76745885634853905354901826285641 1:0.37615386 2:0.77777779 3:1 4:0.061692309 5:0.0051996112 #
0.76745885634853905354901826285641 1:0.28857142 2:0.31182796 3:1 4:0.050357144 5:0.0050480361 #
-0.76745885634853905354901826285641 1:0.27407408 2:0.31428573 3:1 4:0.022962963 5:0.0017134218 #
0.76745885634853905354901826285641 1:0.28684211 2:0.81818181 3:1 4:0.054586466 5:0.0041513732 #
-0.76745885634853905354901826285641 1:0.28222221 2:0.91935486 3:1 4:0.040555555 5:0.0038340203 #
-0.76745885634853905354901826285641 1:0.27599999 2:0.91397852 3:1 4:0.0592 5:0.0035620623 #
0.76745885634853905354901826285641 1:0.35333332 2:0.07692308 3:1 4:0.098666668 5:0.0047760583 #
0.76745885634853905354901826285641 1:0.24205129 2:1 3:1 4:0.04725641 5:0.0019507252 #
-0.76745885634853905354901826285641 1:0.33000001 2:0.083333336 3:1 4:0.069095239 5:0.0031248149 #
0.76745885634853905354901826285641 1:0.2853125 2:1 3:1 4:0.040651042 5:0.0013012994 #
0.76745885634853905354901826285641 1:0.178 2:0.125 3:1 4:0.036514286 5:0.0020591337 #
-0.76745885634853905354901826285641 1:0.25473684 2:0.96666664 3:1 4:0.041203007 5:0.0026636012 #
-0.76745885634853905354901826285641 1:0.26444444 2:0.94736844 3:1 4:0.048833333 5:0.0021151812 #
0.76745885634853905354901826285641 1:0.1616129 2:0.06666667 3:1 4:0.024562212 5:0.0024173425 #
0.76745885634853905354901826285641 1:0.426 2:0.97435898 3:1 4:0.046 5:0.0039254185 #
-0.76745885634853905354901826285641 1:0.23125 2:0.20430107 3:1 4:0.035281248 5:0.003597941 #
-0.76745885634853905354901826285641 1:0.46250001 2:1 3:1 4:0.064178571 5:0.0014492696 #
0.76745885634853905354901826285641 1:0.20645161 2:0.23809524 3:1 4:0.030725807 5:0.0007148257 #
-0.76745885634853905354901826285641 1:0.27399999 2:0.032258064 3:1 4:0.051285714 5:0.0021979799 #
0.76745885634853905354901826285641 1:0.3696 2:1 3:1 4:0.095600002 5:0.006926185 #
-0.76745885634853905354901826285641 1:0.30551726 2:1 3:1 4:0.057931036 5:0.0027614096 #
0.76745885634853905354901826285641 1:0.33818182 2:0.13333334 3:1 4:0.037337661 5:0.0047854041 #
-0.76745885634853905354901826285641 1:0.28458333 2:0.090909094 3:1 4:0.029285714 5:0.00066654081 #
0.76745885634853905354901826285641 1:0.2737931 2:0.875 3:1 4:0.050241381 5:0.0035211316 #
-0.76745885634853905354901826285641 1:0.28190476 2:0.13333334 3:1 4:0.042312924 5:0.0023669216 #
0.76745885634853905354901826285641 1:0.24032257 2:1 3:1 4:0.065258063 5:0.003815772 #
-0.76745885634853905354901826285641 1:0.26300001 2:0.93333334 3:1 4:0.0704 5:0.0028489858 #
0.76745885634853905354901826285641 1:0.31482759 2:0.25 3:1 4:0.053206898 5:0.0046067652 #
-0.76745885634853905354901826285641 1:0.36131579 2:0.40000001 3:1 4:0.053903509 5:0.0031879677 #
0.76745885634853905354901826285641 1:0.22142857 2:0.83333331 3:1 4:0.043142859 5:0.0026184551 #
-0.76745885634853905354901826285641 1:0.29181817 2:0.88235295 3:1 4:0.040649351 5:0.0017777628 #
0.76745885634853905354901826285641 1:0.23032258 2:0.375 3:1 4:0.049327958 5:0.0017985844 #
-0.76745885634853905354901826285641 1:0.27281249 2:0.90909094 3:1 4:0.065223217 5:0.002371225 #
0.76745885634853905354901826285641 1:0.37937501 2:0.23076923 3:1 4:0.059910715 5:0.0022112816 #
-0.76745885634853905354901826285641 1:0.24809524 2:0.125 3:1 4:0.035918366 5:0.0020238296 #
0.76745885634853905354901826285641 1:0.40533334 2:1 3:1 4:0.051333334 5:0.006792129 #
0.76745885634853905354901826285641 1:0.20999999 2:0.54545456 3:1 4:0.057812501 5:0.0042394162 #
-0.76745885634853905354901826285641 1:0.34789473 2:0.63636363 3:1 4:0.039172933 5:0.00091565197 #
-0.76745885634853905354901826285641 1:0.30916667 2:0.64705884 3:1 4:0.094285712 5:0.003910149 #
0.76745885634853905354901826285641 1:0.22812501 2:0.74285716 3:1 4:0.034765624 5:0.0013845534 #
-0.76745885634853905354901826285641 1:0.6566667 2:0.58333331 3:1 4:0.059 5:0.0010594741 #
0.76745885634853905354901826285641 1:0.47052631 2:0.5714286 3:1 4:0.063120298 5:0.0029882439 #
0.76745885634853905354901826285641 1:0.23954545 2:0.625 3:1 4:0.03779221 5:0.0034446227 #
0.76745885634853905354901826285641 1:0.3888889 2:0.72222221 3:1 4:0.060444444 5:0.0035491094 #
0.76745885634853905354901826285641 1:0.21250001 2:0.60975611 3:1 4:0.054099999 5:0.0031790829 #
-0.76745885634853905354901826285641 1:0.32714286 2:0.6388889 3:1 4:0.059857141 5:0.0018607706 #
0.76745885634853905354901826285641 1:0.2288 2:0.88 3:1 4:0.04132 5:0.001389197 #
-0.76745885634853905354901826285641 1:0.30619049 2:0.83333331 3:1 4:0.0392517 5:0.0011197914 #
0.76745885634853905354901826285641 1:0.37722221 2:0.63333333 3:1 4:0.041190475 5:0.0056615435 #
-0.76745885634853905354901826285641 1:0.29181817 2:0.87878788 3:1 4:0.040649351 5:0.0017777628 #
0.76745885634853905354901826285641 1:0.264 2:0.27272728 3:1 4:0.056400001 5:0.0032935492 #
-0.76745885634853905354901826285641 1:0.33037037 2:0.18518518 3:1 4:0.031962965 5:0.0032579594 #
-0.76745885634853905354901826285641 1:0.33000001 2:0.5 3:1 4:0.064571425 5:0.00080406462 #
0.76745885634853905354901826285641 1:0.21461539 2:0.86486489 3:1 4:0.044615384 5:0.0029666487 #
-0.76745885634853905354901826285641 1:0.27857143 2:0.90476191 3:1 4:0.050904762 5:0.0037568123 #
0.76745885634853905354901826285641 1:0.26909092 2:0.34999999 3:1 4:0.053454544 5:0.0032829451 #
-0.76745885634853905354901826285641 1:0.23578948 2:0.1038961 3:1 4:0.062368423 5:0.0020568343 #
0.76745885634853905354901826285641 1:0.37380952 2:0.89999998 3:1 4:0.061952382 5:0.0016183356 #
-0.76745885634853905354901826285641 1:0.29045454 2:0.86956519 3:1 4:0.049954545 5:0.0014855813 #
0.76745885634853905354901826285641 1:0.24368422 2:0.11538462 3:1 4:0.050676692 5:0.0049913586 #
-0.76745885634853905354901826285641 1:0.3175 2:0.15625 3:1 4:0.041857142 5:0.0018836532 #
0.76745885634853905354901826285641 1:0.19787879 2:0.875 3:1 4:0.06550505 5:0.0018779647 #
0.76745885634853905354901826285641 1:0.27968749 2:0.39130434 3:1 4:0.032838542 5:0.0014575201 #
-0.76745885634853905354901826285641 1:0.28666666 2:0.83333331 3:1 4:0.08238095 5:0.0023923377 #
-0.76745885634853905354901826285641 1:0.20766667 2:0.34482759 3:1 4:0.046300001 5:0.0047544199 #
0.76745885634853905354901826285641 1:0.39774194 2:0.95454544 3:1 4:0.069451615 5:0.0047840951 #
0.76745885634853905354901826285641 1:0.37937501 2:0.2857143 3:1 4:0.059910715 5:0.0022112816 #
-0.76745885634853905354901826285641 1:0.46250001 2:1 3:1 4:0.064178571 5:0.0014492696 #
0.76745885634853905354901826285641 1:0.2932258 2:1 3:1 4:0.066709675 5:0.0039753192 #
-0.76745885634853905354901826285641 1:0.34299999 2:0.30769232 3:1 4:0.052499998 5:0.0056464397 #
0.76745885634853905354901826285641 1:0.31739131 2:0.16129032 3:1 4:0.078000002 5:0.0031384067 #
-0.76745885634853905354901826285641 1:0.23318182 2:1 3:1 4:0.03814394 5:0.0018231462 #
0.76745885634853905354901826285641 1:0.36818182 2:0.1388889 3:1 4:0.048636362 5:0.0012206828 #
0.76745885634853905354901826285641 1:0.46264705 2:1 3:1 4:0.057117648 5:0.0018308042 #
-0.76745885634853905354901826285641 1:0.36500001 2:0.083333336 3:1 4:0.064111114 5:0.0034354024 #
0.76745885634853905354901826285641 1:0.2392 2:0.18181819 3:1 4:0.0263 5:0.0012041039 #
-0.76745885634853905354901826285641 1:0.37730768 2:1 3:1 4:0.069780223 5:0.0052533476 #
-0.76745885634853905354901826285641 1:0.42941177 2:0.86363637 3:1 4:0.058176469 5:0.0034564382 #
0.76745885634853905354901826285641 1:0.20586208 2:0.22222222 3:1 4:0.041586205 5:0.0019389394 #
0.76745885634853905354901826285641 1:0.39756757 2:1 3:1 4:0.051027026 5:0.0036988829 #
-0.75364254265972574486909252300393 1:0.20333333 2:0.13953489 3:1 4:0.064750001 5:0.0042781839 #
0.76745885634853905354901826285641 1:0.46641025 2:0.91428572 3:1 4:0.063772894 5:0.0031006574 #
-0.76745885634853905354901826285641 1:0.34653062 2:0.95833331 3:1 4:0.061088435 5:0.0044834372 #
0.76745885634853905354901826285641 1:0.164 2:0.03773585 3:1 4:0.016333334 5:0.00057297503 #
-0.76745885634853905354901826285641 1:0.29833335 2:0.15000001 3:1 4:0.029277777 5:0.0017990085 #
0.76745885634853905354901826285641 1:0.2344 2:0.8125 3:1 4:0.043760002 5:0.0038182524 #
-0.76745885634853905354901826285641 1:0.32307693 2:0.72972971 3:1 4:0.030999999 5:0.0038150894 #
0.76745885634853905354901826285641 1:0.2682353 2:0.58333331 3:1 4:0.032857142 5:0.0028539924 #
-0.76745885634853905354901826285641 1:0.35166666 2:0.58333331 3:1 4:0.059880953 5:0.0021482112 #
0.76745885634853905354901826285641 1:0.2374074 2:0.76666665 3:1 4:0.046851851 5:0.0051202774 #
0.76745885634853905354901826285641 1:0.4595238 2:0.2631579 3:1 4:0.061809525 5:0.0075733778 #
-0.76745885634853905354901826285641 1:0.30485713 2:0.80000001 3:1 4:0.049102042 5:0.0034263707 #
-0.76745885634853905354901826285641 1:0.30076924 2:0.76923078 3:1 4:0.054000001 5:0.0027603067 #
0.76745885634853905354901826285641 1:0.4294737 2:0.23529412 3:1 4:0.075105265 5:0.0041806814 #
-0.76745885634853905354901826285641 1:0.38461539 2:0.051282052 3:1 4:0.064769231 5:0.0010762234 #
-0.76745885634853905354901826285641 1:0.30399999 2:0.91666669 3:1 4:0.055238094 5:0.0024585333 #
0.76745885634853905354901826285641 1:0.29210526 2:1 3:1 4:0.043082707 5:0.0031695613 #
-0.76745885634853905354901826285641 1:0.26750001 2:0.92727274 3:1 4:0.055238094 5:0.0021441672 #
-0.76745885634853905354901826285641 1:0.27238095 2:0.90909094 3:1 4:0.056000002 5:0.0012037617 #
0.76745885634853905354901826285641 1:0.30416667 2:0.083333336 3:1 4:0.0509375 5:0.0027701929 #
-0.76745885634853905354901826285641 1:0.35499999 2:0.15625 3:1 4:0.032922078 5:0.0025256774 #
0.76745885634853905354901826285641 1:0.18275861 2:0.93333334 3:1 4:0.053735632 5:0.0022328682 #
0.76745885634853905354901826285641 1:0.33250001 2:0.33333334 3:1 4:0.063482143 5:0.0036385516 #
-0.76745885634853905354901826285641 1:0.27142859 2:0.31182796 3:1 4:0.050357144 5:0.0050480361 #
0.76745885634853905354901826285641 1:0.33000001 2:0.83333331 3:1 4:0.070043482 5:0.0022865955 #
-0.76745885634853905354901826285641 1:0.28192309 2:0.88235295 3:1 4:0.052307691 5:0.0021371963 #
-0.76745885634853905354901826285641 1:0.35222223 2:0.20512821 3:0 4:0.039888889 5:0.00092639797 #
0.76745885634853905354901826285641 1:0.28090909 2:0.73333335 3:1 4:0.081272729 5:0.0044948631 #
-0.76745885634853905354901826285641 1:0.3435294 2:0.57894737 3:1 4:0.058470588 5:0.0056253173 #
0.76745885634853905354901826285641 1:0.315 2:0.58333331 3:0 4:0.096000001 5:0.0035649596 #
-0.76745885634853905354901826285641 1:0.34999999 2:0.875 3:0 4:0.094999999 5:0.0041733184 #
0.76745885634853905354901826285641 1:0.27375001 2:0.55555558 3:1 4:0.049322918 5:0.0020975966 #
-0.76745885634853905354901826285641 1:0.25 2:0.47999999 3:1 4:0.080277778 5:0.0090910187 #
0.76745885634853905354901826285641 1:0.29124999 2:0.86666667 3:0 4:0.041875001 5:0.0036027406 #
-0.76745885634853905354901826285641 1:0.34 2:0.88571429 3:0 4:0.058666665 5:0.031347901 #
0.76745885634853905354901826285641 1:0.31758621 2:0.58333331 3:1 4:0.07 5:0.0037225927 #
-0.76745885634853905354901826285641 1:0.30461538 2:0.6111111 3:1 4:0.076615386 5:0.0011735497 #
0.76745885634853905354901826285641 1:0.21666667 2:0.71666664 3:0 4:0.048777778 5:0.0020713913 #
-0.76745885634853905354901826285641 1:0.30000001 2:0.65384614 3:0 4:0.029642858 5:0.0018695262 #
0.76745885634853905354901826285641 1:0.42393941 2:0.63636363 3:1 4:0.050865799 5:0.0030756029 #
-0.76745885634853905354901826285641 1:0.3416 2:0.63157892 3:1 4:0.045771427 5:0.0029093111 #
-0.76745885634853905354901826285641 1:0.34299999 2:0.61538464 3:1 4:0.046700001 5:0.0010014733 #
0.76745885634853905354901826285641 1:0.27777779 2:0.29166666 3:0 4:0.023492064 5:0.0014356896 #
0.76745885634853905354901826285641 1:0.26035714 2:0.57627118 3:1 4:0.035863094 5:0.0024165362 #
0.76745885634853905354901826285641 1:0.20763157 2:0.6981132 3:1 4:0.036513157 5:0.00089880195 #
-0.76745885634853905354901826285641 1:0.29928571 2:0.71428573 3:1 4:0.0605 5:0.0027179348 #
0.76745885634853905354901826285641 1:0.18375 2:0.33333334 3:0 4:0.054749999 5:0.0013842412 #
-0.76745885634853905354901826285641 1:0.22846153 2:0.5 3:1 4:0.043974359 5:0.00088064309 #
0.76745885634853905354901826285641 1:0.37543479 2:0.85365856 3:1 4:0.033608697 5:0.0027636469 #
-0.76745885634853905354901826285641 1:0.29533333 2:0.82352942 3:1 4:0.053619046 5:0.0042298478 #
0.76745885634853905354901826285641 1:0.24111111 2:0.11111111 3:0 4:0.022698414 5:0.0025399472 #
-0.76745885634853905354901826285641 1:0.35142857 2:0.096774191 3:0 4:0.025714286 5:0.00036297302 #
0.76745885634853905354901826285641 1:0.31222221 2:0.86666667 3:1 4:0.043174602 5:0.0041166237 #
-0.76745885634853905354901826285641 1:0.30862069 2:0.75 3:1 4:0.037192117 5:0.0038759136 #
0.76745885634853905354901826285641 1:0.36333334 2:0.083333336 3:0 4:0.029999999 5:0.0061097322 #
-0.76745885634853905354901826285641 1:0.35142857 2:0.083333336 3:0 4:0.025714286 5:0.00036297302 #
0.76745885634853905354901826285641 1:0.38100001 2:0.7647059 3:1 4:0.037300002 5:0.0035601242 #
0.76745885634853905354901826285641 1:0.29750001 2:0.1 3:0 4:0.073875003 5:0.0051503009 #
-0.76745885634853905354901826285641 1:0.32600001 2:0.086956523 3:0 4:0.042285714 5:0.00050014601 #
0.76745885634853905354901826285641 1:0.358125 2:0.625 3:1 4:0.03946875 5:0.0028451823 #
-0.76745885634853905354901826285641 1:0.32111111 2:0.68181819 3:1 4:0.039000001 5:0.0028603058 #
0.76745885634853905354901826285641 1:0.15428571 2:0.83870965 3:0 4:0.030857142 5:0.00075888669 #
-0.76745885634853905354901826285641 1:0.34 2:0.5 3:0 4:0.051199999 5:0.0017659034 #
0.76745885634853905354901826285641 1:0.36526316 2:0.60000002 3:1 4:0.048526317 5:0.0035922299 #
-0.76745885634853905354901826285641 1:0.36142856 2:0.55555558 3:1 4:0.048367348 5:0.0029041884 #
0.76745885634853905354901826285641 1:0.33166668 2:0.2 3:0 4:0.037833333 5:0.0058681923 #
-0.76745885634853905354901826285641 1:0.21923077 2:0.56097561 3:1 4:0.048461538 5:0.0025156529 #
0.76745885634853905354901826285641 1:0.20333333 2:0.75 3:1 4:0.050793651 5:0.0016515861 #
-0.76745885634853905354901826285641 1:0.28636363 2:0.87272727 3:1 4:0.045974027 5:0.0015078655 #
0.76745885634853905354901826285641 1:0.27500001 2:0.14285715 3:0 4:0.060892858 5:0.0027813101 #
-0.76745885634853905354901826285641 1:0.22400001 2:0.56923079 3:1 4:0.048549999 5:0.0027634818 #
0.76745885634853905354901826285641 1:0.46950001 2:0.73333335 3:1 4:0.029650001 5:0.0018775619 #
-0.76745885634853905354901826285641 1:0.30533335 2:0.77419353 3:1 4:0.034190476 5:0.0032928956 #
0.76745885634853905354901826285641 1:0.17714286 2:0.4375 3:0 4:0.040857144 5:0.0012049453 #
-0.76745885634853905354901826285641 1:0.33000001 2:0.28 3:0 4:0.023333333 5:0.0048478651 #
0.76745885634853905354901826285641 1:0.23139535 2:0.75 3:1 4:0.051569767 5:0.002298936 #
-0.76745885634853905354901826285641 1:0.30263159 2:0.75 3:1 4:0.0518797 5:0.0036416494 #
0.76745885634853905354901826285641 1:0.40000001 2:0.2857143 3:0 4:0.058833335 5:0.0033944123 #
-0.76745885634853905354901826285641 1:0.3188889 2:0.41666666 3:0 4:0.037142858 5:0.0018147113 #
0.76745885634853905354901826285641 1:0.28864864 2:0.69230771 3:1 4:0.021621622 5:0.0012967165 #
-0.76745885634853905354901826285641 1:0.32440001 2:0.64285713 3:1 4:0.049028572 5:0.0042641875 #
0.76745885634853905354901826285641 1:0.35833332 2:0.41666666 3:0 4:0.039833333 5:0.0061853975 #
-0.76745885634853905354901826285641 1:0.32666665 2:0.3275862 3:0 4:0.050777778 5:0.013575463 #
-0.76745885634853905354901826285641 1:0.3344 2:0.62 3:1 4:0.030200001 5:0.0043709246 #
0.76745885634853905354901826285641 1:0.31424242 2:0.54166669 3:1 4:0.053852815 5:0.0026404387 #
-0.76745885634853905354901826285641 1:0.35179487 2:0.55555558 3:1 4:0.054505493 5:0.0024719245 #
-0.76745885634853905354901826285641 1:0.29499999 2:0.8125 3:1 4:0.055059522 5:0.0022468085 #
0.76745885634853905354901826285641 1:0.29434782 2:0.69999999 3:1 4:0.03905797 5:0.0012979684 #
0.76745885634853905354901826285641 1:0.46950001 2:0.73333335 3:1 4:0.029650001 5:0.0018775619 #
-0.76745885634853905354901826285641 1:0.236 2:0.39130434 3:1 4:0.017375 5:0.0036832953 #
0.76745885634853905354901826285641 1:0.2045 2:0.375 3:1 4:0.035666667 5:0.00059194368 #
-0.76745885634853905354901826285641 1:0.5176 2:1 3:1 4:0.084057145 5:0.0058601983 #
0.76745885634853905354901826285641 1:0.16 2:0.27906978 3:1 4:0.03325 5:0.0021977364 #
-0.76745885634853905354901826285641 1:0.219 2:0.375 3:1 4:0.0374 5:0.0017415689 #
0.76745885634853905354901826285641 1:0.50666666 2:1 3:1 4:0.057301588 5:0.0039088344 #
-0.76745885634853905354901826285641 1:0.294 2:0.86486489 3:1 4:0.019200001 5:0.00080495054 #
0.76745885634853905354901826285641 1:0.22576924 2:0.15384616 3:1 4:0.058538463 5:0.0042702546 #
-0.76745885634853905354901826285641 1:0.2722857 2:0.11764706 3:1 4:0.041828573 5:0.0031772212 #
-0.76745885634853905354901826285641 1:0.47999999 2:0.43478259 3:1 4:0.037 5:0.0011225069 #
0.76745885634853905354901826285641 1:0.24783784 2:0.93333334 3:1 4:0.035112612 5:0.0010862123 #
-0.76745885634853905354901826285641 1:0.43571427 2:0.40000001 3:1 4:0.061904762 5:0.0050045848 #
0.76745885634853905354901826285641 1:0.26689655 2:0.85714287 3:1 4:0.062557474 5:0.0028046335 #
0.76745885634853905354901826285641 1:0.39857143 2:0.16666667 3:1 4:0.076499999 5:0.0042514154 #
-0.76745885634853905354901826285641 1:0.22736841 2:1 3:1 4:0.036263157 5:0.0019483175 #
-0.76745885634853905354901826285641 1:0.2168421 2:0.99029124 3:1 4:0.09518797 5:0.0026532004 #
0.76745885634853905354901826285641 1:0.34470588 2:0.21428572 3:1 4:0.046176471 5:0.0050158249 #
-0.59490114570082330835987249884056 1:0.20999999 2:0.32352942 3:1 4:0.043249998 5:0.0025986847 #
0.76745885634853905354901826285641 1:0.41133332 2:0.92000002 3:1 4:0.072083332 5:0.0037610943 #
0.76745885634853905354901826285641 1:0.24052632 2:0.40000001 3:1 4:0.028571429 5:0.0037883208 #
-0.76745885634853905354901826285641 1:0.32185185 2:0.69444442 3:1 4:0.015370371 5:0.0022044077 #
-0.76745885634853905354901826285641 1:0.25230768 2:0.24742268 3:1 4:0.099294871 5:0.0021440904 #
0.76745885634853905354901826285641 1:0.4074074 2:0.82222223 3:1 4:0.042804234 5:0.0058763647 #
-0.76745885634853905354901826285641 1:0.25066668 2:0.24193548 3:1 4:0.072166666 5:0.005963603 #
0.76745885634853905354901826285641 1:0.25833333 2:0.87096775 3:1 4:0.044930555 5:0.0016581558 #
-0.76745885634853905354901826285641 1:0.35137931 2:1 3:1 4:0.053448275 5:0.0044907401 #
0.76745885634853905354901826285641 1:0.20518519 2:0.037037037 3:1 4:0.031296298 5:0.0017763133 #
0.76745885634853905354901826285641 1:0.24730769 2:0.97058821 3:1 4:0.046813186 5:0.002593749 #
-0.76745885634853905354901826285641 1:0.28071427 2:0.29268292 3:1 4:0.015928572 5:0.0017811724 #
0.76745885634853905354901826285641 1:0.330625 2:0.81818181 3:1 4:0.058802083 5:0.0041964971 #
-0.76745885634853905354901826285641 1:0.29935485 2:0.97142857 3:1 4:0.071935482 5:0.0047194767 #
0.76745885634853905354901826285641 1:0.22733334 2:0.13333334 3:1 4:0.071466669 5:0.0027375827 #
-0.76745885634853905354901826285641 1:0.27571428 2:0.072580643 3:1 4:0.053660713 5:0.0050984663 #
0.76745885634853905354901826285641 1:0.19428572 2:1 3:1 4:0.080267854 5:0.0037151445 #
-0.76745885634853905354901826285641 1:0.28452381 2:1 3:1 4:0.059455782 5:0.002610811 #
0.76745885634853905354901826285641 1:0.35407406 2:0.28125 3:1 4:0.068888888 5:0.0053671338 #
-0.76745885634853905354901826285641 1:0.28727272 2:0.85714287 3:1 4:0.049954545 5:0.0014855813 #
0.76745885634853905354901826285641 1:0.30357143 2:0.44444445 3:1 4:0.061642855 5:0.0030956182 #
-0.76745885634853905354901826285641 1:0.31200001 2:0.27586207 3:1 4:0.069499999 5:0.0020630732 #
-0.76745885634853905354901826285641 1:0.33434781 2:0.45454547 3:1 4:0.059378881 5:0.0027059773 #
0.76745885634853905354901826285641 1:0.26290321 2:0.75 3:1 4:0.046838708 5:0.0031893018 #
-0.76745885634853905354901826285641 1:0.25333333 2:0.37209302 3:1 4:0.069404759 5:0.00249075 #
0.76745885634853905354901826285641 1:0.40461537 2:0.80000001 3:1 4:0.055824175 5:0.0024444708 #
-0.76745885634853905354901826285641 1:0.27636364 2:0.8888889 3:1 4:0.047922079 5:0.0028221272 #
0.76745885634853905354901826285641 1:0.27363637 2:0.27500001 3:1 4:0.047454547 5:0.0038367005 #
-0.76745885634853905354901826285641 1:0.27411765 2:0.875 3:1 4:0.060470589 5:0.0030427217 #
0.76745885634853905354901826285641 1:0.21107143 2:0.14285715 3:1 4:0.067827381 5:0.0013766458 #
-0.76745885634853905354901826285641 1:0.32499999 2:0.12096774 3:1 4:0.058717947 5:0.0042533861 #
0.76745885634853905354901826285641 1:0.19382353 2:0.8888889 3:1 4:0.036838233 5:0.001304163 #
-0.76745885634853905354901826285641 1:0.33470589 2:0.46153846 3:1 4:0.059411764 5:0.0027598008 #
0.76745885634853905354901826285641 1:0.42393941 2:0.75 3:1 4:0.050865799 5:0.0030756029 #
0.76745885634853905354901826285641 1:0.20416667 2:0.33333334 3:1 4:0.063749999 5:0.0030287225 #
-0.76745885634853905354901826285641 1:0.42636365 2:0.41666666 3:1 4:0.036363635 5:0.0026132548 #
-0.76745885634853905354901826285641 1:0.2588889 2:0.93150687 3:1 4:0.036587302 5:0.002215117 #
-0.76745885634853905354901826285641 1:0.27611113 2:0.86153847 3:1 4:0.063111112 5:0.0038507353 #
0.76745885634853905354901826285641 1:0.25825 2:0.37931034 3:1 4:0.037520833 5:0.00095571281 #
-0.76745885634853905354901826285641 1:0.26925927 2:0.88235295 3:1 4:0.067566134 5:0.0038048557 #
0.76745885634853905354901826285641 1:0.33000001 2:0.5 3:1 4:0.080476187 5:0.0044562062 #
0.76745885634853905354901826285641 1:0.33777776 2:1 3:1 4:0.078694448 5:0.0039490038 #
-0.76745885634853905354901826285641 1:0.21842106 2:0.3125 3:1 4:0.028894737 5:0.0030951439 #
0.76745885634853905354901826285641 1:0.26304349 2:0.63333333 3:1 4:0.050000001 5:0.0041539506 #
-0.76745885634853905354901826285641 1:0.317 2:0.625 3:1 4:0.049416665 5:0.0040552034 #
-0.76745885634853905354901826285641 1:0.30500001 2:0.73333335 3:1 4:0.045666665 5:0.0039970675 #
0.76745885634853905354901826285641 1:0.25666666 2:0.66666669 3:1 4:0.043638889 5:0.00093184714 #
-0.76745885634853905354901826285641 1:0.32692307 2:0.56521738 3:1 4:0.067802198 5:0.0038942131 #
0.76745885634853905354901826285641 1:0.31999999 2:0.5714286 3:1 4:0.054882351 5:0.0087016672 #
0.76745885634853905354901826285641 1:0.3576 2:0.68888891 3:1 4:0.060171429 5:0.0042366707 #
-0.76745885634853905354901826285641 1:0.31999999 2:0.60869563 3:1 4:0.04417143 5:0.0020962968 #
-0.76745885634853905354901826285641 1:0.29727274 2:0.74074072 3:1 4:0.058701299 5:0.0021733185 #
-0.76745885634853905354901826285641 1:0.32133332 2:0.53333336 3:1 4:0.067333333 5:0.0023229946 #
0.76745885634853905354901826285641 1:0.17457142 2:0.75 3:1 4:0.049095239 5:0.001889499 #
-0.76745885634853905354901826285641 1:0.25999999 2:0.90476191 3:1 4:0.064948976 5:0.0025086352 #
0.76745885634853905354901826285641 1:0.31777778 2:0.2857143 3:1 4:0.046500001 5:0.01276846 #
-0.76745885634853905354901826285641 1:0.27615383 2:0.81818181 3:1 4:0.082417585 5:0.0016317705 #
0.76745885634853905354901826285641 1:0.41257143 2:0.27272728 3:1 4:0.042314287 5:0.0052535594 #
0.76745885634853905354901826285641 1:0.3273913 2:1 3:1 4:0.077521741 5:0.0057747643 #
-0.24039223588532232511738584435079 1:0.11384615 2:0.064935066 3:1 4:0.023974359 5:0.00023867699 #
-0.76745885634853905354901826285641 1:0.29764706 2:0.7647059 3:1 4:0.050000001 5:0.0017354096 #
0.76745885634853905354901826285641 1:0.29777777 2:0.2857143 3:1 4:0.046500001 5:0.01276846 #
0.76745885634853905354901826285641 1:0.27666667 2:1 3:1 4:0.038055554 5:0.0019758362 #
-0.76745885634853905354901826285641 1:0.30545455 2:0.22857143 3:1 4:0.07 5:0.0067348876 #
0.76745885634853905354901826285641 1:0.34 2:0.95454544 3:1 4:0.047232144 5:0.0042501399 #
-0.76745885634853905354901826285641 1:0.30199999 2:1 3:1 4:0.051828571 5:0.0025684817 #
0.76745885634853905354901826285641 1:0.33447367 2:0.15384616 3:1 4:0.035241228 5:0.0010179966 #
-0.76745885634853905354901826285641 1:0.26461539 2:0.14516129 3:1 4:0.032948717 5:0.0041145585 #
0.76745885634853905354901826285641 1:0.29049999 2:0.93333334 3:1 4:0.033785716 5:0.0037078292 #
0.76745885634853905354901826285641 1:0.3847619 2:0.0625 3:1 4:0.069115646 5:0.0049650408 #
-0.76745885634853905354901826285641 1:0.55500001 2:0.18181819 3:1 4:0.068831168 5:0.0028962288 #
0.76745885634853905354901826285641 1:0.22916667 2:0.85714287 3:1 4:0.034375001 5:0.0028740461 #
-0.76745885634853905354901826285641 1:0.24736843 2:0.9285714 3:1 4:0.05706767 5:0.0038140297 #
0.76745885634853905354901826285641 1:0.45214286 2:0.16666667 3:1 4:0.048877552 5:0.003577529 #
-0.76745885634853905354901826285641 1:0.28071427 2:0.17948718 3:1 4:0.015928572 5:0.0017811724 #
0.76745885634853905354901826285641 1:0.31444445 2:0.69999999 3:1 4:0.043749999 5:0.0011705818 #
-0.76745885634853905354901826285641 1:0.34133333 2:0.43835616 3:1 4:0.02552381 5:0.0014673795 #
0.76745885634853905354901826285641 1:0.24962963 2:0.5714286 3:1 4:0.051203705 5:0.0012151283 #
-0.76745885634853905354901826285641 1:0.27692309 2:0.86956519 3:1 4:0.039000001 5:0.00087291404 #
-0.76745885634853905354901826285641 1:0.19487804 2:0.36363637 3:1 4:0.077975608 5:0.0027358418 #
0.76745885634853905354901826285641 1:0.4725 2:0.875 3:1 4:0.07508333 5:0.0030870682 #
0.76745885634853905354901826285641 1:0.26523811 2:0.3125 3:1 4:0.042095236 5:0.0032098526 #
-0.76745885634853905354901826285641 1:0.3934375 2:0.94999999 3:1 4:0.047232144 5:0.0037416709 #
0.76745885634853905354901826285641 1:0.19351351 2:0.2 3:1 4:0.053135134 5:0.0049706483 #
0.76745885634853905354901826285641 1:0.345 2:0.94999999 3:1 4:0.07153333 5:0.0049086073 #
0.76745885634853905354901826285641 1:0.13705882 2:0.74025977 3:1 4:0.042352941 5:0.001340438 #
-0.76745885634853905354901826285641 1:0.292 2:0.80769229 3:1 4:0.043714285 5:0.002762567 #
0.76745885634853905354901826285641 1:0.22393939 2:0.21052632 3:1 4:0.04830303 5:0.0034465319 #
0.76745885634853905354901826285641 1:0.15593749 2:0.07526882 3:1 4:0.03484375 5:0.0033264093 #
0.76745885634853905354901826285641 1:0.28096774 2:0.96774191 3:1 4:0.074419357 5:0.004065624 #
0.76745885634853905354901826285641 1:0.25478262 2:0.42857143 3:1 4:0.027355073 5:0.00096640288 #
-0.76745885634853905354901826285641 1:0.29764706 2:0.75757575 3:1 4:0.050000001 5:0.0017354096 #
0.76745885634853905354901826285641 1:0.25827587 2:0.75862068 3:1 4:0.026896551 5:0.0020926218 #
-0.76745885634853905354901826285641 1:0.28071427 2:0.32258064 3:1 4:0.034214284 5:0.0093307476 #
-0.76745885634853905354901826285641 1:0.27785715 2:0.86206895 3:1 4:0.026938776 5:0.0034414076 #
0.76745885634853905354901826285641 1:0.29499999 2:0.25714287 3:1 4:0.046944443 5:0.0033332389 #
-0.76745885634853905354901826285641 1:0.27416667 2:0.23636363 3:1 4:0.032380953 5:0.0054882243 #
0.76745885634853905354901826285641 1:0.37416667 2:0.90909094 3:1 4:0.087797619 5:0.0031269426 #
-0.76745885634853905354901826285641 1:0.37215686 2:0.83333331 3:1 4:0.047794119 5:0.0028357718 #
0.76745885634853905354901826285641 1:0.2113793 2:0.2 3:1 4:0.059931036 5:0.0038231141 #
-0.76745885634853905354901826285641 1:0.27645162 2:0.84482759 3:1 4:0.060645163 5:0.0034807711 #
0.76745885634853905354901826285641 1:0.21466666 2:0.17857143 3:1 4:0.052999999 5:0.00085574691 #
0.76745885634853905354901826285641 1:0.27034482 2:1 3:1 4:0.054454021 5:0.0020729594 #
-0.76745885634853905354901826285641 1:0.1075 2:0.125 3:1 4:0.038125001 5:0.00059060619 #
0.76745885634853905354901826285641 1:0.18076923 2:0.26666668 3:1 4:0.0750641 5:0.0024392908 #
-0.76745885634853905354901826285641 1:0.29285714 2:0.77777779 3:1 4:0.055612244 5:0.0026464164 #
0.76745885634853905354901826285641 1:0.25 2:0.64705884 3:1 4:0.019553572 5:0.0015824478 #
-0.76745885634853905354901826285641 1:0.33428571 2:0.56097561 3:1 4:0.045214284 5:0.0023294911 #
0.76745885634853905354901826285641 1:0.31869566 2:0.69444442 3:1 4:0.045913044 5:0.0052484912 #
-0.76745885634853905354901826285641 1:0.29054055 2:0.78125 3:1 4:0.054826256 5:0.0024478696 #
0.76745885634853905354901826285641 1:0.36521739 2:0.33333334 3:1 4:0.040062111 5:0.0015722268 #
0.76745885634853905354901826285641 1:0.29679999 2:0.86363637 3:1 4:0.082914285 5:0.0024507672 #
-0.76745885634853905354901826285641 1:0.32800001 2:0.21428572 3:1 4:0.042952381 5:0.0058963173 #
-0.76745885634853905354901826285641 1:0.26133335 2:0.8888889 3:1 4:0.057380952 5:0.0016095097 #
0.76745885634853905354901826285641 1:0.14928572 2:0.071428575 3:1 4:0.048785713 5:0.0027397028 #
-0.76745885634853905354901826285641 1:0.25294119 2:0.125 3:1 4:0.047310926 5:0.0017085408 #
0.76745885634853905354901826285641 1:0.40964285 2:0.88524592 3:1 4:0.064392857 5:0.0039635194 #
-0.76745885634853905354901826285641 1:0.44125 2:1 3:1 4:0.077187501 5:0.0047529773 #
0.76745885634853905354901826285641 1:0.27617648 2:1 3:1 4:0.041848738 5:0.0023590848 #
-0.76745885634853905354901826285641 1:0.20769231 2:0.2 3:1 4:0.081384614 5:0.0021336153 #
-0.76745885634853905354901826285641 1:0.36705881 2:1 3:1 4:0.050823528 5:0.0019457532 #
0.76745885634853905354901826285641 1:0.19470589 2:0.090909094 3:1 4:0.039681371 5:0.0016234794 #
-0.76745885634853905354901826285641 1:0.22285715 2:0.28125 3:1 4:0.033741497 5:0.0022720306 #
0.76745885634853905354901826285641 1:0.43105263 2:0.94915253 3:1 4:0.061999999 5:0.0035819304 #
0.76745885634853905354901826285641 1:0.32642856 2:0.59375 3:1 4:0.045102041 5:0.0057684272 #
-0.76745885634853905354901826285641 1:0.33199999 2:0.45454547 3:0 4:0.097714283 5:0.0032795484 #
0.76745885634853905354901826285641 1:0.22277778 2:0.64999998 3:1 4:0.045793653 5:0.004666558 #
-0.76745885634853905354901826285641 1:0.3190909 2:0.58536583 3:1 4:0.039818183 5:0.0014675123 #
-0.76745885634853905354901826285641 1:0.28400001 2:0.80000001 3:1 4:0.062966667 5:0.0028685494 #
-0.76745885634853905354901826285641 1:0.38999999 2:0.36000001 3:1 4:0.057958335 5:0.0030052317 #
0.76745885634853905354901826285641 1:0.23434782 2:0.76923078 3:1 4:0.026956521 5:0.0013510193 #
-0.76745885634853905354901826285641 1:0.27923077 2:0.85000002 3:1 4:0.029890111 5:0.0016474063 #
0.76745885634853905354901826285641 1:0.185 2:0.5945946 3:1 4:0.029761905 5:0.0012259895 #
-0.76745885634853905354901826285641 1:0.29555556 2:0.73076922 3:1 4:0.061349206 5:0.0034006902 #
0.76745885634853905354901826285641 1:0.20933333 2:0.56410259 3:1 4:0.055266667 5:0.0022639735 #
0.76745885634853905354901826285641 1:0.32517242 2:0.80487806 3:1 4:0.068620689 5:0.0047297468 #
-0.76745885634853905354901826285641 1:0.21045454 2:0.57894737 3:1 4:0.059272729 5:0.0021499326 #
-0.76745885634853905354901826285641 1:0.33657894 2:0.88571429 3:1 4:0.035763159 5:0.0026892116 #
0.76745885634853905354901826285641 1:0.18333334 2:0.06666667 3:1 4:0.065499999 5:0.0019395947 #
-0.76745885634853905354901826285641 1:0.30322582 2:0.11111111 3:1 4:0.045806453 5:0.0017831763 #
0.76745885634853905354901826285641 1:0.28999999 2:0.875 3:1 4:0.081739128 5:0.0048036613 #
-0.76745885634853905354901826285641 1:0.2182353 2:0.14705883 3:1 4:0.074588232 5:0.0019423043 #
0.76745885634853905354901826285641 1:0.27200001 2:0.86666667 3:1 4:0.056914285 5:0.0040325518 #
-0.76745885634853905354901826285641 1:0.23589744 2:0.97142857 3:1 4:0.030179488 5:0.0016838782 #
-0.76745885634853905354901826285641 1:0.27807692 2:1 3:1 4:0.084780216 5:0.0031418537 #
0.76745885634853905354901826285641 1:0.32655174 2:0.090909094 3:1 4:0.042655174 5:0.0041803028 #
0.76745885634853905354901826285641 1:0.31384614 2:0.96551722 3:1 4:0.05526923 5:0.0044147307 #
-0.76745885634853905354901826285641 1:0.35176471 2:0.16129032 3:1 4:0.052941177 5:0.0029452527 #
0.76745885634853905354901826285641 1:0.32852942 2:0.18181819 3:1 4:0.056705881 5:0.0043169428 #
-0.76745885634853905354901826285641 1:0.3285 2:0.23684211 3:1 4:0.062583335 5:0.0037799038 #
0.76745885634853905354901826285641 1:0.2385 2:1 3:1 4:0.033642858 5:0.0016864679 #
0.76745885634853905354901826285641 1:0.32655174 2:0.1 3:1 4:0.042655174 5:0.0041803028 #
-0.76745885634853905354901826285641 1:0.214375 2:0.61904764 3:1 4:0.045468751 5:0.0016884314 #
-0.76745885634853905354901826285641 1:0.22233333 2:1 3:1 4:0.037555557 5:0.0014365928 #
0.76745885634853905354901826285641 1:0.16133334 2:0.33333334 3:1 4:0.044285715 5:0.002034754 #
-0.76745885634853905354901826285641 1:0.30675676 2:1 3:1 4:0.062818535 5:0.0039596623 #
0.76745885634853905354901826285641 1:0.28588235 2:0.34999999 3:1 4:0.04142857 5:0.0054076239 #
0.76745885634853905354901826285641 1:0.21789473 2:0.23076923 3:1 4:0.059 5:0.002598973 #
0.76745885634853905354901826285641 1:0.33844444 2:1 3:1 4:0.07773333 5:0.0040989681 #
-0.76745885634853905354901826285641 1:0.33500001 2:0.16666667 3:1 4:0.03831169 5:0.0023165978 #
-0.76745885634853905354901826285641 1:0.27636364 2:0.83333331 3:1 4:0.06872727 5:0.0025366091 #
0.76745885634853905354901826285641 1:0.23538461 2:0.30000001 3:1 4:0.082615383 5:0.0045824489 #
0.76745885634853905354901826285641 1:0.26538461 2:0.9375 3:1 4:0.076076925 5:0.0045157475 #
-0.76745885634853905354901826285641 1:0.28210527 2:0.19354838 3:1 4:0.083473682 5:0.0037025881 #
-0.76745885634853905354901826285641 1:0.25785714 2:0.875 3:1 4:0.085285716 5:0.0018388447 #
0.76745885634853905354901826285641 1:0.29304346 2:0.44444445 3:1 4:0.027826088 5:0.0016245256 #
0.76745885634853905354901826285641 1:0.1781579 2:0.83333331 3:1 4:0.039447367 5:0.00084704591 #
-0.24794537929948812227110011008335 1:0.22689655 2:0.21818182 3:1 4:0.042512316 5:0.0008697724 #
0.76745885634853905354901826285641 1:0.36057141 2:1 3:1 4:0.046530612 5:0.0028412992 #
0.76745885634853905354901826285641 1:0.39190477 2:0.090909094 3:1 4:0.070204079 5:0.0061624493 #
-0.76745885634853905354901826285641 1:0.25885713 2:0.89999998 3:1 4:0.036285713 5:0.0020503134 #
-0.76745885634853905354901826285641 1:0.35764706 2:0.38461539 3:1 4:0.063529409 5:0.0016560617 #
0.76745885634853905354901826285641 1:0.34724137 2:0.90909094 3:1 4:0.066699505 5:0.0050440347 #
-0.76745885634853905354901826285641 1:0.35291666 2:0.37037036 3:1 4:0.041999999 5:0.0043164701 #
0.76745885634853905354901826285641 1:0.27583334 2:0.7647059 3:1 4:0.029940477 5:0.0015887249 #
-0.76745885634853905354901826285641 1:0.2751852 2:1 3:1 4:0.062740743 5:0.0032284879 #
0.76745885634853905354901826285641 1:0.21444444 2:0.045454547 3:1 4:0.033148147 5:0.0024643629 #
-0.0052335189327619505150757106548554 1:0.115 2:0.2 3:1 4:0.031500001 5:0.0050061187 #
0.76745885634853905354901826285641 1:0.26542857 2:0.86956519 3:1 4:0.05242857 5:0.0032483928 #
0.76745885634853905354901826285641 1:0.30500001 2:0.21428572 3:1 4:0.022755101 5:0.002056397 #
-0.76745885634853905354901826285641 1:0.25428572 2:0.90909094 3:1 4:0.046530612 5:0.0019658362 #
-0.76745885634853905354901826285641 1:0.34583333 2:0.21052632 3:1 4:0.056309525 5:0.0042283349 #
0.76745885634853905354901826285641 1:0.2865625 2:0.875 3:1 4:0.041328125 5:0.002035378 #
0.76745885634853905354901826285641 1:0.25999999 2:0.14285715 3:1 4:0.048120301 5:0.001707109 #
-0.76745885634853905354901826285641 1:0.25736842 2:0.91176468 3:1 4:0.027473684 5:0.00026872905 #
-0.76745885634853905354901826285641 1:0.26913044 2:0.14634146 3:1 4:0.030217391 5:0.0014302152 #
0.76745885634853905354901826285641 1:0.2764 2:1 3:1 4:0.063040003 5:0.003702323 #
0.76745885634853905354901826285641 1:0.28117648 2:0.125 3:1 4:0.059588235 5:0.0042711413 #
-0.76745885634853905354901826285641 1:0.29592592 2:0.95890409 3:1 4:0.049735449 5:0.0044821501 #
0.76745885634853905354901826285641 1:0.30933332 2:0.26666668 3:1 4:0.038857143 5:0.0054785339 #
-0.76745885634853905354901826285641 1:0.31142858 2:0.24390244 3:1 4:0.049714286 5:0.0073810453 #
0.76745885634853905354901826285641 1:0.27777779 2:1 3:1 4:0.04222222 5:0.0044770455 #
-0.76745885634853905354901826285641 1:0.33483872 2:0.97500002 3:1 4:0.048516128 5:0.0031377894 #
-0.76745885634853905354901826285641 1:0.31 2:1 3:1 4:0.035636365 5:0.0030140455 #
0.76745885634853905354901826285641 1:0.42956522 2:0.2 3:1 4:0.034409937 5:0.0040523601 #
-0.76745885634853905354901826285641 1:0.41894737 2:0.090909094 3:1 4:0.033157896 5:0.0016205612 #
-0.76745885634853905354901826285641 1:0.41999999 2:0.27272728 3:1 4:0.02735294 5:0.001833149 #
-0.76745885634853905354901826285641 1:0.375 2:0.40000001 3:1 4:0.033285715 5:0.0011747106 #
0.76745885634853905354901826285641 1:0.16592592 2:0.71428573 3:1 4:0.043592591 5:0.0012896934 #
-0.76745885634853905354901826285641 1:0.27700001 2:0.81999999 3:1 4:0.059250001 5:0.0034052038 #
0.76745885634853905354901826285641 1:0.35093749 2:0.43589744 3:1 4:0.063214287 5:0.0029208185 #
-0.76745885634853905354901826285641 1:0.18583333 2:0.26666668 3:1 4:0.062944442 5:0.0047692861 #
0.76745885634853905354901826285641 1:0.39454547 2:0.83333331 3:1 4:0.060064934 5:0.0050316113 #
0.76745885634853905354901826285641 1:0.21666667 2:0.23529412 3:1 4:0.053476192 5:0.0041446756 #
-0.76745885634853905354901826285641 1:0.29206896 2:0.80000001 3:1 4:0.022482758 5:0.0021292851 #
0.76745885634853905354901826285641 1:0.23866667 2:0.40000001 3:1 4:0.067142859 5:0.0030020389 #
-0.76745885634853905354901826285641 1:0.33307692 2:0.36363637 3:1 4:0.069780223 5:0.0024912802 #
0.76745885634853905354901826285641 1:0.26199999 2:0.75862068 3:1 4:0.037166666 5:0.0031110737 #
-0.76745885634853905354901826285641 1:0.28812501 2:0.80000001 3:1 4:0.031071428 5:0.0011684424 #
-0.76745885634853905354901826285641 1:0.26076922 2:0.81481481 3:1 4:0.091602564 5:0.0013412639 #
0.76745885634853905354901826285641 1:0.46882352 2:0.30000001 3:1 4:0.063029408 5:0.0069799749 #
-0.76745885634853905354901826285641 1:0.29363635 2:0.06666667 3:1 4:0.089909092 5:0.0015820187 #
0.76745885634853905354901826285641 1:0.34099999 2:1 3:1 4:0.037821427 5:0.0027192831 #
-0.76745885634853905354901826285641 1:0.30461538 2:0.69230771 3:1 4:0.042747252 5:0.0025647997 #
-0.76745885634853905354901826285641 1:0.28705883 2:0.75 3:1 4:0.064941175 5:0.0039478708 #
0.76745885634853905354901826285641 1:0.13 2:0.53333336 3:1 4:0.0069166669 5:0.00066683383 #
-0.76745885634853905354901826285641 1:0.089285716 2:0.22680412 3:1 4:0.010416667 5:0.00011785507 #
0.76745885634853905354901826285641 1:0.37333333 2:0.86885244 3:1 4:0.062766664 5:0.0027484081 #
-0.76745885634853905354901826285641 1:0.27200001 2:0.83999997 3:1 4:0.048599999 5:0.0030491978 #
0.76745885634853905354901826285641 1:0.27649999 2:0.40000001 3:1 4:0.045200001 5:0.0033651264 #
0.76745885634853905354901826285641 1:0.2588 2:1 3:1 4:0.064833336 5:0.0013781307 #
-0.76745885634853905354901826285641 1:0.33050001 2:0.29411766 3:1 4:0.064400002 5:0.0031471564 #
-0.76745885634853905354901826285641 1:0.33899999 2:0.35135135 3:1 4:0.0493 5:0.0034517315 #
0.76745885634853905354901826285641 1:0.25952381 2:0.73584908 3:1 4:0.022460317 5:0.0020301917 #
-0.76745885634853905354901826285641 1:0.21275862 2:1 3:1 4:0.067270115 5:0.0016620462 #
0.76745885634853905354901826285641 1:0.38374999 2:0.375 3:1 4:0.062312499 5:0.0021802108 #
-0.76745885634853905354901826285641 1:0.26636365 2:0.88135594 3:1 4:0.013090909 5:0.00020109245 #
-0.76745885634853905354901826285641 1:0.25523809 2:0.88235295 3:1 4:0.058761906 5:0.0025028896 #
0.76745885634853905354901826285641 1:0.33633333 2:0.42105263 3:1 4:0.033733334 5:0.0028307503 #
-0.76745885634853905354901826285641 1:0.41675675 2:0.090909094 3:1 4:0.053590734 5:0.0029614565 #
0.76745885634853905354901826285641 1:0.26473683 2:1 3:1 4:0.05993421 5:0.0008812524 #
0.76745885634853905354901826285641 1:0.28200001 2:0.1 3:1 4:0.071571432 5:0.0067299423 #
-0.76745885634853905354901826285641 1:0.2775 2:0.82051283 3:1 4:0.035700001 5:0.0019898033 #
-0.76745885634853905354901826285641 1:0.18652174 2:0.22222222 3:1 4:0.078514494 5:0.0030274761 #
0.76745885634853905354901826285641 1:0.29777777 2:0.96666664 3:1 4:0.035515875 5:0.0026701749 #
-6.2003683212986764050622667809876e-05 1:0.25318182 2:0.04109589 3:1 4:0.037077922 5:0.0049280673 #
0.76745885634853905354901826285641 1:0.30666667 2:0.86666667 3:1 4:0.045059524 5:0.003432964 #
0.76745885634853905354901826285641 1:0.3890909 2:0.086956523 3:1 4:0.037575759 5:0.0013113377 #
-0.76745885634853905354901826285641 1:0.34441176 2:0.95890409 3:1 4:0.039789915 5:0.0033233764 #
0.76745885634853905354901826285641 1:0.16263159 2:0.11111111 3:1 4:0.031263158 5:0.0013681637 #
0.76745885634853905354901826285641 1:0.1790909 2:0.041666668 3:1 4:0.035454545 5:0.0020873181 #
-0.76745885634853905354901826285641 1:0.31 2:0.92682928 3:1 4:0.059481483 5:0.0018017933 #
0.76745885634853905354901826285641 1:0.1296 2:0.58333331 3:1 4:0.052333333 5:0.00097924075 #
-0.76745885634853905354901826285641 1:0.25777778 2:0.15384616 3:1 4:0.033412699 5:0.0014994077 #
0.76745885634853905354901826285641 1:0.33684212 2:0.67500001 3:1 4:0.090947367 5:0.0059960946 #
-0.76745885634853905354901826285641 1:0.37347826 2:0.78947371 3:1 4:0.073956519 5:0.0035871153 #
0.76745885634853905354901826285641 1:0.22916667 2:0.083333336 3:1 4:0.03202381 5:0.0020651235 #
0.76745885634853905354901826285641 1:0.36333334 2:1 3:1 4:0.053073592 5:0.0035490263 #
-0.76745885634853905354901826285641 1:0.28538463 2:0.077922076 3:1 4:0.046384614 5:0.0044559077 #
0.76745885634853905354901826285641 1:0.30239999 2:0.97560978 3:1 4:0.047359999 5:0.0040952424 #
0.76745885634853905354901826285641 1:0.25600001 2:0.14285715 3:1 4:0.030444445 5:0.0010147812 #
-0.76745885634853905354901826285641 1:0.24600001 2:0.91397852 3:1 4:0.0592 5:0.0035620623 #
-0.76745885634853905354901826285641 1:0.25285715 2:0.90909094 3:1 4:0.035408162 5:0.0022703896 #
0.76745885634853905354901826285641 1:0.26846153 2:0.2 3:1 4:0.046307694 5:0.0036070962 #
-0.76745885634853905354901826285641 1:0.29615384 2:0.14285715 3:1 4:0.047179487 5:0.0018768 #
0.76745885634853905354901826285641 1:0.23847826 2:1 3:1 4:0.038447205 5:0.0018209821 #
-0.76745885634853905354901826285641 1:0.37851852 2:0.94520545 3:1 4:0.052275132 5:0.0038796973 #
0.76745885634853905354901826285641 1:0.19294117 2:0.25 3:1 4:0.033970587 5:0.00062037521 #
-0.76745885634853905354901826285641 1:0.089166664 2:0.2 3:1 4:0.017380953 5:0.00010265547 #
0.76745885634853905354901826285641 1:0.33272728 2:0.93333334 3:1 4:0.053727273 5:0.0046361368 #
-0.76745885634853905354901826285641 1:0.41119999 2:0.96296299 3:1 4:0.10188 5:0.004906788 #
0.76745885634853905354901826285641 1:0.16240001 2:0.11111111 3:1 4:0.0612 5:0.0011514759 #
-0.76745885634853905354901826285641 1:0.29583332 2:0.2 3:1 4:0.055750001 5:0.0052636061 #
0.76745885634853905354901826285641 1:0.35692307 2:0.84615386 3:1 4:0.072076924 5:0.0026509014 #
-0.76745885634853905354901826285641 1:0.30588236 2:0.66000003 3:1 4:0.049117647 5:0.0031828948 #
0.76745885634853905354901826285641 1:0.23 2:0.57999998 3:1 4:0.03403125 5:0.0019589204 #
0.76745885634853905354901826285641 1:0.28 2:0.66666669 3:1 4:0.081 5:0.0040344782 #
-0.76745885634853905354901826285641 1:0.32624999 2:0.53333336 3:1 4:0.045583334 5:0.0038521232 #
0.76745885634853905354901826285641 1:0.32285714 2:0.58823532 3:1 4:0.034795918 5:0.0023576869 #
0.76745885634853905354901826285641 1:0.37937501 2:0.68181819 3:1 4:0.059910715 5:0.0022112816 #
-0.76745885634853905354901826285641 1:0.3145 2:0.55645162 3:1 4:0.057333332 5:0.0045843534 #
-0.76745885634853905354901826285641 1:0.294 2:0.75609756 3:1 4:0.029549999 5:0.0017053653 #
0.76745885634853905354901826285641 1:0.15033333 2:0.5 3:1 4:0.048999999 5:0.00070469716 #
-0.76745885634853905354901826285641 1:0.11 2:0.11111111 3:1 4:0.015928572 5:0.00019850102 #
-0.76745885634853905354901826285641 1:0.29111111 2:0.72727275 3:1 4:0.053277779 5:0.0068630325 #
-0.76745885634853905354901826285641 1:0.29733333 2:0.66666669 3:1 4:0.064476192 5:0.0035118489 #
0.76745885634853905354901826285641 1:0.28291667 2:0.60000002 3:1 4:0.039479166 5:0.0014630212 #
-0.76745885634853905354901826285641 1:0.31999999 2:0.5714286 3:1 4:0.042976189 5:0.0040499927 #
0.76745885634853905354901826285641 1:0.28742856 2:0.67924529 3:1 4:0.035999998 5:0.0015979401 #
0.76745885634853905354901826285641 1:0.32724139 2:0.5714286 3:1 4:0.059724137 5:0.0041086408 #
-0.76745885634853905354901826285641 1:0.31218749 2:0.55555558 3:1 4:0.059812501 5:0.0039772978 #
0.76745885634853905354901826285641 1:0.32093751 2:0.64516127 3:1 4:0.04671875 5:0.0018105467 #
-0.76745885634853905354901826285641 1:0.29357144 2:0.72972971 3:1 4:0.045867346 5:0.0027718605 #
0.76745885634853905354901826285641 1:0.27410257 2:0.625 3:1 4:0.051615383 5:0.003077433 #
-0.76745885634853905354901826285641 1:0.29923075 2:0.64516127 3:1 4:0.044725277 5:0.0034917183 #
0.76745885634853905354901826285641 1:0.45890909 2:0.64516127 3:1 4:0.056490909 5:0.0033018363 #
-0.76745885634853905354901826285641 1:0.28999999 2:0.63636363 3:1 4:0.070526317 5:0.0070517729 #
-0.76745885634853905354901826285641 1:0.31137931 2:0.56 3:1 4:0.055718392 5:0.0040801736 #
0.76745885634853905354901826285641 1:0.23428571 2:0.53125 3:1 4:0.034217685 5:0.0034564885 #
-0.76745885634853905354901826285641 1:0.78416669 2:0.375 3:1 4:0.046309523 5:0.002180456 #
